1845 32
d_1 0.15462655 -0.09087641 -0.08659499 0.080731936 -0.053390536 -0.11517593 -0.042256538 -0.12334459 0.074637264 -0.05926411 0.028649462 -0.20611282 0.097760536 0.10748897 -0.048035342 -0.05360026 -0.06560825 0.04106464 0.22572446 -0.072586656 -0.17817624 -0.07979476 0.19762808 0.09687338 0.013707566 0.027957343 0.007250958 -0.03555347 0.08202527 0.15061535 -0.11001308 -0.051501155
m_137 0.2823211 -0.058051273 0.09900401 0.043979708 -0.21776281 -0.27254546 -0.300834 -0.04322131 0.26064923 -0.4582854 0.04016496 -0.5383362 0.16341977 0.2797851 -0.034277357 0.19095896 -0.38963148 0.07742921 0.31383947 -0.14535885 -0.48491398 -0.22551632 0.563936 0.2668642 -0.09936242 0.039670467 0.22723454 -0.011756605 0.26956034 0.30968913 0.05218232 -0.24567407
d_996 0.20972772 -0.14117774 0.009293243 0.09700127 -0.010229807 -0.3621564 -0.056264564 -0.19603968 0.19156548 -0.19884452 0.15753941 -0.60439277 -0.14232051 0.2682243 -0.25277886 0.10248216 -0.15850449 0.0014826548 0.37412232 -0.048337072 -0.2642649 -0.16459195 0.56978613 0.22661062 -0.023702582 -0.01972774 0.33433807 -0.14304072 0.25021693 0.268687 -0.12552978 -0.09884762
d_1078 0.1773999 0.09078026 -0.14853743 0.05218065 -0.019617148 -0.05036081 -0.08538516 -0.20319566 0.080384545 0.07300873 -0.006124129 -0.36617675 -0.0036647874 0.1843458 0.02185662 0.08369925 -0.17868893 -0.0023253127 0.17214923 0.03511033 -0.112294145 -0.23182891 0.35673544 -0.08529935 -0.09538147 -0.04314176 0.20501196 0.10331452 0.008271891 0.112291835 -0.19083688 -0.1469943
d_1323 0.18512872 -0.08536683 -0.20571399 -0.020122021 -0.06412375 -0.074494466 0.040982794 -0.17901112 -0.101281196 0.012719248 0.010046115 -0.40269223 -0.053042017 0.20359361 -0.176643 -0.009995945 0.03190172 0.16168952 0.2211759 0.0145349745 0.00900183 -0.16919133 0.24680491 0.24205284 0.0458692 0.025099946 0.08484355 -0.15847003 0.055902798 0.23268586 -0.19476941 -0.02172412
m_140 0.3079037 -0.2748937 -0.2777181 -0.12240266 -0.031938788 -0.12244742 0.08939391 -0.20745361 -0.029592939 0.04443745 0.07585539 -0.4629115 -0.13622043 0.124087095 0.04262818 -0.053019684 0.06489003 0.080056645 0.33335096 -0.10852612 0.009064267 -0.2626554 0.35922834 0.10372775 -0.012098135 0.1368873 -0.04259719 -0.13314456 -0.08225144 0.27326733 -0.3179687 0.024400773
d_641 0.15699287 -0.12731458 -0.4635302 0.08134732 0.120954625 -0.1267484 0.22035125 0.04389048 -0.2952456 -0.07579948 0.06946761 -0.32778856 -0.21107297 -0.020536289 0.18500742 -0.110009976 0.31153667 0.02664236 0.47871253 -0.18252788 0.21360528 0.008027765 0.4142703 -0.01815874 0.009693772 0.11142598 -0.0197216 -0.04467532 -0.052377768 0.24746877 -0.24041161 -0.010850473
d_2 -0.198442 0.024008004 0.23154353 0.09916191 -0.1219264 -0.29007745 0.13834257 0.10443996 0.31867817 -0.13128164 0.29381856 0.041385397 -0.109597474 0.120662354 -0.14683044 0.058861107 0.11814624 -0.28791726 0.16789392 0.025359323 -0.27850726 -0.2780612 -0.36618185 0.07362 0.18409811 -0.11942839 -0.05977986 0.056612764 0.38445488 -0.010660422 -0.22790009 -0.38631126
m_108 0.14667627 -0.09190429 -0.079328395 -0.23131138 -0.2668374 -0.022464063 -0.2690981 0.09883849 0.055304646 0.028177068 0.19510013 0.03562753 0.0059491443 -0.3229882 -0.23953839 0.013147255 -0.14054483 -0.3911848 -0.008833523 0.058701463 -0.21812482 -0.1130377 -0.21664189 -0.15073408 -0.028417425 -0.09147032 0.19496614 0.13193497 0.101450585 0.13721763 -0.024959898 -0.06606369
d_138 0.05823082 -0.15358116 0.07860948 0.28449437 -0.13897541 -0.18556309 0.09968749 -0.012384733 0.1921077 0.09998331 0.27743194 0.08486061 0.029218916 0.21761625 -0.03072123 -0.058761347 0.23045047 -0.0776297 -0.045613572 -0.2393102 -0.36147124 -0.11716484 -0.2601032 0.022908304 0.21261877 -0.07551687 0.25674206 -0.001998232 0.10927688 -0.23634191 -0.051482018 -0.04079972
d_1289 -0.026417203 -0.09642947 0.04251074 0.019033086 0.031051384 -0.14173473 -0.21417172 0.0664133 0.3714543 0.047544688 0.053537983 -0.1905953 0.16012573 0.018184297 -0.007821339 -0.18111342 0.14220138 -0.04838841 0.021706741 -0.06003851 -0.24903055 -0.17584103 -0.2840494 -0.06514913 0.1001721 -0.0056224046 -0.17445134 -0.0227078 0.014672166 0.10477429 -0.052954134 0.010744756
m_53 0.2545026 -0.17876314 0.2190483 0.011809365 -0.16414294 -0.18856171 0.14101335 0.10893754 -0.08929125 -0.03290339 0.16022114 0.34292564 0.2371886 0.08843744 -0.19061074 -0.252902 0.027926374 -0.41688237 -0.093983166 -0.22214983 -0.19808298 -0.08126124 0.06808798 -0.058030706 -0.17288923 -0.013444594 0.14366446 0.025958551 0.084136635 -0.22987123 0.02225367 -0.06770295
d_1271 -0.04902981 -0.038455 -0.015227284 0.06366183 -0.083198026 -0.09284381 -0.02805455 -0.048322428 0.183439 0.035513118 0.13013355 -0.008478712 -0.020992877 0.0518468 -0.01802273 -0.081554 0.05245554 -0.010755111 -0.00020401695 0.14743926 -0.16794302 -0.05445842 -0.09463682 0.0128881605 0.06295967 -0.0541957 -0.07351214 0.02371951 0.089289494 -0.08418526 0.019016005 -0.11965228
m_113 -0.04997539 0.0030543564 0.36968708 0.25142762 -0.20650561 0.1283888 0.25363576 0.0054636872 -0.01170194 -0.21548419 0.22374554 0.118775584 0.17929472 -0.02444291 -0.028992802 -0.23515853 0.25808233 0.12541658 -0.36073083 -0.18905367 -0.6311938 -0.19610399 -0.47159436 -0.22440626 0.4004717 -0.23654366 0.33718553 -0.039584916 0.14963545 0.12995107 0.24568686 -0.031578302
d_279 -0.1477621 -0.09045334 0.02827454 0.18336424 0.031571746 -0.33694762 0.01363524 -0.07299377 -0.091906436 -0.10247296 -0.17565995 0.4613499 0.08984558 0.15227841 -0.22434527 -0.0060868226 0.058093756 -0.055998847 -0.5493823 0.07696316 -0.14756227 -0.09643103 0.10190597 -0.21918721 -0.048304077 0.039192975 0.008169482 0.2024363 -0.026198123 0.25512156 0.18450662 -0.1654003
d_3 0.083534256 0.011177482 0.1055335 0.10665401 -0.16579609 -0.20868939 -0.0031932513 0.21839887 -0.019872604 -0.13283345 0.13676542 0.24017717 0.08078388 0.102989696 -0.21462902 -0.0839009 0.117759906 0.0257754 -0.2495549 -0.018250715 -0.10109152 -0.16613439 -0.20222527 -0.142555 0.13004299 0.06336441 0.20689625 0.18415958 0.049196824 0.1289824 0.15138523 -0.16903877
d_231 -0.08189804 0.0105701545 0.061359476 0.1589697 -0.18062465 -0.012211125 0.022447523 0.14123274 0.025734061 -0.07712923 0.18529376 0.21785827 -0.0707835 -0.024630561 -0.13225956 -0.018739846 0.109476894 0.091812015 -0.21628682 -0.080089636 -0.08035689 -0.061507363 -0.23868878 0.028694976 0.0486939 0.012470057 0.14736137 0.1581135 0.03547584 0.06883257 0.14024766 -0.2243112
d_1523 0.042019345 -0.012998943 0.16417305 0.17126177 -0.2087039 -0.12973763 0.014417725 0.17275631 0.004864685 -0.31145936 0.3479473 0.08473074 0.13312364 0.10000473 -0.18798804 -0.15901792 0.11053623 0.04816906 -0.39968246 -0.04955771 -0.18886733 -0.1492299 -0.13742234 0.0011942051 0.1443751 -0.021608016 0.21625456 0.21530175 0.07226894 0.13861561 0.041692864 -0.26843062
d_892 -0.00942832 0.10710517 0.13015419 0.13584195 -0.26681376 -0.027042465 -0.02437855 0.22598752 -0.007429464 -0.1538875 0.18398128 0.5330359 0.06879828 0.08017266 -0.07829653 -0.0946527 0.11668732 0.19665228 -0.18083109 -0.13998015 -0.28681287 -0.03379331 -0.24027467 0.015838478 0.037181742 -0.07129454 0.269724 0.21505871 0.04782787 0.15999015 0.23748215 -0.23986019
d_473 0.055806264 -0.014136476 0.0063825925 0.072466746 -0.0073960656 -0.0022915015 -0.027681472 -0.022357838 0.14187412 -0.06128139 0.12610698 0.04388852 0.02756945 0.11111166 -0.040358767 -0.14352131 0.16380799 0.058530197 -0.13930377 0.061287977 -0.14195925 0.01840682 -0.0909192 0.004431924 -0.008323209 -0.003385168 0.11617148 -0.038613565 0.030096995 -0.05867092 0.08335082 -0.13659126
d_4 -0.026872411 0.10359554 -0.17418179 0.050959457 0.047514744 0.030720048 -0.0111229895 0.16653937 0.06787134 -0.21707332 0.055673953 -0.16864188 -0.17844798 -0.08160163 -0.14221257 -0.1386128 0.06294748 0.068401605 0.15165496 -0.0010832358 0.016873624 -0.062138468 0.13929409 -0.04437115 0.051329356 0.0476779 -0.017052121 0.047912944 -0.1141958 0.17589277 -0.0095124245 -0.030042991
d_1399 0.01036458 0.041052204 -0.18396537 0.023358807 0.05166614 0.011473078 0.099410504 0.1378582 0.112255245 -0.12598531 0.12609364 -0.18432288 -0.06356888 0.04735284 -0.044957798 -0.13867149 -0.0084423795 0.1187812 0.25627965 0.025034048 -0.071040995 -0.05278473 0.08778774 -0.046035912 0.13904755 0.06891105 0.08814603 -0.028564034 0.008980001 0.15217847 0.07499551 0.029306635
d_600 -0.07104442 -0.08947937 -0.2308138 0.12754114 -0.0673442 -0.020855032 0.09419482 0.057195686 0.118730985 -0.18768072 0.28797013 -0.18795694 -0.053122602 -0.06851162 -0.05257878 -0.027584046 -0.0039922683 -0.017343812 0.29140213 0.058539495 -0.12833843 -0.08823281 0.037166923 -0.024522223 -0.0115509555 0.08242267 -0.016701395 -0.03669633 -0.2339273 0.15066828 0.026638146 -0.22520185
d_314 -0.02275482 -0.12701212 0.04545025 0.13988043 0.08601994 -0.18255937 0.038765807 0.25569257 0.19875284 -0.1650379 0.027999416 -0.17558634 -0.062798716 0.013276081 -0.07985394 -0.12966724 0.11084119 0.019979637 0.22101787 -0.051386334 -0.019792747 -0.2248821 0.031487875 0.0988898 0.18181843 0.043608658 0.076882355 -0.018210694 -0.16328008 0.070239775 0.15704943 -0.15933602
m_90 -0.24500997 0.009940643 -0.17845081 0.10935708 -0.28002602 -0.29293555 -0.025436973 0.45804867 -0.18189235 -0.12631866 -0.07060679 -0.42859232 -0.1553973 -0.21573862 -0.08018424 -0.18424954 0.055661984 0.05223415 -0.16997312 0.018717553 0.0016187108 -0.15650314 0.5327626 -0.3451918 0.062271774 -0.14267519 0.083723456 -0.12251245 -0.15437305 -0.23518007 -0.44558707 0.0005507866
d_398 -0.03999627 0.029992856 0.1528177 0.05742551 -0.05088848 -0.13814291 -0.15454525 0.033753287 0.20137325 -0.087540306 -0.10143851 -0.05163201 -0.0027876026 0.13603298 0.07472924 -0.0011098988 0.031787887 -0.004891292 -0.095788315 0.057230514 -0.100055054 -0.031430338 -0.24225816 0.000754914 -0.00039493595 0.021628536 -0.067619726 -0.012430355 0.079542115 0.12507628 -0.022434345 -0.010638125
d_5 0.013789073 -0.03488877 0.03069191 0.07967314 -0.016495116 -0.04847945 -0.027084045 0.07438125 0.0987464 -0.09138499 0.07760599 0.004638072 0.019546727 0.03076105 -0.046281375 -0.08247061 0.06591896 0.027948547 0.0074029304 0.0203682 -0.024499424 -0.013011961 -0.013042027 0.06830586 0.007615222 0.036095824 0.06658035 -0.009133587 0.011836516 0.051648106 0.007473508 -0.039587997
m_122 0.048104633 -0.100657605 0.09082844 0.046699397 -0.039844602 0.023961242 0.07589659 0.43901044 0.26380494 0.13234326 0.061800305 -0.014635333 0.17935948 0.21762884 -0.12769884 -0.5028412 0.4302855 -0.36561102 0.06341453 -0.11303569 -0.23703368 -0.04801154 0.17514834 0.014659936 0.047479395 -0.07314149 -0.18761764 -0.13413441 -0.56448954 0.18131603 -0.18870744 0.09791014
d_1590 -0.027710415 -0.05504787 0.07521496 0.15409178 -0.0113295745 -0.11203029 -0.118445896 0.13323866 0.21984753 -0.1615176 0.09596732 0.0023819406 0.12972271 -0.014283391 0.03642654 -0.2088105 0.17943257 0.06281163 -0.12538466 -0.07922246 -0.074194856 -0.14160433 -0.15407889 -0.027599722 0.029679768 -0.059714116 0.06492119 0.16233842 -0.19347785 0.052102815 0.03375333 0.10635606
d_13 -0.0401555 -0.04714881 0.20023102 0.0012009303 -0.047528327 -0.2709119 -0.16665938 0.32994756 0.38939515 -0.21111947 0.14980291 0.0008415533 0.07324261 0.1775237 0.026507081 -0.16886072 0.2453607 0.0131127145 -0.083898164 -0.06709951 -0.16738956 -0.2355801 -0.016910482 0.047775812 0.102433935 0.17919093 0.038997974 0.109196834 -0.207303 0.093176916 0.092812985 0.050487563
d_1353 0.06940272 -0.04757942 -0.13640785 -0.05340234 -0.14208902 -0.07808323 0.014007001 0.23236986 0.106610246 -0.2525649 0.05144912 0.013989966 0.0118217915 -0.2986916 -0.13614796 -0.26978272 0.21955298 0.0815743 0.32526982 -0.1551459 0.08789462 -0.093448825 0.0015788241 0.09098659 0.27446228 0.09258516 0.24305934 0.15874077 -0.15905635 0.08565607 0.18281619 0.1629274
d_545 0.14898236 -0.29775766 0.12381523 0.16334663 0.015232621 0.16067769 0.057163328 0.35996008 0.14789383 0.12915157 0.083317205 -0.08527668 -0.11968681 0.00047536753 -0.13718256 -0.06762447 0.09649506 0.12834069 -0.38829842 0.11161387 -0.19523706 -0.002683647 -0.19060296 -0.17688625 -0.009546086 0.16530229 -0.019987116 -0.025157567 0.12200672 -0.26666158 -0.18238972 -0.19678387
d_6 0.1669695 -0.049911115 -0.2948894 0.1596967 -0.030054137 0.004094161 -0.08978374 0.17940629 -0.0089441035 -0.3766753 0.09921745 -0.2856819 0.18511161 0.20188594 -0.15413108 0.05629785 -0.25959614 -0.13576357 0.30847767 -0.299494 -0.077618584 -0.07244211 0.36742285 0.1686284 0.15547723 -0.022288509 0.17093568 0.18323025 0.233776 0.20775127 -0.120161526 -0.14527334
d_733 0.16717027 -0.037113786 -0.05879959 0.11500433 -0.05239634 -0.2522439 0.013457928 -0.13752225 0.036287364 -0.19647016 0.07053113 -0.27655378 0.06553523 0.13594937 -0.08858003 0.076842904 0.0058209123 0.049935713 0.22220422 0.020681888 -0.09132463 -0.031948697 0.1060282 0.31688476 0.09395683 0.072812244 0.0183121 0.06957262 0.07104563 0.10656933 -0.061487183 -0.0706764
d_1531 0.23999713 -0.09740514 -0.037379626 0.14677308 -0.13536687 -0.07812635 -0.034748618 -0.10155357 0.09789935 0.073271886 0.11186127 -0.28641433 0.15028161 0.13891949 -0.14387804 0.03261668 -0.018065663 0.020856623 0.4112404 0.011258552 -0.27871045 0.0502883 0.049233053 0.15214859 0.02463523 -0.08266683 0.08577806 -0.04234227 0.15477367 0.011654935 -0.056932535 -0.1461361
m_94 0.20042674 0.18080409 -0.07054775 -0.22847526 0.056638584 -0.110718705 0.04020385 0.251723 -0.17849562 -0.107994236 -0.015825432 0.10943279 0.31992033 -0.00578348 0.056944154 0.11277427 -0.06751075 0.14921388 -0.18256564 -0.00572752 -0.033588476 -0.109745294 0.19386877 -0.3631036 0.26656356 0.13479151 0.11775473 0.1944536 0.093019255 0.23798248 -0.19555485 0.100080036
d_553 -0.1601093 -0.051150605 -0.14695127 0.022237374 -0.07427679 -0.06749422 -0.053563192 -0.07940198 -0.022047197 -0.004905763 -0.05728879 -0.062682204 0.076219685 0.039089203 -0.055042755 -0.020243458 0.21118876 -0.08973314 0.017338295 0.097324684 0.03770889 0.01935088 0.09504432 0.0032475549 -0.059133314 0.114145055 0.09479683 0.14115088 -0.022360899 0.100894935 -0.028863018 0.036454655
d_7 0.09160881 0.010001208 0.06934835 0.18690588 -0.018403426 -0.3122179 -0.25503913 -0.025294332 0.27110502 -0.39015153 0.09391327 -0.31923282 0.16116636 0.030793753 -0.1188692 0.07794379 -0.17695425 0.16300522 0.070855215 0.19630967 -0.30997998 0.10305056 0.10544473 0.16970478 -0.16235746 0.11478283 0.052703246 0.04122279 0.11350057 0.14485185 -0.04399923 -0.46174926
d_735 0.07885766 0.0014752503 0.011831891 0.081329435 -0.039667428 -0.10837201 -0.19303367 0.0066431006 -0.0023465417 -0.24267794 -0.09221033 -0.16036168 0.008610832 -0.12935363 -0.025227 0.04900813 -0.1777157 -0.08407013 0.2294998 -0.02181352 -0.12270241 0.009560744 0.43750888 0.06465382 -0.0547294 0.09541864 0.1219033 0.05649591 0.12775308 0.08585288 -0.09817907 -0.08577096
m_139 -0.2437033 -0.28392756 0.06902831 0.18664409 0.079309806 -0.26976943 -0.5176341 -0.35126227 0.20626713 -0.2625574 0.121284865 -0.5828645 -0.048547875 0.12852629 -0.22002716 -0.26638466 -0.33154145 -0.0022838935 0.7219877 0.08809257 0.0015745834 0.23121518 0.23995644 -0.17630455 0.018715642 0.25599068 0.29561946 -0.4090175 -0.04805223 0.21589547 0.42198673 -0.19675629
d_1104 -0.032795776 -0.113069884 -0.056938753 0.09106754 -0.08833449 -0.016029365 -0.24317506 -0.0431414 0.120080546 0.037663072 -0.00033259497 -0.30002326 -0.13710514 0.182469 -0.114563614 -0.113651425 -0.21579374 -0.019288324 0.3406174 0.2681948 -0.1833209 0.1957817 0.34251305 0.112158306 0.15152292 0.033521358 0.11811397 0.16128038 0.2467026 0.21505825 0.049579058 -0.126245
d_774 0.09061815 -0.26004967 -0.20637594 -0.22740826 -0.16042995 0.0716146 -0.43097973 0.06602531 -0.0032628577 -0.14864264 -0.08824307 -0.6011518 -0.06294528 -0.04554266 -0.18388559 0.044682987 0.29906344 0.15885305 0.038830154 -0.09658941 -0.03464472 -0.05068926 0.27501246 0.12741715 -0.09346347 -0.028976027 0.17968631 -0.2744799 0.07819074 0.3067042 -0.10778558 -0.004365831
m_51 0.028009223 -0.033051588 -0.017205868 0.076209724 0.010216487 0.011535848 -0.17844732 -0.00172944 0.092193715 -0.15264592 0.103401266 -0.3578144 0.032806095 0.043683153 -0.071723394 0.07001053 -0.027900115 -0.015124254 0.11587409 0.010511903 -0.082986906 0.048513696 0.13218845 -0.09489569 -0.02737474 0.05664296 0.116603844 0.0401921 -0.023580013 0.12941903 0.0045120437 -0.14601092
d_8 -0.06887217 -0.04598931 -0.007050515 0.15186065 -0.11824798 0.02068977 -0.07060606 0.14784947 0.16078836 -0.23165059 0.016801432 -0.063247904 0.03775925 0.022961922 -0.016306486 0.035513394 -0.06113855 0.10187463 0.017631672 0.02419531 -0.1811724 -0.0068631875 0.14337583 0.29875076 0.04811549 -0.04961705 -0.018519295 0.07461199 0.07929704 0.2032043 0.03192825 0.02974423
d_1084 0.04601909 0.16065674 -0.06944065 -0.03577878 0.009177499 -0.22668321 -0.2972971 0.021005325 -0.0019486074 -0.2245954 -0.044173464 0.0532274 0.065956794 0.19528218 0.09774445 0.14110906 -0.08863162 -0.014376241 0.16917253 -0.18239066 -0.22697487 0.04839621 0.22514766 0.08847501 0.07294237 -0.11510674 0.11443951 -0.0037890114 0.09927304 0.02694286 0.2719715 -0.14836699
d_1513 -0.07126787 -0.24936959 0.10590373 0.22278975 -0.2044861 -0.120559335 -0.22539912 0.15993069 -0.048034802 -0.07539981 -0.098758176 -0.2537317 0.086783126 0.010302003 0.054102384 -0.0011112443 -0.030883498 0.1608257 0.20388308 -0.19495681 0.039247014 -0.03169255 0.16594528 0.13492338 0.2285845 -0.08734482 0.20084192 -0.16235137 -0.036498386 0.30258614 0.023137443 -0.1751138
m_24 -0.026440704 -0.19493672 0.10081344 0.0498719 -0.19750127 0.040080704 -0.38229132 0.17593056 -0.12811095 0.01893312 0.30778462 -0.5016429 0.12115404 0.012266484 0.23080462 -0.112954296 0.10323096 0.087392196 0.36112654 -0.43418843 0.118829966 0.034408536 -0.07307897 0.29672682 0.3193119 0.096797824 0.1264098 -0.17272297 0.2048652 0.1085774 0.2631672 -0.022977214
d_228 -0.11789347 -0.1408236 0.086764164 0.19949713 -0.33282876 0.08561542 -0.3011434 0.018490314 -0.17027543 -0.13962756 -0.044790328 -0.18583348 0.22074288 0.11985199 0.11030799 -0.1143122 0.07105929 0.22901645 0.50360775 -0.23616779 0.06481995 -0.06334445 0.23270068 0.3619925 0.07520656 -0.01113507 0.30113772 -0.21441458 -0.110360235 0.37236083 0.33568186 -0.2853009
m_27 -0.08050633 -0.14572437 0.07932272 0.31800863 -0.21206999 0.007152443 -0.3732132 0.3300651 -0.14906195 -0.12601149 -0.11656195 -0.15426247 0.2698359 0.0008212619 0.1909677 -0.08107032 0.14483468 0.21050239 0.15664722 -0.48859 0.15691419 -0.03580251 0.26344296 0.2766788 -0.022004623 -0.1335741 0.21306875 -0.27589726 -0.01984253 0.44654748 0.22560194 -0.10008193
d_622 -0.1271646 -0.24267623 0.05917704 0.23353863 -0.33040208 0.06139286 -0.373409 0.17594855 -0.22016935 -0.15116827 0.009876927 -0.28077194 0.12554057 0.04502614 0.112479925 -0.1840105 0.04221473 0.17454779 0.3530501 -0.22700194 0.05810327 0.030746039 0.013860732 0.018525865 0.058403626 0.005455084 0.27087876 -0.23672485 -0.19540314 0.35413098 0.29175603 -0.2953986
d_9 0.061765846 0.08170022 -0.007880774 0.16657391 -0.19750167 -0.13050888 -0.051924635 0.22843415 -0.26847282 -0.12961271 0.10622893 0.36508822 0.13411394 -0.057292007 0.037450865 -0.111677796 0.10367613 0.005083873 -0.44194192 -0.079000436 -0.10452128 0.051501337 0.16205704 -0.08066462 0.13177808 0.08299973 0.033681534 -0.0997078 -0.035310533 0.014094437 0.026842233 -0.20311476
d_38 0.060463928 0.009089437 0.10659138 0.2302389 -0.05511725 -0.11235318 -0.07833201 0.13481446 0.13481122 -0.041796383 0.06460321 0.29982752 -0.0729159 -0.15150842 0.029870886 -0.078148626 0.0045854207 -0.043205556 -0.45609143 -0.06343824 -0.13534091 -0.06735365 -0.050328113 -0.02150871 0.033416264 -0.19237557 0.1156488 0.016017117 -0.017740414 0.07228287 -0.08651282 -0.26361763
d_22 0.14020835 0.15903471 0.14897983 0.22260231 -0.1754349 -0.061184667 -0.16613457 0.2887371 0.06201808 -0.108999334 0.2756663 0.4119668 0.028732028 -0.20900837 -0.019808944 -0.16623816 0.25330633 0.11180142 -0.28108758 -0.17001235 -0.12783213 0.05994257 -0.0055077123 -0.051885925 0.037314113 -0.16257347 0.23850471 0.1467938 -0.2610357 0.021221818 0.019987622 -0.2209166
d_25 0.0032572537 0.01398349 0.16045454 0.31540358 -0.14821228 -0.061713092 0.037108563 0.25596872 0.08415571 -0.035514783 0.13574693 0.41834518 0.038692906 -0.041891806 -0.12822123 0.05839026 0.047270652 -0.09230135 -0.007687637 -0.055525087 -0.10456043 0.019824399 -0.002470271 0.08511921 -0.09230567 -0.14300554 0.19130109 0.07642487 -0.02956861 -0.036298737 -0.018814607 -0.20528693
d_817 -0.0077050384 0.087594815 -0.15135127 0.040981304 -0.052142866 -0.16210046 0.010579719 0.26275066 0.050376747 -0.1992652 -0.2069411 0.45163858 -0.15549158 -0.14079829 0.010570533 0.11653349 -0.013862903 0.09836992 -0.16018969 0.20924999 -0.16473958 0.1417959 -0.044691645 0.13784364 0.07059654 0.06181116 -0.21776097 0.21409239 0.31556177 0.1942298 -0.28636009 0.16205096
d_10 0.025069743 -0.022882331 -0.26568878 -0.07648168 0.020743098 0.006921744 -0.0044306745 0.3017149 -0.09420007 0.05052913 -0.00805875 0.41632524 -0.022641394 -0.0013611366 -0.038174484 -0.062017933 0.11718609 -0.018036783 0.16867699 -0.041181307 0.084606074 -0.008290079 0.10864766 -0.16570707 0.34531146 0.14786118 -0.103705436 0.07778464 0.10901955 0.032037232 -0.04260801 -0.054043833
d_266 0.06441076 -0.09381189 -0.2774534 -0.14935045 -0.008526236 0.13614497 0.015573643 0.41588998 -0.115735486 0.020118425 -0.029506229 0.5491901 0.070223115 -0.013205045 0.02921201 -0.1328583 0.07061592 -0.08094533 0.006092497 -0.09329323 0.09605091 -0.08557764 0.04509572 -0.25572067 0.33099666 0.067010395 -0.0056097917 0.14327088 0.3499091 -0.067455776 -0.4010957 0.0116751185
d_969 0.0479743 0.013527247 -0.28164637 -0.048076257 -0.020901043 0.054422576 -0.048344173 0.23568308 -0.030519199 0.032982275 -0.051624935 0.2569835 0.039067168 -0.080941685 0.0081547 -0.05343458 0.1257419 0.0021329727 -0.0983184 -0.012552636 0.05409499 0.022698836 0.121097825 -0.12393693 0.18571298 0.09156142 -0.025789019 0.064911485 0.11221389 -0.0039637466 -0.34124428 -0.026608137
d_460 0.061506215 -0.14226611 -0.2483687 -0.04075892 -0.018409919 0.05034428 0.038083345 0.07977011 -0.08382341 0.03414835 -0.002666053 0.059189223 0.011031077 0.073763944 -0.024432532 -0.09712693 0.11540401 -0.07120741 0.12400933 -0.12610316 0.07348584 -0.02720679 0.1854647 -0.20275018 0.17628717 0.1558069 -0.039172232 0.055243082 0.04620304 0.023935385 -0.16912684 -0.19236673
d_1195 0.13113207 -0.035614323 0.088971704 0.180799 -0.021783134 -0.0947756 0.015338666 -0.031464446 0.039535888 -0.120399095 0.05252068 0.1575132 0.08904181 0.018441202 -0.05815869 0.14201483 0.08893783 0.03561201 0.17711897 0.02085905 -0.20435968 0.1295393 -0.07217026 0.12973846 -0.07837591 -0.113781475 0.116373226 -0.10649466 0.033984028 -0.05294365 0.008656726 -0.11398987
d_11 -0.13450871 -0.07691694 0.17668986 0.1358382 0.06797983 -0.15427567 -0.26219103 0.044982083 0.63577735 -0.008657306 -0.064524 -0.42910773 -0.11418891 0.23523101 0.13121524 -0.35709003 0.37834913 0.19648923 -0.31336603 -0.2040632 -0.38118884 -0.23029056 -0.16831134 0.21850091 -0.05158107 0.095222205 -0.13344142 -0.0507365 -0.1698109 0.03871894 0.0076368307 0.110811986
m_8 0.10045091 -0.31301296 0.20958854 0.22487324 -0.0090826955 -0.254974 -0.45534196 0.37067226 0.52179766 0.062449917 -0.029389188 -0.55070204 -0.17132565 0.37532616 0.12764886 -0.47630182 0.2952931 0.17771019 -0.41578767 -0.29516858 -0.65831465 -0.24401765 0.30171856 0.05621293 0.12892696 0.0817121 -0.2212534 -0.14943592 -0.13758726 -0.10591707 0.01875904 0.14738299
d_1096 -0.004195412 -0.039694954 0.039850958 0.057641342 0.064284734 -0.16414078 -0.170272 0.04035992 0.2658872 -0.06272001 0.04824187 -0.14794849 -0.0030282647 0.14840247 0.058526646 -0.14320926 0.20314874 -0.012411188 -0.051724464 -0.10745891 -0.22171117 -0.05083701 -0.077597454 -0.0026856945 0.055284686 0.0720649 -0.04667238 -0.05360294 -0.10012658 0.060141943 -0.09129942 0.023927478
d_914 -0.025095502 -0.047226034 -0.05194395 0.036586527 0.03607646 -0.06177085 -0.05091006 0.034914926 0.14336446 0.004121551 0.09015591 -0.17722696 0.0731987 0.1906905 0.05248078 -0.13243416 0.06528667 -0.07144242 0.046193283 -0.04919459 -0.12967733 -0.03119258 -0.05558938 -0.004443556 0.03474182 0.112394765 -0.00949109 -0.078383915 -0.017985024 0.057885006 -0.08213487 0.031280935
d_1350 0.16327316 0.012961173 -0.109625526 0.04781238 0.03682448 -0.085296944 0.08258979 0.0901698 -0.019417299 -0.11901731 -0.0266055 0.13702954 -0.06792203 0.057149917 -0.072239965 0.07817051 -0.037141133 0.020406308 0.08615737 0.08167503 -0.049758673 0.1454467 -0.058854006 -0.062071364 0.034446184 0.054071307 0.03487071 -0.03594786 0.020165076 0.070968114 -0.11047134 -0.028923284
d_12 -0.058951158 -0.10067217 0.057914756 0.019829344 -0.024267036 -0.12627858 -0.123283766 0.19323057 0.17509387 -0.055281073 0.12536374 -0.045506723 0.038460057 0.07002948 -0.01301416 -0.10806591 0.16250195 0.041842014 -0.09664028 -0.07103507 -0.15594509 -0.058640707 0.06281213 0.0075907023 -0.07922306 0.056375872 -0.08589802 0.037597172 -0.06379296 0.03732098 0.110373914 0.02415901
m_129 0.015578061 -0.05799962 0.28099933 0.009913048 -0.08211672 -0.238183 -0.26917896 0.20983168 0.5168898 -0.19041102 -0.034243327 -0.2253199 -0.10335198 0.31463823 0.14994428 -0.23081703 0.44388112 0.12028091 -0.1063567 -0.24989524 -0.24926862 -0.26605812 -0.03348495 0.15066172 0.19114791 0.09497972 -0.1553304 -0.12573902 -0.15748511 0.0021493686 0.11576625 -0.057312027
d_1544 -0.014650784 -0.06245363 -0.031630397 0.0061176796 -0.09297473 -0.08181533 -0.046412654 0.039381806 0.08260876 -0.071404085 0.042020146 0.0032278958 -0.057790462 0.069707535 -0.03164281 -0.07450186 0.06482336 0.01576758 -0.008293988 -0.036542945 -0.081963845 -0.015310093 -0.022153527 -0.0018303815 -0.0030414271 0.03054714 0.0027562943 0.036378898 -0.04138793 0.044168968 0.0004837258 0.0035029012
d_1473 -0.004851084 -0.07913736 0.010084542 -0.0038971624 -0.057239354 -0.054831844 -0.053498678 0.09326225 0.08510027 -0.04931744 0.0680122 -0.011036984 -0.019506235 0.058354147 -0.028436698 -0.045679674 0.107715584 0.03507852 -0.058584876 0.015649129 -0.113379054 -0.00828223 -0.042620618 -0.06330598 -0.024598079 0.011655582 -0.018571481 0.026483107 -0.035092067 0.039722472 0.037046243 -0.00043911138
d_26 -0.041148156 -0.06396319 0.14125961 -0.07920528 0.050558507 -0.15887341 -0.09362532 0.02731282 0.038047306 0.06994348 0.00035944115 0.050391782 -0.09773067 -0.12688082 0.06452663 -0.03169983 0.22616738 -0.12889592 0.14817044 0.16667393 -0.16448826 -0.034552548 -0.03735147 -0.34033716 -0.09281303 -0.14449218 0.018034067 -0.077031516 0.045750484 0.12199343 -0.18735848 -0.18310556
d_312 -0.02232567 -0.0041809077 -0.013375802 0.08524713 -0.15620953 -0.14969312 -0.023132239 0.2794845 0.17720148 -0.07640912 0.025108019 0.01701985 -0.08332983 0.21368374 -0.08578361 -0.25670442 0.34466976 -0.021596791 -0.049054362 -0.09619381 0.025778651 -0.23991762 -0.20347366 -0.09980524 0.010393337 0.025239034 0.13387574 0.14389056 -0.05327024 0.06067336 0.093732804 -0.18392079
d_806 0.0016863414 -0.034486115 0.07037627 -0.016297147 -0.13815433 0.029728035 0.08573424 0.16801867 0.029685874 -0.06361324 0.10055398 0.2226591 -0.13461064 0.030861521 0.013752832 -0.12429955 0.112632215 0.10921769 -0.3105205 0.12233899 -0.21529113 0.08301641 -0.29283887 -0.048287816 -0.11681946 -0.08502516 0.18404633 -0.10705425 0.028725898 0.16171294 0.052736696 -0.19791053
d_14 0.017846473 -0.026163606 0.011619061 0.06477394 -0.011723174 -0.027781488 -0.013808454 0.050903123 0.017976178 -0.0061845994 0.032100268 0.0148931425 -0.0152701195 0.020045241 -0.02923408 -0.05422005 0.046524044 0.021931652 0.053187337 0.028408222 -0.06684073 0.028087148 0.024740765 -0.021539368 0.03404528 0.062480446 0.0285319 -0.03790651 -0.014373074 0.051861323 0.012711279 -0.047667287
d_252 -0.025620496 -0.114030376 0.019705731 0.1012291 0.017899163 -0.015048657 0.020633716 0.19128413 0.14581671 -0.07415515 -0.006731786 0.077099055 0.037953548 0.17899549 -0.04276507 -0.094560966 0.06628572 -0.0818501 0.09999372 0.12591155 0.02114438 -0.04916976 -0.021890368 -0.058618113 0.004530886 -0.08317309 0.020838756 -0.0398718 -0.016274057 -0.024366057 -0.08508668 0.07753162
d_1471 0.044784993 -0.07589969 0.061428815 0.15369463 -0.048739195 -0.0062959683 -0.10065927 0.02397057 0.079776116 0.023467867 -0.0077688913 -0.047863353 -0.038717456 0.111244366 0.00478441 -0.033930175 0.12392294 0.034188256 0.113548845 -0.012631269 -0.17169936 -0.074338764 0.078504235 0.12095693 0.06840294 0.08811336 -0.009141277 -0.029809192 -0.054796137 0.026028259 -0.07193036 0.07065568
d_601 0.13204436 -0.04441264 0.3022727 0.033767182 0.11059062 0.043717004 -0.107273355 0.056374684 0.23174047 -0.008244213 -0.16557826 -0.0897837 -0.04672231 0.11663477 -0.13666283 -0.16489235 0.13148032 -0.18814963 0.30886438 0.09435998 -0.19127285 -0.097288705 0.08794151 0.0046213516 0.18135606 0.025354516 0.038303744 -0.09538067 0.22814177 0.02286068 0.21049131 0.14406712
d_852 -0.070750445 -0.07011537 0.31373414 0.07483435 0.030285086 -0.07766439 -0.015302597 0.12725022 0.31120366 -0.17482737 0.008530559 -0.21618804 0.035512947 0.23160382 0.067115955 -0.2655856 0.43616453 0.07511571 -0.066908956 -0.06396127 0.025518557 -0.15551333 -0.14234684 -0.069803506 0.103610486 0.08502237 0.0033839084 0.004558811 -0.32564974 -0.081568345 0.113936506 -0.12934105
d_15 0.041331917 -0.033335734 -0.024204526 0.09241183 0.006648344 -0.06227367 -0.0763684 0.018607033 0.022601731 -0.09008751 0.07879357 -0.016219579 -0.0031282431 0.07020512 -0.09210376 -0.052547775 0.04495526 0.061329033 -0.05798238 0.064695634 -0.05517739 0.033058736 0.007077478 -0.06278819 0.074566126 0.0028851987 0.086920895 -0.06803257 0.081958145 0.0060358145 -0.006562093 -0.05757638
m_33 -0.12246208 -0.19030353 -0.3182023 -0.013598791 0.042202763 0.12520337 -0.43587178 -0.07992376 -0.2660088 -0.024206497 0.25778687 -0.24439682 0.13117433 0.24949458 -0.30297062 0.0390521 0.43786982 0.1556146 -0.44792998 0.2428111 0.4157204 0.24394189 -0.103129946 0.18819484 -0.32471037 0.48045725 -0.20144282 -0.14581676 0.32072887 0.028568884 0.19089244 0.34242094
d_1173 -0.15919748 -0.14956045 0.0843199 -0.07247367 -0.052398928 0.051034804 -0.028046016 0.357913 -0.07808982 -0.2182711 -0.039044064 0.062525615 -0.009205202 -0.144378 -0.1303454 0.055988338 0.05711793 0.26010016 -0.25401682 -0.0041741766 0.02750925 -0.28177854 -0.02688871 -0.33627635 0.30049017 -0.026873764 -0.015858456 -0.17087533 0.28031617 0.110689096 -0.012930361 0.13826118
d_239 -0.039529543 0.15232109 -0.2664299 0.081153184 0.0950423 -0.20247623 -0.15302414 -0.22199914 0.1712883 -0.30544132 0.2362207 -0.4180311 0.23079774 0.076051995 0.012089547 -0.1858142 0.39494798 0.25068524 -0.10320062 0.090385154 -0.18909875 0.31498507 -0.1216774 -0.545183 -0.16165681 -0.33844233 0.26069716 -0.13673368 -0.087499954 -0.083837315 -0.016419873 0.16708726
d_722 -0.083283804 0.004578634 0.13081458 0.07265225 -0.0526275 0.1040665 -0.15478835 -0.031054476 -0.04397089 -0.09683726 0.041839387 0.022759523 -0.02270478 -0.029155027 -0.13965122 -0.13024817 0.065343894 0.18826053 -0.03749367 -0.007289489 -0.082909435 0.081999615 -0.06837188 -0.2643409 0.0030000713 -0.037017133 0.18091255 -0.07166077 0.10316613 -0.05553994 0.06614606 -0.09136941
d_16 0.121017665 -0.08239275 0.008093145 0.15167338 0.112324044 -0.35491744 -0.09615767 0.1877332 0.29548582 0.12872793 -0.08436735 -0.26766613 -0.068099424 0.063506246 0.027761005 -0.20776005 0.17408153 0.10016917 0.2422173 -0.15012118 -0.33945957 0.08775665 0.23484953 -0.05377391 -0.13222009 0.22406709 -0.046502974 0.05185608 -0.17494711 -0.23641534 -0.21702583 0.1653269
d_1538 0.22615762 -0.04775707 0.09090407 0.0744102 0.11356738 -0.33018208 -0.05463605 0.22890794 0.29768702 -0.01508406 0.041701082 -0.28052112 -0.01365933 0.112773776 0.12448801 -0.2872967 0.18114638 0.07845385 -0.082887635 -0.10336387 -0.29792896 0.11785115 0.2563612 0.09491507 -0.17343812 0.27630726 0.0391251 0.08955112 -0.15723176 -0.0029958084 -0.24863948 0.06699791
d_982 -0.085900865 -0.056321803 0.018532958 0.13802564 -0.16912538 -0.22561802 -0.05405382 0.23081939 0.020325173 -0.10374852 -0.11716075 -0.1552504 -0.03938894 -0.05430797 -0.06481526 -0.12590311 0.16552882 0.0077911196 0.051664535 -0.084350154 -0.08631053 -0.05503398 0.14224638 -0.08333242 -0.0837475 0.028345041 -0.002475293 0.024737295 -0.07175428 -0.16258062 -0.3045553 -0.051045008
d_677 0.2723154 -0.11182492 0.053781763 0.08224232 -0.033692658 -0.20976312 -0.044776846 0.116851896 -0.054686543 0.119077854 0.09369946 -0.16459341 0.036483128 -0.05394589 0.03661283 -0.2473297 0.1306505 0.07997567 0.49793455 0.011124209 -0.26364583 0.054960668 0.09619836 -0.19828816 0.022563227 0.15522335 -0.0761161 0.0574353 -0.066748045 0.08466673 -0.08224201 0.2160097
d_1191 0.26594782 0.15023786 -0.04721061 -0.24778765 -0.14696556 0.101134375 0.27089426 0.06906626 0.09041751 0.16882347 0.16482441 0.45515788 -0.049629446 0.18846327 -0.09327164 -0.086594015 -0.2158824 0.26352498 0.13160007 0.20644233 -0.10736903 -0.0005365801 0.05013445 -0.1453671 0.13899639 0.07790633 -0.02857022 0.010736866 -0.0984584 0.31595767 -0.19253457 0.08926996
d_17 0.03613984 -0.013038386 -0.052820522 -0.00857862 0.00082455575 0.036586463 -0.07469413 0.035163857 0.08111509 -0.120977506 0.051232494 0.0021226804 0.033907596 -0.0010859377 -0.09372105 -0.06520863 0.04035555 0.053681117 0.07050838 0.0339009 -0.09648108 -0.03070976 -0.00116971 -0.17907606 -0.03659951 -0.009258831 0.04161652 -0.05312111 0.031577207 -0.063610956 -0.0026172355 0.0032062018
d_21 0.066560104 0.03818313 -0.020002095 0.120170474 0.030447949 0.12623204 -0.011139967 0.09746689 0.27831492 0.019879878 0.090949275 -0.15830158 0.02458601 0.22691925 -0.039054506 -0.21778762 0.23951334 -0.041729838 -0.3320803 -0.03699711 -0.32759082 0.048317358 0.00012673251 0.13396287 -0.049660265 -0.027116153 0.07248111 -0.10631973 0.008695969 -0.049564507 0.22103368 -0.03783637
d_1341 0.062940486 -0.07807445 -0.08766892 -0.21996213 -0.13605048 0.121967636 0.0128814075 0.13868578 0.17797825 0.10867418 -0.042926542 -0.10371122 0.0075855455 0.17070754 -0.062996455 -0.101856425 0.2029482 -0.062091928 -0.11030318 -0.081675045 -0.1353453 -0.029151388 -0.30232057 -0.120763235 0.06937511 -0.010171427 -0.06380987 -0.04033027 0.11218121 -0.02984659 -0.11283154 0.15055382
d_240 0.010988709 0.16122748 -0.034944534 0.061621778 0.1877414 -0.045700397 0.30912438 -0.09711971 0.060425237 -0.0935244 0.040421374 -0.23581116 -0.037785575 0.23158588 -0.18537414 -0.18472992 0.2559321 0.0142069 -0.51662195 0.14003074 -0.2207594 -0.06833578 -0.21590985 -0.20100497 0.18297584 -0.23489815 0.13272056 0.16547225 0.20149572 -0.07423571 0.20035808 -0.2101999
d_18 -0.04376083 -0.23362838 0.06409192 0.024215829 0.082739525 -0.19135109 0.0073778657 0.19487825 0.32961485 -0.025184806 0.0024139886 0.27883834 -0.10466729 0.047343407 -0.06267995 -0.2328402 -0.061286807 -0.05742469 -0.2203113 -0.035203885 -0.19327 -0.09440426 0.066936634 0.017394453 -0.11875668 0.17981414 -0.022942144 -0.19559519 0.04740307 0.085293055 -0.2343842 0.13893937
d_29 0.12176513 -0.07598368 -0.022509351 -0.08338277 -0.035382103 -0.03996294 0.030684108 -0.0012740227 0.064202584 -0.12249313 -0.032817975 0.24684453 -0.0029957513 0.06715332 -0.11088942 -0.024418592 -0.008337055 0.0115410155 -0.22117816 0.08052662 -0.07874077 -0.16248709 0.010125406 -0.36051348 -0.020611761 0.04325112 0.046574038 -0.014829188 0.042431835 0.013977244 0.09537188 -0.09880681
d_1468 0.08009377 -0.031578053 -0.13664839 -0.16144845 0.04324241 -0.010950526 0.23000842 -0.003608261 0.277653 0.055005394 0.08336313 0.52902645 -0.060412277 0.047360204 -0.34276453 -0.26081294 -0.04658675 -0.10514553 -0.3052836 0.022467466 -0.21987669 -0.24613751 0.19531766 -0.2897709 -0.07732085 0.12964697 0.0364278 -0.13406712 -0.15196313 -0.014540501 -0.18827319 0.2199994
d_1011 0.053423513 -0.06403875 0.04932035 -0.07880081 -0.026836006 -0.014717277 0.105066516 0.021177763 0.09306571 0.074770324 0.043929085 0.20211159 0.008279903 0.018747138 -0.07292294 -0.061564915 0.06640341 0.052081455 -0.06554718 0.09083279 -0.065475486 -0.091585584 0.10594652 -0.10753111 -0.031006819 0.024077361 0.07792633 -0.05982734 0.034066174 0.01993498 -0.055273663 0.0027526626
d_1156 -0.017634712 -0.0527264 -0.087939724 0.09100134 -0.10435808 0.03263601 -0.05800855 -0.03087957 -0.018258797 -0.019150266 0.025313808 0.16938013 0.039532933 -0.02910183 0.05732786 -0.05671546 0.16540477 0.055203818 0.14624824 0.07967521 -0.041580282 0.13397135 0.1738347 0.03855284 -0.012759489 -0.017791925 0.050984085 0.044330474 -0.057445083 0.118745945 -0.05086627 0.05277522
d_19 0.031101888 -0.0110577885 0.040876847 0.033127103 -0.06229011 -0.008970649 0.058732063 0.19517218 0.12470416 -0.13079414 0.11611328 0.050161652 -0.015134028 0.08295492 -0.12235739 -0.10201301 0.118604705 0.042044174 -0.08244155 -0.13737936 -0.122569665 -0.115641885 -0.10600249 0.10345678 0.12653059 0.045212958 0.037221927 -0.036292102 0.0012501993 -0.01750096 0.023885803 0.08819257
d_1669 0.06877907 -0.14724596 0.25919133 0.14904031 0.015398124 -0.0056642275 0.017782368 0.16607647 0.12835096 -0.10622101 0.12688836 0.039155707 -0.03347186 0.04842775 -0.08404255 -0.05534327 0.12658128 -0.0034090912 -0.17106432 -0.10973007 -0.13659462 -0.07864653 -0.23270161 0.13387628 0.06367785 0.16110237 0.14226714 -0.17039897 0.014918086 0.030148054 0.087821454 -0.009766929
d_455 0.017871257 -0.0895502 0.051926136 0.18028435 -0.14846775 0.23300372 0.045235578 0.12389481 0.29957464 0.038850516 0.14812078 -0.10715555 0.079562336 0.1376091 -0.077711426 -0.026337653 0.23738578 0.05734203 -0.4192067 0.04389072 -0.25437313 -0.06258369 -0.11271951 -0.0026196428 0.0022780364 -0.0733481 0.05048728 -0.038792368 0.16553238 -0.14695165 -0.017861962 -0.07493812
d_903 0.02990971 -0.15481122 -0.07374804 0.049624562 -0.08578907 -0.092463635 0.062287252 0.10941123 0.014211026 -0.08460196 0.07572494 0.18642516 0.09362718 0.018405074 -0.09339932 -0.17661396 0.12605149 -0.09697903 0.3651591 -0.12665187 -0.0009608036 -0.021406665 0.06644951 -0.12505075 -0.0017749304 -0.16996095 0.061258025 0.12711847 -0.0028232308 0.16672553 -0.14755121 0.086439446
d_20 -0.06846362 0.042835653 -0.17642783 0.03695338 -0.24287958 -0.1580751 0.13286714 0.23604897 -0.107820824 -0.09300576 -0.0980605 0.23004468 0.266413 -0.0438008 -0.029362015 -0.24040218 0.36523768 -0.25710735 0.047081828 -0.01398104 -0.07779498 -0.036823828 0.18301035 -0.007456432 -0.10335505 0.039525717 -0.17207015 -0.11876124 -0.060064606 0.0115016075 -0.20425522 -0.096976034
d_1275 -0.0405752 -0.02615925 -0.04625774 0.07209685 -0.047664054 -0.106982805 0.052534126 0.12979926 0.12758061 -0.046899702 -0.004416226 0.151527 0.04883952 0.0360907 0.0559266 -0.08459507 0.14373162 0.034544926 -0.01045859 -0.023208085 -0.11327182 0.035360277 0.106236786 -0.048016887 -0.0083138 0.02511581 -0.09573156 -0.073490724 -0.02877208 -0.046417035 -0.11349488 -0.01368914
d_974 0.05547723 -0.18051426 0.14063437 0.21378481 0.14358975 -0.21603024 -0.056373257 0.29456726 -0.03171526 -0.037544724 0.024295436 0.5798924 0.07377914 0.27290067 0.1675655 -0.19238572 0.3161572 -0.16659313 0.0685219 -0.31191215 -0.13520981 -0.013450583 0.16375628 0.1733956 -0.17562132 -0.0658285 0.037603024 -0.24172097 -0.059534393 0.04183049 -0.19734332 0.19432272
d_981 -0.027548859 -0.046311636 -0.14551131 0.14851388 -0.13956521 -0.20335993 0.15142335 0.22971113 -0.011053631 -0.07582689 -0.06743294 0.31491107 -0.012236247 0.119049095 0.055247307 -0.094036184 0.12945798 -0.018526489 0.13837531 0.017895985 0.09817914 -0.06881309 0.066712745 -0.17298123 -0.12268009 0.11363119 -0.124453984 -0.037242137 -0.06105673 0.026862102 -0.19947302 0.10619877
d_159 0.05499604 0.14085828 0.12962855 0.09755363 -0.006380121 0.13561355 -0.22713564 -0.13192941 -0.14202692 0.03405304 -0.0684348 0.20875189 -0.031229686 0.045458667 0.03337684 -0.11685686 0.12575059 0.07654971 -0.0355192 0.103314616 0.21171583 0.042822722 0.1301987 -0.110237084 0.06760706 0.19153713 -0.007220106 -0.05113959 0.21948197 0.11969105 -0.28004056 0.07112059
d_581 0.13076548 0.0077308537 -0.20161268 0.18413593 -0.007299076 0.13310312 0.114697926 0.3886144 0.47884804 0.31579003 0.023190489 -0.40530723 0.1333095 0.15191433 0.15640394 -0.30263957 0.16889039 0.018690258 -0.16542816 0.10577593 -0.44530374 0.09976037 0.13950358 -0.05249284 -0.2593649 -0.045980107 -0.05272612 -0.12676357 -0.229275 0.16526316 -0.18129906 0.13251919
m_57 0.3754812 0.07281338 -0.055217903 -0.09022009 -0.18545187 0.25793055 0.009849385 -0.25427273 -0.29346833 0.16887875 0.053323433 -0.26065522 0.09750441 0.39496386 0.13685192 0.113474935 0.022921642 0.1354513 0.16386847 -0.01332079 -0.56529796 -0.031231387 0.4066777 0.21047482 0.09198351 0.08977164 0.084885255 -0.07937278 -0.051111456 -0.1374625 -0.16897161 -0.100727
d_246 0.19262637 0.12433217 -0.16360794 0.08934965 0.09878923 0.17322215 -0.004314679 0.21065441 0.14611405 0.1632599 0.019067444 0.1624861 0.100480065 0.3082857 -0.02354204 0.043732874 0.10903622 -0.010012954 -0.06359442 0.13645974 -0.24756774 -0.1287902 0.13546993 -0.1607948 0.00046534045 -0.070775405 0.06818988 -0.28148127 0.0894011 0.18746667 0.076595984 0.22697729
d_1419 0.004134142 0.07450945 -0.14322554 0.055203963 -0.032094866 -0.06965147 -0.004937683 0.14769718 0.060916357 0.16774607 0.031702206 0.009312663 0.044835538 0.06077235 0.03222569 -0.08488899 0.07687603 -0.03346407 -0.039516825 0.14975259 -0.073628865 0.025277574 0.08144394 0.010758189 -0.0062161195 -0.017834648 -0.047701262 -0.059333585 0.041275874 0.002663035 -0.10849088 0.15859836
d_1369 0.08810611 0.07037838 -0.03714121 0.13833858 -0.017242797 0.039341386 -0.013975544 0.19893385 0.062492553 -0.060007513 0.2035466 0.4550011 -0.0035885428 -0.13341495 -0.11875492 -0.10438487 0.09097482 0.013943541 0.2191216 -0.1108662 0.06776939 0.10787949 -0.0014278872 -0.20919184 0.092666574 0.06606288 0.12076546 0.07382327 -0.009732261 0.05293798 -0.1348065 -0.24276705
d_1589 0.24847789 0.08016055 0.006313066 0.18829086 -0.003588 -0.103517406 0.07452016 0.06439042 0.052394625 -0.14944354 0.21685745 0.32352906 0.15376769 -0.1381709 -0.0743585 -0.15758888 0.27593803 -0.007934341 0.16887265 -0.078484505 0.08062726 -0.0068606525 0.19026916 -0.092595235 0.26103258 -0.021372987 0.3215657 0.09501471 -0.13654196 -0.06965051 -0.25820592 -0.079932936
d_506 0.19995834 0.09490797 -0.056546003 0.19435686 -0.09547964 -0.22956581 0.053784426 -0.103007734 0.1790888 -0.07760644 0.12009473 -0.09514718 0.12684762 -0.18414475 -0.11277691 -0.059877034 0.108960465 0.031292267 0.0926534 0.051516682 0.062746555 0.041597143 0.23354143 -0.24772643 0.07722019 -0.012620449 0.28685552 0.24745724 -0.16364577 -0.057141345 -0.32173905 -0.0044972654
d_966 0.060629874 -0.020747608 -0.12484433 0.04089215 0.09335443 -0.05143469 -0.1343043 0.047988717 0.07765263 0.016949687 0.03180912 0.18386765 0.21844926 0.087513216 -0.050393723 0.04607472 0.055388592 -0.10321146 -0.14097422 -0.00585899 -0.06665007 0.058397222 0.0689182 -0.088627264 0.113102004 -0.18141337 -0.14502929 -0.13691509 0.0015199468 0.1405946 -0.010572804 0.028549677
d_23 0.24393913 0.03425825 0.32182413 0.39748374 -0.05203414 -0.31172717 0.20610842 0.06263097 -0.008595701 -0.34162164 0.15177299 -0.07536115 -0.042614903 0.16906421 -0.00021707665 0.0626994 0.11752137 0.036931988 -0.3656149 -0.31862321 -0.18348826 0.2970643 -0.16414326 0.104874365 0.1351623 -0.01921322 0.07478167 0.20968561 -0.30676585 -0.029962037 0.055057883 -0.17256658
d_282 0.20005803 0.0322739 0.035321888 0.18622662 -0.19765009 -0.060114168 -0.0111255245 0.040036216 -0.038817227 -0.10092374 -0.08705402 0.111087814 -0.031761535 -0.051828425 -0.13284549 0.22565894 -0.059247494 -0.0815292 -0.47739935 -0.070392504 -0.2391035 0.15806496 0.0921439 0.20432612 0.056306515 0.08889003 0.00082547293 0.054434434 -0.2754159 -0.094745174 0.039271947 -0.20357318
m_54 0.08276233 0.11992483 0.118939005 0.32755885 -0.13126282 -0.25346395 0.12581323 -0.057181858 -0.26014736 -0.053491578 -0.32203147 0.39587128 -0.05643334 0.23863523 -0.04687007 0.081329666 0.07576581 0.13685066 -0.5640102 -0.12932482 -0.40082484 -0.029169701 0.17659354 0.13473949 0.030411921 0.19251144 0.11334375 0.016749978 -0.2659153 0.018018067 0.096019164 -0.17702195
d_135 0.17656824 -0.034178477 -0.025675597 -0.037410215 -0.012882969 -0.05507749 0.041425403 0.03503237 0.036876775 -0.17078128 0.09671739 -0.101404846 -0.0056256223 0.08040282 -0.050725613 0.017528119 -0.016548982 0.028076114 0.052501343 0.016706191 -0.17819607 0.09698445 0.064783685 0.0020317875 0.055257894 -0.055445947 -0.040083613 0.03863961 -0.06667429 0.024186427 -0.090520866 -0.014933182
d_496 0.1985071 0.084402025 0.06831107 -0.011300491 -0.10982961 -0.110192984 -0.024202904 0.17013554 -0.07234016 -0.12112664 -0.062803745 0.22314169 -0.032385707 0.023574522 -0.12298725 0.039867885 0.013710713 0.05052773 0.026505759 -0.12028946 0.07840449 -0.124149784 0.22200274 -0.17831062 0.096126124 -0.015949195 -0.1425433 -0.037923835 0.08086153 0.035057295 -0.062653795 -0.16909875
d_24 0.14296868 -0.041614756 -0.17049873 0.044538606 0.01963507 -0.18248336 0.0048716795 0.19180296 -0.084326625 0.040729985 0.12783924 0.26613092 -0.010690365 -0.1832772 0.015331416 -0.091202304 0.06948165 -0.14546302 0.0458887 -0.059814893 -0.13621236 -0.13923018 0.033372115 -0.10848718 -0.019757345 -0.09752316 0.05756212 -0.067119926 -0.07783713 0.0859728 -0.21089113 -0.16551921
d_1337 0.07656805 -0.0039708074 -0.19410385 0.05545708 0.00995267 -0.11932873 0.053963523 0.08069283 -0.008188192 0.0110457055 0.050432365 0.14203048 0.10860205 -0.09718444 0.053557366 -0.07194367 -0.05843944 -0.026792476 -0.19305095 -0.009953151 -0.061727375 0.089751974 0.06581783 -0.08094205 0.047531206 0.04675458 0.08829154 -0.041711878 0.035373 -0.027702508 -0.13141501 -0.15585741
d_400 0.13468596 0.01443345 -0.1591946 0.06849594 -0.119669825 -0.09403499 -0.14575684 0.28038076 -0.20777945 -0.014279063 0.18735763 0.1161933 0.17357525 -0.22774129 -0.0062348763 -0.2600645 0.1281414 -0.027256208 0.0034994103 -0.08292951 0.027042327 0.0125130955 0.065458916 -0.02590106 0.12262366 -0.07757006 0.1469401 -0.19404124 0.023599511 -0.024750795 -0.13053454 -0.22258106
d_1426 0.17399167 -0.062067695 -0.22175457 0.13276222 0.12995838 -0.14796005 -0.013793312 0.227331 -0.08153125 0.0368381 0.078211576 0.1891983 0.1424204 -0.12604584 0.014323294 -0.2118567 0.005213543 -0.10646231 0.044395443 -0.12489565 -0.0141845895 -0.09850292 0.19535431 0.099078424 0.061059546 0.01636413 0.19681078 -0.08206274 -0.014087896 -0.07183152 -0.2172461 -0.13195144
d_965 -0.029855646 -0.062357087 -0.0684275 -0.055380404 -0.018862413 0.07049429 -0.05418755 0.0689326 0.07050636 -0.012881753 -0.038648244 0.056605283 -0.01914908 0.10612045 -0.1018596 0.00521902 0.03779589 0.002968932 -0.09525964 0.060342133 -0.06104287 0.06606374 0.1829324 -0.118265815 0.037266023 -0.014098797 0.020482838 -0.06410622 -0.06412378 -0.008687988 -0.053161748 -0.05022758
d_1563 0.047693327 -0.09673509 -0.045203008 0.08650841 -0.07757671 -0.10175985 -0.035565544 0.011239925 0.054936133 -0.0055611297 0.036652416 0.109900676 -0.00819399 -0.021321556 -0.02060195 -0.07002398 0.03639874 -0.013758531 -0.080176026 -0.026666965 -0.030364998 0.08767747 0.05967164 -0.063636154 0.020891896 0.024992187 -0.023605894 -0.07410524 0.028972438 0.04154856 -0.046415504 -0.011769026
d_1098 0.11792639 -0.07228451 0.08222362 0.0636961 -0.037255757 -0.102116704 0.027219243 0.11767447 0.09467017 0.00019042287 0.08073148 0.10819608 0.042686023 0.05055989 -0.0039586113 -0.06025099 0.078786 -0.070503406 0.0021308525 -0.007534586 -0.07748249 0.05303758 0.054758217 -0.008560942 -0.020978665 0.00400428 0.042218767 -0.03968555 0.0069597475 -0.08660666 -0.100960016 -0.04360672
d_1540 0.03902081 -0.19229124 0.048077393 0.024579648 0.056089662 -0.26337525 -0.05164073 0.15280639 0.24878179 -0.09824046 -0.021967 -0.10533584 0.005075398 0.21237999 0.116337225 -0.15228316 0.19736966 0.013607019 0.103536755 -0.15757652 -0.13077116 -0.1019726 0.11391923 0.078847304 -0.041566078 0.0671855 -0.07365104 -0.004300194 -0.11962422 -0.11450049 -0.03258333 0.077154905
d_602 0.016778173 0.09510854 -0.28874207 -0.0772489 0.03885468 0.06501765 -0.007093707 0.155443 -0.14270349 0.13339303 0.13324395 -0.384062 0.026932651 -0.16947542 -0.107439965 0.052374978 0.028728684 -0.059723724 -0.49995688 0.2246422 -0.014245027 0.20340799 -0.18109247 -0.36464342 -0.13494992 0.011306378 0.00023470107 -0.080086276 0.21964239 0.18324049 0.10004682 -0.3320227
d_1320 0.00321679 0.05055817 -0.10270989 -0.029910048 -0.02011792 -0.053675015 -0.049224857 0.02727272 -0.025955612 0.02880527 0.08915161 -0.062390484 -0.005742481 -0.024948 -0.047290906 0.049283035 0.054447945 0.0596439 -0.09298062 0.13926126 -0.0048597343 0.075121686 -0.0072785397 -0.13543709 -0.012630682 0.012804327 -0.011882534 -0.0189365 0.11947257 0.05932895 0.00051113777 -0.07097047
d_1667 0.021516277 0.025036333 -0.1274809 0.015352266 -0.024490805 0.02662785 -0.049244154 -0.022689993 -0.013511958 0.06265856 0.101116434 -0.24653141 0.029816788 -0.039613448 -0.10919631 0.040353343 0.13239937 0.09096185 -0.22763333 0.18465595 0.03467328 0.07594932 0.093580544 -0.06226201 -0.048231892 -0.006484473 -0.035319686 -0.09705036 0.14352567 0.018942172 -0.051109195 -0.05484539
d_157 -0.04403697 -0.07473348 -0.079009816 -0.09306294 -0.0050980076 0.019062962 -0.17025653 -0.10930513 -0.05066339 0.07163851 0.0496279 -0.29656985 0.047693186 -0.021745952 -0.07386404 0.0706904 0.3135096 0.22648136 -0.5336211 0.18497074 0.1457413 0.2851658 -0.016367245 -0.11229406 0.035157897 0.36487865 -0.06038227 -0.20692949 0.20437217 0.22196077 0.24103013 -0.14569321
d_27 -0.017634166 -0.0013409937 0.012478559 0.0080683455 -0.123303235 -0.08193034 -0.1131451 0.21975422 0.13663878 -0.016522894 0.17330423 0.089062445 -0.0395036 -0.16251904 -0.060797278 -0.102937646 0.09499498 0.072905555 -0.26637024 -0.06328393 -0.114686884 0.009169725 0.14035599 -0.07130148 -0.019454326 -0.04924602 0.08761973 -0.10169907 -0.01084584 0.030026076 -0.14450474 0.08247514
d_424 -0.03267631 -0.34638795 0.2952524 0.18597881 0.19212174 -0.31217462 -0.08539188 0.20767634 0.08695234 0.18224868 -0.047032923 0.16616863 0.115133785 0.11393012 0.14403577 -0.45750734 0.5436874 -0.055409845 -0.31009996 -0.048501685 -0.041386638 -0.0985331 0.31109297 0.029025964 -0.039890185 -0.16227198 -0.08934502 -0.17380673 -0.233989 -0.07957261 -0.35748786 -0.038427815
d_1095 -0.0002072379 -0.049614422 0.3884143 0.18500096 -0.02536295 -0.43709144 -0.28930262 0.20530301 0.32036778 -0.0960989 -0.035594396 -0.19384705 0.08536592 0.37452114 0.13447657 -0.14883375 0.35851228 -0.0705573 -0.008280376 -0.0690261 -0.29483297 -0.1309306 0.29077467 0.05052241 0.22369593 -0.06509783 -0.11954686 -0.04270297 -0.045816675 0.07329849 0.07511578 -0.30467847
d_678 -0.06570268 -0.068624325 0.1712229 0.016830083 -0.031746548 -0.04401413 0.10912071 0.06272446 0.08416523 -0.058965817 0.03380058 0.19274281 0.08403788 0.06116254 -0.06585375 -0.048953235 0.20105326 0.053412817 0.17702323 -0.048406597 -0.034020305 -0.10021387 0.19747293 -0.05980566 0.06347686 0.030645303 0.023221472 -0.07335681 -0.116443984 0.05206957 -0.07580935 -0.07511104
d_208 -0.024795253 0.054219633 -0.131194 -0.022210218 -0.09352616 0.09840888 -0.018433422 0.077870645 0.043567464 0.108976126 0.0075699803 0.19837205 -0.16237399 -0.12073845 -0.026145188 -0.095198736 0.04398521 0.12811127 0.028442938 -0.034795757 0.07075653 -0.068316825 0.023675634 -0.16336083 0.10802047 0.05371202 -0.02693539 -0.04223417 0.06443922 0.074299835 0.053790994 -0.014206108
d_28 0.08032487 -0.123662055 -0.014260365 0.09574996 0.1439169 0.0035295577 0.18499725 0.19660847 0.19242755 -0.06215359 0.149427 0.32482544 -0.0059684822 0.07550025 0.06520704 -0.068128146 0.08963279 -0.018584449 -0.31377277 0.0062897657 -0.21273805 0.11473638 0.035322677 -0.13687226 -0.13029362 -0.17368399 0.086986594 0.039238054 -0.2078711 -0.14579728 -0.23712935 0.21314797
d_1284 0.05475792 -0.09345733 -0.09266541 0.04273899 -0.05847677 -0.02685641 0.0018849825 0.048209276 0.056123797 -0.00820232 0.093834646 0.13683043 -0.025408698 0.060920134 -0.028044853 -0.03196538 0.012003979 -0.0033054566 -0.20150813 -0.0005086756 -0.08304924 0.06224871 0.08127083 -0.035010457 0.007993408 -0.0024979112 -0.029200103 -0.045645725 -0.047092494 -0.048599362 -0.0703724 -0.030266535
d_941 0.008166309 -0.07372937 -0.09540525 0.07057034 0.04686699 -0.004956302 0.07882968 0.09475129 -0.0042755096 -0.024733463 0.018077526 0.22330518 -0.021250028 0.10458864 -0.0045541804 -0.05839921 0.06202428 0.04266844 -0.21711946 0.01582914 -0.038874373 0.020290326 0.08746921 -0.10114365 0.009182428 0.018295836 0.0059574214 -0.060466252 -0.06866767 -0.06745392 -0.1555353 0.02495996
d_317 -0.035143178 -0.18698539 -0.18134159 0.08763076 0.017686207 -0.07745919 0.051028796 0.17004316 -0.0508207 0.054007992 0.13920014 -0.023936795 0.009000131 0.26701936 0.034934662 -0.16484262 0.073531955 0.0048262053 -0.27432323 -0.038333494 -0.15133634 0.07824136 0.05482725 -0.22696224 -0.04158675 -0.029229648 -0.04335739 -0.014144264 -0.15162408 -0.20338012 -0.2188031 0.079916485
d_652 0.029746687 0.027320335 -0.042674568 0.028509002 -0.058623802 0.039663084 0.017629925 0.1070519 0.13571933 0.0046247216 0.00759534 0.21381682 0.030215552 0.009671454 0.014369797 -0.05175572 0.09495525 0.099501275 0.15421158 0.05538909 0.0353037 0.008395312 0.022131128 -0.1523546 -0.0039789127 0.060347803 0.08981389 -0.0560542 -0.05760607 -0.017943785 -0.11972085 -0.11173043
d_1657 0.1376806 -0.1027743 0.028536102 -0.10448113 0.009261827 -0.12236782 0.013177905 -0.041354503 0.037675567 -0.21702929 0.16866873 0.2408735 0.03233904 -0.083841525 -0.3193737 -0.016912676 -0.078737974 -0.017290149 -0.21406229 0.108939014 -0.041410614 -0.07944427 -0.068426125 -0.30825776 -0.15553573 0.027243815 0.008211587 -0.03366179 0.21290268 -0.021902919 0.17170651 0.020174505
d_1165 -0.004405453 -0.060398623 -0.040517207 0.09853572 -0.035820276 -0.1278709 0.05110296 0.02791608 0.06956535 -0.026478251 0.031263757 0.27028885 0.025778357 0.035148297 -0.16029282 -0.08324913 0.041860227 0.03786895 -0.40116817 0.05612027 -0.06804656 -0.12870568 -0.028795578 -0.081734136 0.071538515 0.07634168 0.030471867 0.018687928 0.01851401 0.026496826 0.057587147 -0.13168854
d_1427 -0.007855459 0.07778276 -0.12886144 0.021839153 -0.012069548 -0.037334424 -0.005334109 0.12693566 -0.035204966 -0.07496191 0.041054875 0.35763982 0.05329634 0.0024632982 0.0069997106 -0.06199518 0.09528966 0.036968533 -0.12009965 -0.020771386 0.0050231353 0.09836244 0.12444972 -0.16557659 0.12154961 0.0069279172 0.034906466 -0.026287163 0.04224036 -0.0006975122 -0.022548664 -0.16848627
d_30 -0.0021327243 0.15661529 -0.022667456 0.0667846 0.0135606835 0.020914434 0.061040338 0.12302693 0.14728355 -0.079176776 0.08995134 0.13189602 0.015449095 -0.05356398 -0.0055142553 -0.033399154 0.17684585 0.06218914 -0.0150198145 -0.0064112665 0.0454648 0.11750152 -0.017503582 -0.1712988 -0.12963842 -0.04361877 0.039158687 0.08677944 0.08071298 -0.015099093 -0.108933516 -0.20109044
d_776 0.031370323 -0.055108257 -0.012571778 0.108558334 -0.03668963 0.17876562 -0.12519068 -0.040829293 0.19216402 -0.057339057 0.20625521 0.22838983 0.21169701 -0.107326195 -0.0148803815 -0.13117135 0.11967297 0.046904057 0.2776591 0.015511287 0.041077916 -0.00082966127 -0.19937968 -0.21980199 0.0028864127 0.006969748 0.12256274 -0.049804717 -0.21120597 -0.13996077 -0.08988144 -0.27134237
d_1451 0.26718387 -0.002153695 -0.22614953 -0.04736598 -0.13194679 -0.2325454 0.027329696 -0.15344891 -0.05762599 0.19019721 -0.2968359 0.033829484 -0.16118714 0.27462414 -0.08154942 -0.17368351 0.007932038 -0.15573478 -0.033821806 -0.16982976 -0.17721121 0.12612493 0.39844143 0.11159429 0.17276451 0.056610487 -0.0369514 -0.058992136 -0.2392088 0.13559395 -0.16080905 -0.21344316
d_31 0.106190585 -0.2139277 0.031582452 0.16118239 0.025741395 -0.071184434 -0.0589967 0.21483459 -0.047555074 -0.10768238 0.009484647 0.14947863 0.06142597 0.0539688 0.019853465 -0.10667121 0.15256013 -0.037441224 0.06267822 -0.02942969 -0.014634865 0.011916411 -0.039664496 0.088433474 -0.11619747 -0.07761221 0.13531421 -0.080156796 0.08969213 -0.08055216 -0.2953229 0.043313455
d_1336 0.16063511 -0.13449164 0.11411842 0.0820974 -0.033786897 -0.1606163 -0.18710624 0.092429146 0.1780778 0.019831656 0.2574655 0.12647766 -0.004722002 0.13241237 -0.005901694 -0.055976473 0.18698153 0.09547869 -0.21484193 -0.00966464 -0.124256834 0.120079376 -0.388208 0.0029415821 -0.2463403 -0.08212673 0.026613815 -0.04728604 0.06330448 -0.008985925 -0.13509427 0.14044277
d_1274 0.037395667 -0.06851748 0.057693534 0.08096669 -0.015487324 -0.11891024 0.12141297 0.08611636 0.0929678 0.058184963 0.0781563 0.17986758 0.011024942 0.0003654256 -0.014075242 -0.0924559 -0.005495876 -0.022339143 -0.22239713 -0.00853724 -0.079668105 -0.028442444 -0.09882251 -0.20483948 -0.1304277 0.060751963 0.11754129 -0.039235894 -0.06217752 -0.037713706 -0.118495055 -0.054198008
d_32 0.067399725 -0.08369322 -0.028860325 0.1706715 -0.16017671 -0.09371985 -0.11603976 0.033775453 0.057249963 0.10441534 0.065579295 0.33772814 0.26785934 -0.16752093 -0.05571197 0.04148179 0.18816938 -0.13061155 0.12881345 -0.12861128 -0.24593234 0.19442791 0.112395205 -0.109997965 -0.04483615 0.02738172 0.092475474 -0.0042846655 0.015381174 0.016850987 -0.23189732 -0.108631276
d_919 -0.115328684 -0.10167423 -0.17346221 -0.05085553 -0.1455169 -0.011309339 0.0025091185 -0.044376664 -0.16998965 0.14724661 0.1269712 -0.29975525 -0.045961328 -0.050121658 -0.1422335 0.04721943 0.15205021 -0.07180713 0.35946235 -0.0013527066 -0.059268083 -0.020184085 -0.13379428 0.008590614 -0.014149303 0.23688215 -0.025702486 0.067461796 0.22090916 0.2854399 -0.016450431 -0.12179041
m_38 -0.18825603 -0.14744309 -0.15611702 -0.05705517 -0.062460545 -0.018072005 0.011030443 -0.041133687 -0.10688744 0.06666468 -0.12486609 -0.019105056 0.08732255 0.0342738 -0.05881088 0.014688014 0.1436325 0.117446534 0.23992746 0.059269283 0.02050441 0.11626005 0.062494528 0.2667386 0.09729974 0.1231223 -0.0026113018 -0.030078117 0.09842805 0.2139291 -0.06602896 -0.12941864
m_40 -0.21339208 -0.2235215 -0.36196813 -0.067994796 0.20045339 -0.13702534 0.1558509 -0.094582655 -0.045742188 0.13665214 -0.2532355 -0.27601972 0.084301785 0.0594056 -0.11783725 0.06306127 0.33796087 0.06859114 0.4002048 0.21934065 -0.06887403 0.23779227 -0.23541923 0.16032057 0.24613541 0.23935804 -0.1917057 -0.14050305 0.17860118 0.33933786 0.10889987 -0.3689234
d_1021 -0.09006898 -0.12482205 -0.24559392 0.08107775 0.05346525 -0.11812814 -0.07531068 -0.057066664 -0.031705163 0.066311985 -0.06925145 -0.38549203 0.13354252 0.037964664 -0.009925156 -0.07501805 0.25052887 0.13653632 0.27338192 0.19791321 0.028884524 0.111792244 -0.051280368 0.12134043 0.13128853 0.26258466 -0.044264484 -0.10687142 0.061190747 0.23268773 0.08152576 -0.16566738
d_33 -0.00075062946 0.04042442 -0.50158507 0.09940484 0.13082054 -0.5676512 -0.19087449 0.24818254 -0.046826158 0.05657413 -0.013503004 -0.537889 0.14506583 -0.119648725 0.15875943 0.044568833 0.36049637 0.44473514 -0.24014297 0.17039235 0.20460746 0.18818262 -0.16527078 0.16152042 -0.023228522 0.5081765 0.15857552 0.11601609 0.06972432 0.23109944 0.12656339 0.016591672
d_1395 0.07162345 -0.10073223 -0.08464576 0.23421358 -0.005525335 -0.2025277 0.055613928 0.23024091 -0.04901915 -0.11862051 0.089354895 -0.36936525 -0.010446964 -0.29890803 -0.14210112 0.12430797 0.20339233 0.22981931 -0.135419 0.13666373 0.1747122 0.020041369 -0.0038662953 0.2217043 0.09333655 0.24819252 0.12677254 0.04520623 0.08580522 0.13814735 -0.0076723807 -0.04599924
d_963 0.09283158 -0.007942414 -0.30357116 0.19285975 0.16148148 -0.20081174 -0.011851939 0.21523973 -0.2121802 -0.15308763 0.16251339 -0.2903088 -0.034156688 -0.24972928 -0.008300967 0.046691984 0.1341665 0.12943922 0.3035025 -0.007958607 0.03925444 0.11184545 0.31058615 0.12564419 0.13802372 0.1739372 -0.03375819 -0.110807665 -0.038252253 0.054313947 0.03792278 -0.1683193
d_562 -0.02816122 -0.10001287 -0.21463625 0.07082151 0.06650355 -0.19495164 -0.114013135 0.12438302 -0.15681379 -0.0010034395 0.052297086 0.1300049 0.016588654 -0.123487756 0.056199603 0.09002997 0.09980602 0.016348377 -0.18193503 -0.025749486 0.04638508 0.039684474 0.19319901 -0.053981256 0.028111115 0.10961723 -0.027541969 0.060907945 0.029851101 -0.02265705 -0.022356201 -0.005596249
d_1122 0.048150513 -0.009924647 -0.1313389 -0.21626121 0.031071847 -0.10541728 -0.14209938 0.1313309 0.118362896 0.2486209 0.028416397 0.3177526 -0.076920465 0.18578783 0.054086696 -0.08182747 0.13284338 -0.00950144 0.07846925 -0.021123841 0.090073936 0.16900338 0.19256562 -0.100977324 0.1574946 0.10741099 -2.223489e-05 0.04148568 0.095589034 0.04258231 -0.20462836 -0.027291236
d_34 -0.11506742 0.068280816 -0.48470345 0.11091387 -0.05414775 -0.104307175 -0.22354126 -0.010551811 -0.08832537 0.07578503 0.043410357 -0.4300335 0.00828062 -0.19603856 -0.17015938 0.059862327 0.4896823 0.15826376 -0.069942735 0.31191328 0.08457003 -0.029623756 -0.10016255 0.1777915 0.026541963 0.24189764 0.010976091 0.05291815 0.03443112 0.22802293 0.025209712 0.2411186
d_837 -0.092980035 0.14310534 -0.3074058 0.21616815 -0.117893204 -0.20245093 -0.18466823 -0.05885828 -0.058695048 -0.041290157 0.07494276 -0.27717984 0.04452698 -0.115716994 -0.15446107 -0.011270678 0.2565335 0.10933252 0.14473866 0.22860749 0.13689439 -0.055423148 -0.19355386 0.018241705 0.062002283 0.2635538 0.12216565 0.15547244 0.16725624 0.24944474 0.01768694 -0.0030437391
d_568 -0.21452484 2.4686684e-05 -0.4448262 0.33012494 -0.16703542 -0.38412556 -0.02007481 0.10107227 -0.1372705 0.08607761 -0.04835355 -0.06799539 0.06181454 -0.1508946 -0.09275916 0.019591246 0.37259784 0.13574709 0.24818088 0.06013849 0.10337852 -0.04676443 -0.22979783 0.07107401 0.11510751 0.5050051 0.128516 0.04723937 0.45738086 0.37846896 -0.3303242 0.14515735
d_1001 -0.11103599 0.04941751 -0.22578417 0.14866745 -0.23497304 -0.04675409 -0.16130084 -0.07412226 -0.021973114 -0.0460357 0.122009456 -0.024838002 0.022027314 -0.089879155 -0.15004964 0.06336195 0.25966236 0.19740465 -0.12318499 0.13954845 0.10888158 0.062028475 -0.088112466 0.0545123 0.093087316 0.20600396 0.090438426 -0.031412553 0.11324088 0.03826045 -0.04894163 0.08179822
d_1454 -0.03787057 -0.03533367 -0.18925115 0.13501078 -0.00020464614 -0.030852024 -0.06036455 -0.06526484 -0.040100414 0.0019734697 -0.013179618 -0.30742696 0.023861755 0.021790609 -0.072078414 -0.046555903 0.1166926 0.020953769 -0.059098262 0.11464516 0.03824026 0.08323698 -0.12130323 -0.007100166 0.03616918 0.16234085 0.038487855 -0.009537935 0.068107456 0.17192315 0.028548855 -0.04155361
d_35 -0.0075539825 -0.037656456 -0.048620287 -0.021783745 -0.075714365 0.005617958 -0.08645594 0.008374425 0.053493854 -0.09396431 -0.015522861 0.10725035 -0.10908628 -0.008160662 -0.022857537 0.030601624 0.063035235 0.10659313 0.09430089 0.06768636 0.037121862 -0.0086414125 0.026668258 -0.102193356 0.035461433 0.0016188608 0.033803403 -0.09638376 0.024815204 0.0075407177 -0.0708538 -0.07849468
m_63 -0.103286885 -0.3872148 -1.0926168 -0.13027138 -0.6239507 0.20742647 -0.94275326 -0.58043545 0.93003154 -0.36418876 -0.3177181 0.9838002 -1.3845949 0.34102705 -0.04024705 0.10612144 0.5410414 1.450663 0.63877577 0.6293794 0.1606298 0.17978327 0.0787581 -0.7117034 0.5212199 -0.37045738 0.019804046 -1.0835519 -0.31363943 -0.52115655 -1.3390621 -0.31821382
d_242 -0.15208444 -0.31744048 -0.5679204 -0.044612996 -0.36480814 0.12694626 -0.37137493 -0.18483005 0.6111102 -0.22319926 -0.09006154 0.3964006 -0.5289223 0.18675315 -0.062189635 0.15851106 0.35535958 0.5932339 0.3577502 0.5625094 0.22955872 -0.093747854 0.025631793 -0.5171731 0.42200968 -0.07646575 0.015835807 -0.633398 -0.15375793 -0.24924925 -0.5301465 -0.20164622
d_362 -0.18329786 -0.29403877 -0.46796092 0.08912973 -0.3497524 0.065234765 -0.43741888 -0.31730497 0.6643466 -0.11823703 -0.15419675 0.47771144 -0.49521682 0.2560507 -0.11895492 0.24777529 0.32224098 0.63199604 0.45721078 0.61349356 0.2369978 -0.034709807 0.2350442 -0.50267947 0.47558108 -0.24260399 -0.0551335 -0.6383978 -0.33972052 -0.30069882 -0.6234708 -0.17968957
d_344 -0.2228244 -0.31442088 -0.43565494 -0.051920377 -0.3707475 0.025403704 -0.43519548 -0.29415166 0.6052328 -0.28419456 -0.15134382 0.35999072 -0.49395517 0.168055 -0.05288179 0.16162288 0.2538833 0.5184155 0.4068773 0.49741566 0.037244707 0.11546141 0.2249505 -0.34913772 0.4560291 -0.21973349 0.08510505 -0.4498927 -0.17924604 -0.24829939 -0.52027917 -0.33616367
d_298 -0.1409041 -0.038219634 -0.820062 -0.0959649 -0.31447998 0.13831478 -0.38571098 -0.3499188 0.63002473 -0.27047965 -0.21172374 0.57304394 -0.555885 0.056896634 0.06072218 0.14406535 0.14561813 0.7923287 0.2868159 0.43052584 0.07037914 -0.17538139 0.26038563 -0.54924244 0.16863593 -0.18529023 0.13404608 -0.68735874 -0.2551528 -0.27878094 -0.6166751 -0.18654993
d_36 -0.08951105 -0.04196236 -0.4747996 -0.13876323 -0.34076306 0.0072442302 -0.3885195 -0.31774676 0.43725327 -0.3281804 -0.18722877 0.42790604 -0.44682232 0.14778945 0.037771143 0.11449735 0.18180045 0.45347235 0.26055384 0.34889072 0.117640056 -0.090620026 0.29519773 -0.4080142 0.1624693 -0.25031918 0.07914652 -0.44630098 -0.20496832 -0.2121725 -0.5093945 -0.2548536
d_913 -0.16196993 -0.14129029 -0.6076689 -0.05047635 -0.43008325 0.11388457 -0.47032785 -0.3193752 0.5541136 -0.117678426 -0.21455687 0.5631117 -0.6997158 0.2609505 0.054364394 0.18574107 0.30300194 0.690662 0.37868646 0.5680743 0.3092755 -0.1656211 0.10333974 -0.4842332 0.258995 -0.30667654 0.047039233 -0.71264565 -0.23017763 -0.2748051 -0.6857508 -0.2540822
d_357 -0.061963975 -0.005091306 -0.50521076 -0.034277387 -0.32690093 0.00041563623 -0.18374431 -0.23029533 0.43694013 -0.22240406 -0.123414025 0.45151612 -0.46003762 0.092884324 -0.03453105 0.08375204 0.2811343 0.48045033 0.26879045 0.25638267 0.087302774 -0.07762123 0.091542855 -0.37734544 0.109860815 -0.18194982 0.10184357 -0.4636578 -0.114328526 -0.20612411 -0.5696378 -0.17758845
d_37 0.08231038 -0.10526621 0.033796277 0.005628294 -0.0041795345 -0.023723135 0.1000566 0.1077434 0.13643406 -0.07798358 0.13072385 0.008819097 -0.12240585 -0.10002417 -0.100736044 0.040214933 -0.14253709 0.07868235 -0.13344811 0.10472083 -0.1273134 0.05088153 0.03284125 -0.057431154 -0.0070957188 0.09968057 -0.060428783 -0.12058227 -0.05409964 0.11746097 -0.12839043 -0.1341505
d_1412 0.05645841 -0.08813369 0.05419193 0.039004665 -0.02649354 -0.058453947 0.08512905 0.066104926 0.05546287 0.019213099 0.055400435 -0.024274945 -0.054613892 -0.13664754 -0.062824056 0.011479533 -0.1147528 0.04844417 0.007307445 0.052437704 -0.03910775 0.11088324 -0.03637259 -0.028158909 -0.06762039 0.06973979 0.05174103 -0.07078602 -0.024543723 0.10054813 -0.036535583 -0.14569566
d_177 0.06610534 -0.25708035 -0.032688387 0.08745317 0.11413604 -0.26582468 0.29122767 0.42042664 0.3662827 -0.14781074 0.39250028 -0.17616488 -0.21420054 -0.29402378 -0.3172025 0.12230918 -0.119212925 0.1704589 0.12757525 0.20561959 -0.3678669 -0.22634076 -0.07267749 -0.039706137 -0.12972805 0.06763471 -0.15007222 -0.07865187 -0.0021437297 0.44541603 -0.09090348 -0.29700094
m_114 0.30070877 -0.07700454 0.45573422 0.2482696 -0.19419678 0.12681684 0.18717627 0.27479306 0.1224274 0.0034151196 0.17499584 0.30881768 0.04307874 -0.16641982 -0.7516907 0.29032996 -0.25339103 0.38700667 0.07858934 0.27977166 -0.12830716 -0.11289045 -0.4936069 -0.01350779 -0.31446022 0.23571026 -0.091247216 -0.040656637 -0.028672887 0.068700634 -0.09085803 -0.5902188
d_328 0.023414865 -0.18479969 -0.07141567 -0.1524178 0.119202055 0.21157637 0.025401857 -0.051480617 0.06387915 0.08348995 0.22430176 -0.060765725 -0.015160431 -0.1835786 -0.19415353 -0.10165441 -0.3862812 0.14732099 -0.22246407 -0.010507565 -0.31019455 0.17568657 -0.08001256 -0.015873063 0.09935916 0.18267669 -0.22805353 -0.28547898 -0.11932629 0.21027943 -0.30622396 -0.29057023
d_1008 -0.021364735 0.039287634 -0.26920977 0.09946086 0.0025536064 -0.06631699 -0.066196136 0.076132596 0.006617201 -0.05806964 0.103182286 -0.07755492 0.051350378 -0.10222462 -0.018106181 -0.017661383 0.2737213 -0.01329358 0.1192296 0.18934208 0.12751529 0.06901391 -0.086712725 -0.06563684 -0.010821379 0.06940205 -0.05084333 0.05101764 0.016499318 0.11287386 0.10177857 0.028148072
d_1535 -0.0626631 -0.137919 0.17741235 0.15894423 0.1168561 -0.28861958 -0.26589644 0.20992465 0.2795677 -0.07230574 0.049678147 0.06775976 -0.24697933 0.07598033 0.17471655 -0.10663182 0.20397325 0.067481615 -0.15625158 0.015332921 -0.2512323 -0.08364276 0.14800428 0.16772819 0.009475231 -0.08871975 -0.09486555 -0.06732955 0.09537232 0.07239711 0.10532321 -0.17765658
d_134 -0.061820596 -0.049328748 0.12326848 0.059283346 0.06535972 -0.3476461 -0.22542687 0.15576011 0.12506092 -0.016713746 0.0050619706 -0.05784217 -0.17635232 0.053140204 0.03167822 -0.15097095 0.32542297 0.007497408 -0.17321976 -0.101157665 -0.2460747 -0.006998007 0.10788494 0.05117687 -0.033600893 -0.078769736 -0.14529634 -0.09390677 -0.016970007 0.012779616 0.13573635 -0.1628943
d_39 -0.13452312 0.0047948826 -0.090925686 0.15933517 -0.030172896 -0.038302816 -0.06495095 0.02815254 0.053440474 0.0021073623 0.014290236 -0.0625444 0.0059996806 0.10005123 -0.042297803 -0.059880324 0.1865026 0.026686272 -0.21682769 0.13954833 -0.0064422702 -0.031500425 0.11315979 -0.13267158 -0.010698241 0.117408834 0.09806879 -0.012446115 0.056592412 -0.05839041 -0.019664148 -0.058199722
d_1457 -0.073321 -0.095791206 -0.20967318 0.20228086 0.10342137 -0.11531355 -0.16409817 0.09035525 0.006828322 -0.115071625 -0.14901687 -0.097466245 0.16161646 0.22346629 -0.12628329 -0.049690176 0.2700414 -0.026518505 -0.3417201 0.1780654 -0.015041271 -0.14056785 0.10627125 0.028792124 -0.11422083 0.21885012 0.08293624 -0.0073231566 0.08939318 0.031062689 0.03185263 -0.016199179
d_1366 -0.121246964 -0.068125635 -0.06529016 0.2509764 -0.0048086876 -0.060109355 0.042103607 -0.021774119 -0.05520731 -0.0066295806 -0.18427533 0.1517828 0.11997936 0.17789342 -0.13519794 0.008618008 0.28948894 0.046127256 -0.1656124 0.12426386 -0.16288173 -0.17770115 0.25298163 -0.08060904 -0.0642828 0.23916171 0.052874524 0.11021796 0.12686063 0.06929587 -0.13075826 -0.1593665
m_34 -0.109772824 -0.11804473 -0.14711702 0.07166695 0.05667746 -0.081788324 -0.036746453 -0.023191847 0.031574856 0.012726169 -0.059379842 -0.08838895 0.10243823 0.10277565 -0.057952378 -0.051891793 0.17851442 0.059813384 -0.23329237 0.13610883 -0.049433045 -0.091542326 0.11707666 -0.03976095 -0.056517184 0.14545693 0.08953477 -0.0054879575 0.034858853 -0.012339661 -0.049947403 -0.033505216
d_1642 -0.2258138 -0.06506454 0.029089704 0.21597084 0.061257455 0.0191508 -0.07023183 0.07920984 0.010927696 -0.05895034 -0.11394428 0.23651429 0.16311184 0.14591587 -0.14751408 -0.09409717 0.3101967 0.08178589 -0.19631447 0.06578463 -0.1466511 -0.20009355 0.13238153 -0.28857175 0.0033815173 0.14129503 0.20740567 0.05071186 0.10776575 -0.074368894 -0.107997656 -0.2057178
m_37 -0.32795322 -0.14908399 -0.12647447 0.31658366 0.10695188 -0.23002157 0.10175248 0.0043328293 0.00014248956 0.06818072 -0.24893837 0.3217737 0.28699398 0.18556455 -0.17408346 -0.06525174 0.28548083 0.05487927 -0.08730953 0.13883029 -0.20361573 -0.22657242 0.19061147 -0.17576747 -0.045806453 0.2666503 0.13216068 0.14445183 0.11749278 0.08428106 -0.089988984 -0.18934476
d_40 0.055619583 -0.117607236 -0.29340652 -0.018060429 0.10880656 -0.04967847 -0.1329077 -0.0071740905 0.09992183 -0.012339485 0.046944007 -0.26794156 0.055653732 0.04125508 -0.034961276 -0.052591667 0.21653901 0.110965714 -0.4337735 0.33029002 0.19269337 0.12342237 -0.026397891 0.032241397 -0.1539986 0.2286003 -0.045255456 -0.110088326 0.03033915 -0.04066676 0.16201632 0.22814754
d_253 0.20286475 -0.17774373 -0.036936894 -0.031000841 0.12102191 -0.039251935 -0.14030538 0.00025142077 0.14991105 -0.052136097 0.14443657 -0.30447695 0.07021338 -0.013114289 -0.035593957 -0.12598114 0.25559464 0.13565594 -0.49734107 0.31250378 0.1024421 0.13097048 -0.07980902 0.23503628 0.024603924 0.24219349 0.10687135 -0.16105781 0.070954904 -0.11278672 0.15232973 0.19664253
d_1453 0.06216019 -0.18508004 -0.19653942 -0.05514466 0.13795522 -0.10822227 -0.16918807 -0.060496554 0.051970746 -0.2025648 -0.05532731 -0.24180001 0.031414337 0.017874338 0.019287873 -0.050114922 0.193365 0.06887197 -0.2731074 0.2518712 0.14379083 0.054602765 0.16717556 0.0145884715 -0.07442076 0.16673715 0.015335979 -0.1508757 0.026792804 -0.115116954 0.11466473 0.1856261
d_72 0.1252884 -0.12955622 -0.22846161 -0.05908664 0.07058985 -0.018732522 -0.18674454 0.10402955 0.077161595 -0.08187486 -0.025698112 -0.23168938 -0.003149111 0.021941757 -0.013218191 -0.06595963 0.19507669 0.1873927 -0.34951517 0.2477875 0.15441206 -0.024104523 0.020369174 -0.0016729499 -0.10438774 0.122127265 0.036961477 -0.20170364 0.10633073 -0.057494607 0.15128723 0.059488278
d_674 0.09912711 -0.03696414 -0.19087932 0.13072151 -0.1476359 0.36147824 -0.30504096 -0.23735218 -0.13798872 -0.17402051 0.09526311 -0.26394895 -0.031393684 -0.04388667 -0.15849681 0.035943825 0.21117261 0.14186953 -0.42715842 0.17548764 0.20807457 0.110720046 0.040535014 -0.043772988 -0.13299245 0.25626272 -0.035007913 -0.15801707 0.299497 0.14348508 0.16466807 0.27286452
d_41 0.12523971 0.0047137397 -0.08574913 0.13088608 0.13481201 0.10680322 0.09255512 0.0033471864 -0.1337756 0.13978602 -0.03484564 -0.15963894 -0.0006346145 0.10330364 -0.07550027 -0.020441493 0.29140964 0.19561075 -0.46759853 0.31923577 0.12445911 0.19982588 0.00994112 0.020239733 -0.09961097 0.20355648 -0.10974903 -0.021649208 0.12526307 0.24159077 0.17333604 0.014318835
d_713 -0.036962867 -0.13314714 -0.31069112 -0.032477602 0.06469663 -0.027767876 -0.05004331 -0.12838547 -0.10550711 -0.030767921 -0.06693926 0.009924285 0.052787587 0.01947523 0.04416319 -0.05050672 0.14862052 0.06168119 -0.36200488 0.24939346 0.012672677 0.37299705 0.07364065 -0.25471812 -0.061597977 0.13283546 0.13554017 -0.108562015 0.23076805 0.29677027 0.048034325 -0.12279121
d_1713 0.10056739 0.13777894 0.024508901 0.2752483 0.15177618 0.13475662 0.16763242 -0.066304244 -0.05434471 -0.11364594 -0.09544193 -0.014556622 0.07040874 0.16570844 -0.05166414 -0.030192891 0.052374125 0.0405355 -0.20010538 0.17992596 0.008613151 -0.038017914 0.31105983 -0.39406735 0.09318849 0.0058467705 -0.00076905213 0.10784514 0.07042236 0.22170886 0.21273853 -0.008872578
d_166 -0.0024960507 0.068692364 -0.13796483 0.16694002 -0.042625904 -0.056377232 0.13475335 -0.032488264 -0.10956915 0.08374204 0.036865346 -0.05180074 -0.08427645 0.23144144 0.011115748 0.036512658 0.1735104 0.20528242 -0.3769054 0.34117955 0.14590117 0.017760037 0.078947715 -0.23476006 -0.059005525 0.053814102 0.012984151 0.22435041 0.018973194 0.1916296 0.23714319 -0.19935583
d_1085 0.027612252 -0.015588128 -0.018100535 -0.028970972 0.059118293 -0.000600595 0.008634239 0.027504371 0.013763007 -0.009105951 0.006762137 0.22009008 -0.06556892 0.009993117 0.0136279 -0.041364655 0.06922718 -0.0054616164 -0.090327665 0.008061763 -0.0022641635 -0.027752267 0.00074074115 -0.08863111 0.04375598 0.049344324 0.08222412 -0.083218664 -0.0061641037 0.0027165324 -0.01687134 -0.031640805
d_42 0.13409741 -0.03413915 0.26138562 0.051602557 -0.07904681 0.041452285 0.09170899 0.06077953 0.16165216 -0.15441826 0.12838402 0.07234744 -0.15801051 -0.02254218 -0.10966074 0.06820533 -0.05630078 0.113970846 -0.017922183 0.15786177 -0.008612477 0.11365487 -0.07016481 -0.022963976 -0.1355984 0.11971915 0.10305434 -0.12950769 0.17104252 0.056882408 -0.013782094 -0.12279316
d_49 0.20848586 -0.15073751 0.11564722 0.25579348 -0.19731022 0.03230617 0.044292606 -0.044578634 0.35692555 -0.282566 -0.059277456 0.06033705 -0.13844916 -0.13836992 -0.17888485 0.053692915 -0.17165561 0.18973203 0.012567898 0.1395012 0.059855275 -0.1880588 -0.11574623 0.09079836 -0.052764546 0.19647047 0.2087728 -0.07255604 0.08872148 0.019540178 0.0001472542 -0.23265402
d_70 -0.0042615575 -0.22639151 0.32135785 0.12948132 -0.11286485 0.06900667 0.078864045 0.1390224 0.310303 -0.23607181 0.1085879 0.044768315 -0.11423508 -0.013595446 -0.10885861 0.09543698 -0.24486785 -0.022436045 0.073383376 0.15803751 -0.04246289 -0.1582735 -0.084632255 0.07862416 -0.15316369 0.020490197 -0.013429822 -0.20112765 0.03779292 0.24366567 -0.14635468 -0.17933707
d_961 -0.040991075 -0.12980668 -0.093037695 -0.07989465 -0.02231552 -0.0107341735 0.122589864 0.06297161 -0.13655347 0.13566661 0.09862557 0.32772323 -0.08346563 -0.0053595947 -0.021998709 -0.1290607 -0.10973154 0.037654072 0.19552845 0.081638165 -0.18044727 0.017850433 0.1848984 -0.16858134 0.16242278 0.14181112 -0.04211787 -0.19050136 -0.13976233 0.16025251 -0.33615986 -0.09363363
d_43 0.117243834 -0.08214589 0.14439422 0.099484354 0.038052253 -0.24054411 -0.18441187 0.19130127 0.3230119 0.051160347 0.02481556 -0.124017276 -0.3212124 0.18593769 0.08816792 -0.24807365 0.2952283 0.048776083 -0.015111504 -0.104773656 -0.30151686 -0.12911586 0.19349937 -0.024676342 -0.07004322 0.15106958 -0.046750207 0.10286352 -0.16911858 -0.043620676 0.008882482 0.021707114
d_46 0.044638116 -0.13213634 -0.024267439 0.0610182 0.118841074 -0.20867229 -0.15765631 0.14200135 0.1602454 0.021821748 -0.08850614 -0.15196353 -0.117480926 0.10118667 0.06526687 -0.15306872 0.17061251 0.14879206 0.012122414 -0.08974482 -0.2035092 0.0004144134 0.08297674 0.113851905 -0.02302878 0.12732467 -0.059779078 -0.03540934 -0.07983865 -0.058231626 -0.03915755 0.10317463
d_993 0.04964893 -0.3458809 0.12713932 0.032017287 0.22076641 -0.4149929 -0.36463904 0.31392086 0.35522234 0.3000543 -0.05446234 -0.40736595 -0.2652784 0.19272545 0.113305524 -0.321282 0.52648664 0.18557528 -0.27399266 -0.14548025 -0.46328697 -0.14130512 0.25930285 0.016906949 0.1037832 0.26471874 -0.06931996 -0.048137598 -0.113207266 -0.2829324 0.05601215 0.0071761357
d_1539 0.13428909 -0.080795884 0.0997906 0.062128384 -0.07212314 -0.09777498 -0.066422075 -0.022128848 0.10298856 -0.039791036 -0.15275383 -0.07618966 -0.053050093 0.13964084 0.06497949 -0.0024801865 0.18845679 0.06353945 0.17163028 -0.09282518 -0.10944501 -0.015403603 0.02758888 0.089098945 0.04995778 0.1631812 0.0046123536 0.08021139 0.015622364 -0.061062526 -0.23355366 0.008909451
d_44 -0.0062741376 -0.25184196 0.13141099 0.06265654 -0.06428245 -0.3394186 -0.26643282 0.18604074 0.27950355 -0.090921484 -0.1428071 -0.0286411 -0.076449774 0.20569126 0.06938095 -0.19428143 0.230466 -0.023120768 0.3739947 -0.20007014 -0.1870711 -0.081246786 0.28637147 0.08340255 -0.12869945 0.058679618 0.008626392 0.032324206 -0.25601625 -0.10153359 -0.13846324 0.1531004
d_313 0.046491448 -0.3343324 0.21067862 -0.2032495 0.14579421 -0.16432011 -0.1761205 -0.099933214 0.3488962 -0.14313485 -0.11202132 0.44978005 -0.19865608 0.1451038 0.17273842 -0.09502619 -0.21226282 -0.160253 0.41984764 -0.007896816 -0.21721576 -0.04617669 0.09233847 -0.11258151 0.04973724 0.2291037 0.16918379 0.054815184 0.18116939 -0.23103255 -0.021240642 0.08560453
d_45 0.067251846 -0.18236242 0.14964692 -0.067734204 0.024970306 -0.23431048 -0.2793077 0.13787827 0.22046474 0.06017243 -0.08925189 -0.27894685 -0.10398579 0.12633818 0.07331932 -0.16475672 0.2496236 -0.01146338 0.21993692 -0.18615098 -0.22652824 -0.04795404 0.16587569 -0.06756843 -0.10203467 0.033312883 -0.122067 -0.025500927 -0.12314739 -0.1145878 -0.08353536 0.016157765
d_1018 0.026649425 0.0037547178 -0.20603621 -0.20605335 -0.05114703 -0.26476264 -0.31788164 0.14205414 0.045098756 0.2749268 -0.17858696 -0.22853735 -0.078876525 0.12438592 -0.11050302 0.013011165 0.26263395 -0.14956789 -0.12808247 -0.18910454 -0.013376351 0.15965669 0.057914585 -0.31654248 -0.07792465 -0.0138477795 -0.027534593 -0.08776877 -0.04935563 0.03775827 -0.28084165 -0.20025544
m_91 0.22179368 -0.028995987 -0.06727703 -0.16383982 -0.11075558 -0.33427477 -0.3571029 0.3279474 0.11787097 0.3982508 -0.26150903 -0.61819 -0.22157389 0.1250937 0.051348172 -0.33264714 0.10785689 -0.17636974 -0.0799786 -0.33415312 0.045033794 0.26817846 0.17480299 -0.6257899 -0.08844336 0.19597144 0.09021218 0.07619233 0.17876573 -0.24359372 -0.47203454 -0.24652399
d_1664 -0.024307273 -0.16925819 -0.11579312 -0.2265329 -0.19684556 -0.27580538 -0.34774098 0.2879602 -0.016105654 0.28490868 -0.29459158 -0.40630928 -0.12329099 0.050433062 -0.08304136 -0.053808518 0.2046589 -0.21935095 -0.07744971 -0.24593842 0.06050721 0.07686994 0.30162194 -0.29711768 -0.101490505 0.037780803 -0.08786442 0.028841391 -0.0074656545 -0.18435845 -0.3722302 -0.1584256
m_69 0.002253226 0.10633959 0.15323398 -0.29805163 0.08167865 -0.20058212 -0.34921885 0.16540526 0.03798315 0.032322638 -0.29769933 -0.25314227 -0.12821962 0.17893538 0.12844731 0.1625874 0.2433508 0.010610605 0.06831979 -0.014204058 0.041518845 0.11055745 0.19316438 -0.4077588 0.030685289 0.21549864 -0.028992571 -0.15192188 0.10313545 0.12725611 -0.31371903 0.123286285
d_894 0.08128663 -0.102686085 0.056595866 0.012997145 0.019406658 -0.06425552 -0.10702786 -0.13531601 -0.044805076 -0.048491627 -0.02109885 -0.03694908 -0.042797238 0.10833217 0.07628282 -0.027600072 0.033852443 0.005265684 0.018280268 0.07394381 0.017530728 -0.047762133 0.031688105 -0.04970189 -0.028236233 0.022980344 0.043882232 -0.12279634 0.067406915 0.06934568 0.012202508 -0.0037801769
d_598 0.105968356 -0.2440976 -0.060096767 0.08361084 0.14279835 0.061275087 -0.001184996 0.0067026992 -0.119033694 0.12912443 -0.046409417 -0.16379839 -0.0592103 0.12990154 0.0322866 -0.20299453 0.24195787 0.17599079 0.12005019 -0.020275047 -0.15923429 -0.021724004 0.2560487 0.34287745 0.12343386 0.1643116 -0.05849338 0.015284845 -0.12233033 0.016861401 -0.08240429 0.036232293
d_1187 0.018479958 -0.055127073 0.021552768 0.032090284 0.1276411 -0.06759194 0.049863152 0.036964215 0.014691145 0.012106815 0.045349546 -0.069667354 -0.017058853 0.07500312 -0.07228185 -0.109843194 0.18924534 0.09235363 0.1943127 -0.03265591 -0.08843944 0.003719396 0.23408335 -0.0381429 -0.018938685 0.09405124 0.021298923 0.03063313 -0.05626574 0.003348628 0.08172594 0.035388436
d_973 0.068115756 0.022898693 0.15195997 -0.1655249 -0.017230064 -0.07727495 0.029399704 -0.07436828 -0.024878195 0.12720592 0.12361242 -0.1040246 -0.046928152 0.11740516 -0.04290807 -0.10003018 0.12729034 0.040084176 -0.034881152 -0.008350363 -0.045849774 0.11414993 0.21207806 0.10311419 0.162548 0.082347795 -0.014353689 0.04326857 0.098954834 0.089698076 0.041828085 -0.04213755
d_47 0.17251736 -0.1697709 0.15214211 -0.06654326 0.08237283 -0.5210314 -0.34039283 0.11604129 0.29909942 0.18256547 -0.16241801 -0.12024686 -0.26762074 0.31230307 0.18691416 -0.3514771 0.31662738 -0.048770253 0.28005993 -0.18393451 -0.43236065 -0.07378019 0.32694125 -0.13364996 -0.059212454 0.14942388 0.03605491 0.15730193 -0.24851571 -0.19698016 -0.21538183 0.12048736
d_599 0.07590038 -0.01688694 -0.0034865476 0.004032768 0.003552393 -0.069935724 -0.014356013 0.15024564 0.15427153 0.07808139 -0.030901348 -0.07467137 0.10579729 0.0721048 0.014330325 -0.040361702 0.15006308 -0.069721885 0.12972474 0.056403253 0.0040666717 0.023997812 -0.010034649 -0.070395045 0.039537467 0.044685088 -0.029480498 -0.04794295 -0.013138744 0.06216415 -0.108044595 0.07654442
d_48 0.007572418 -0.11762363 0.058650717 0.022028781 0.04596886 -0.31688273 -0.27556393 0.07057581 0.24628586 0.060151093 0.007437964 -0.39016652 -0.29561216 0.21169776 0.10159062 -0.23153396 0.312404 0.053178184 -0.14230298 -0.103213325 -0.3046319 -0.21269932 0.012511478 0.026143203 0.12031595 0.07352987 -0.16879949 0.06802443 -0.07820094 -0.13356987 0.011430378 -0.017790519
d_1534 0.07325529 -0.18530267 0.03661446 0.15047537 -0.04139902 -0.14106005 -0.13093181 0.12979564 0.1810315 0.010508285 0.060712226 -0.25010905 -0.13584146 0.088415414 -0.021296516 -0.12117659 0.1885491 0.03656281 -0.22007966 -0.0833515 -0.16358705 -0.0725161 -0.032106284 0.03581819 -0.013484868 0.11337192 -0.032480482 -0.004685756 -0.092985936 -0.049753733 0.12708895 -0.03413467
d_249 0.04686122 -0.19881722 -0.01533756 -0.07148945 0.04719591 -0.123352505 -0.40071562 0.19806376 0.29157597 0.16204192 0.0014429428 -0.34793475 -0.27398953 0.3923905 0.1380638 -0.39716196 0.39296094 0.040526494 -0.398281 -0.24725907 -0.5325092 -0.24926291 -0.069499776 0.18261527 -0.047666218 0.041482516 -0.21044943 -0.10800527 -0.10503301 -0.33742356 0.22805437 0.17175454
d_222 0.11376317 -0.14716528 0.049355023 0.13161758 0.0026644066 -0.19785272 0.047977112 0.14162646 0.17770681 -0.08186113 -0.051713843 -0.3836155 -0.109625116 0.065800406 -0.105648436 -0.09710892 0.28345478 0.029422328 -0.12955803 -0.12441651 -0.14116514 -0.116403215 -0.026543973 0.093403056 0.16662833 0.15396033 -0.21847513 -0.029598016 -0.12710068 -0.07945521 -0.026716433 0.08977447
d_366 0.005217802 -0.10976854 0.061519604 -0.001335837 -0.18357372 6.9040805e-05 0.121288866 0.07356125 0.21375078 -0.26111424 -0.075581804 0.3688868 -0.07953569 -0.11692065 -0.14068116 0.08502789 -0.26939923 0.21726766 0.056172177 0.11500245 0.071321785 0.027035253 -0.17164771 0.05487895 -0.16673128 0.037150443 0.052974075 0.027611425 0.04962811 0.10450195 -0.14014067 -0.06342303
d_801 -0.06754587 -0.12756377 0.0381651 0.003913031 -0.056956597 -0.07883571 0.19326206 0.29869434 0.25096515 -0.17492524 0.113876 -0.026630435 -0.183191 -0.18266109 -0.04429385 0.065465756 -0.08373284 0.12435457 -0.2663511 0.106801145 -0.030270016 0.023085155 -0.17444149 0.13060005 -0.16568536 0.13322875 -0.03535459 0.018495847 0.051125538 -0.02962484 -0.12397002 -0.054597013
d_795 0.055586684 -0.03282638 0.062269192 0.12765354 -0.075426266 -0.058338046 0.02523545 0.1957995 0.26388034 -0.25137022 0.051811367 -0.06414599 -0.14017329 -0.005173732 0.023291485 0.0050441367 -0.16022336 0.10031197 -0.19538537 0.23264219 -0.038932104 -0.022714132 -0.15902053 0.01200466 -0.022773111 0.004535742 0.14895543 -0.060124546 -0.022502143 0.22694477 -0.10173015 -0.14845526
d_665 -0.0042258464 -0.26596662 0.23317443 0.34977764 -0.19100402 -0.15516162 -0.04181875 0.32807925 0.14271624 -0.38224247 -0.11559426 -0.2978124 -0.27819186 0.009659627 -0.28134122 0.10677788 -0.122030884 0.26940462 -0.41484272 0.25545865 0.14543127 -0.04775716 -0.28508762 0.18258795 -0.17525223 0.013248019 0.058726985 -0.2635106 -0.04237187 0.18909594 -0.40106508 -0.20001087
d_50 0.010338234 -0.06528669 0.037917238 0.23406255 -0.09103644 0.07927477 -0.03271186 0.28985193 -0.041196644 -0.061531495 0.17599873 -0.14212097 -0.0015013376 -0.0852562 -0.03450192 0.0036486052 -0.021995386 -0.0025471135 0.15040009 -0.048051037 0.1196596 -0.077108584 0.12638289 0.14512995 0.21178809 0.020498784 0.24499074 -0.13387564 -0.041010685 0.31436595 -0.03533459 -0.18371254
d_492 -0.028177446 -0.1527839 0.081217505 0.18876177 -0.26613516 0.11141208 -0.18397543 0.25113612 0.0016153547 -0.17880598 0.02887407 -0.24438919 0.1446101 -0.064849235 0.09397464 0.00091404165 -0.06670686 0.08618078 0.18834418 -0.2878358 0.25611392 -0.1925287 0.21813755 0.3189234 0.2572978 0.080976926 0.3201419 -0.103144 0.107680045 0.23937736 0.41456872 -0.22231077
d_199 -0.10198108 -0.23720394 -0.13182417 0.026920643 -0.3738265 0.05759527 -0.14902382 0.43479845 -0.1156708 -0.016354073 -0.0626115 -0.089055724 -0.22536969 -0.1712592 -0.18777844 -0.027837938 -0.02346594 -0.08348076 0.036841363 0.16389313 0.25092968 -0.27407464 0.053626195 0.10796374 0.25535515 0.15250425 0.1942125 -0.014446139 -0.08528138 0.22426589 0.3423975 0.07048776
d_771 0.1214683 -0.07427273 -0.012063626 0.034438282 -0.018957691 -0.037536766 -0.0051249703 0.040125754 0.01830499 -0.076144546 0.11578256 0.04860852 -0.014545623 0.018858124 -0.06678053 0.027658556 -0.02603107 -0.02503149 -0.09533364 0.022749541 -0.07246019 -0.08154218 -0.057954974 -0.12415656 -0.07215352 -0.036903165 -0.0017701807 -0.119866475 -0.043610826 0.033169296 0.055855133 -0.026642721
d_51 0.10789749 -0.15043615 0.11772153 0.029028613 -0.23635095 0.038546957 -0.0065910304 0.23116176 0.30792004 -0.32873335 0.050919484 0.19870143 -0.113472566 -0.13783264 -0.17314564 0.1484121 -0.1658826 0.040664606 -0.14173393 0.3225336 0.06754371 -0.14082845 -0.28320354 -0.034471482 -0.2338914 -0.01614362 0.2476426 -0.12611836 0.16055708 0.2067572 -0.3094587 -0.0033001835
d_238 0.066730246 -0.1891961 0.16500491 -0.01259819 -0.17073295 -0.015352597 0.08186402 0.07941969 0.22153656 -0.20718499 -0.10248856 0.038911402 -0.20164277 -0.086119674 -0.14249004 0.11961788 -0.33188543 0.046452455 -0.032811694 0.24080636 -0.02863035 -0.08243338 -0.32752088 -0.0049214577 -0.13898939 -0.010218792 -0.101567 -0.14026622 0.15140904 0.27505872 -0.1639705 -0.11847377
d_291 0.15966682 -0.22189325 0.043596637 -0.08919681 -0.1455974 0.0129234 -0.060024865 0.29639652 0.07412195 -0.228976 0.20530352 0.03505792 -0.14996459 0.006728391 -0.1042451 0.14804104 -0.38608715 -0.13839447 -0.26174697 0.17621884 -0.16657697 -0.071622625 -0.22251216 -0.13825081 -0.16421768 -0.09808843 -0.0207902 -0.30450064 -0.017615102 0.16367786 -0.20104393 -0.20664819
d_840 0.08442737 -0.16274063 0.05905795 0.063279174 -0.21640328 -0.04858261 -0.12295371 0.044208296 0.1964584 -0.15434673 0.071813904 -0.23556446 -0.22606274 -0.07758663 -0.14323905 0.16096838 -0.22490826 0.062411215 -0.30000976 0.13846193 -0.035749182 -0.13311042 -0.33629513 -0.07284035 -0.15246528 0.1023721 0.07888688 -0.2283286 0.19928329 -0.011920883 0.05754602 0.0032162648
d_916 0.10534893 -0.047206078 0.06444921 0.020232325 -0.016413797 -0.11697306 -0.08727614 0.041034393 0.119921826 -0.12749876 0.013871003 -0.10000167 0.061301745 0.038988333 -0.022226786 0.01970847 -0.040123496 -0.040391646 0.019307608 0.06381858 -0.13676804 -0.068461284 0.07112682 0.043506786 0.0025747991 0.07071318 0.036402315 -0.016697325 0.11138099 0.14485247 0.1369084 -0.116747774
d_52 -0.05891323 -0.18255375 0.090731435 0.17527837 -0.00086440763 -0.034468304 0.06647616 0.28059956 0.22687265 -0.16472636 0.041436926 0.29960763 -0.2495445 -0.08777952 -0.22868319 0.07854174 0.03530053 0.24194212 -0.31937575 0.18469599 0.12847437 -0.018544761 -0.114422165 0.08562685 -0.11131033 0.1144004 0.13815881 0.107353546 -0.058923647 0.2636107 -0.13934167 -0.22925211
d_364 -0.029896751 -0.023891611 0.12303671 0.0892109 -0.046765964 -0.016157458 0.004165896 0.2603511 0.34644523 -0.20002818 0.22651927 -0.01834505 -0.15101972 -0.29358724 -0.1892627 0.17240342 -0.2574809 0.24051344 -0.2566167 0.081714414 0.11233935 -0.100674555 -0.08675573 0.16685848 -0.077287614 0.14235865 0.04817481 -0.09758246 -0.10465206 0.20022629 -0.16058023 -0.17536335
d_803 -0.040292647 -0.16481765 0.09942419 0.06840838 -0.1796141 -0.16854008 -0.003410668 0.16156292 0.32830185 -0.36125442 -0.023961041 0.118741184 -0.25082642 -0.12413601 -0.29587469 -0.054698482 -0.14394021 0.19229372 -0.21066156 0.02294104 0.06550074 -0.12473609 -0.13013107 0.13198078 0.06961675 0.17833315 0.04554989 -0.13792734 -0.072069734 0.22649747 -0.081016615 -0.532131
d_281 -0.043409724 -0.3152994 0.3105633 0.25319767 0.027115686 -0.065152906 -0.21332712 0.763852 0.3290743 -0.56186515 -0.3032993 -0.15693815 -0.47770154 -0.33941638 -0.47193998 0.30427083 0.2492599 0.15831922 0.2646532 0.295823 0.29392162 0.106306374 -0.13921091 0.4392491 -0.028642647 0.15725821 0.22622675 -0.038645264 -0.20984082 0.69599354 -0.10772175 -0.74370825
d_53 0.12119833 -0.16916662 0.24638769 0.27168533 -0.28481135 -0.12756084 -0.13017192 0.09156639 0.08862586 0.03743037 0.14463754 0.30527115 0.0049770344 0.004784603 -0.18709044 0.10645156 0.18886696 -0.089845486 -0.23306091 0.11259859 -0.14419395 0.05625487 -0.26177382 -0.11255793 -0.18638378 -0.08448136 0.17239247 -0.22773479 0.20906669 0.031518884 -0.22488333 -0.25326222
d_218 0.10915481 -0.08497807 0.23872039 0.32423496 -0.11128627 -0.12685321 -0.007998299 0.10093781 0.07055488 -0.11109923 0.0038455017 0.09858477 0.10110098 -0.108647816 -0.13752948 -0.038027093 0.09128215 0.117774 -0.21031272 0.029197838 -0.094086945 0.29292557 -0.24669306 0.057656895 -0.071254194 -0.084664285 0.10252432 -0.17429535 -0.022707578 0.038115162 -0.119100705 -0.3528859
d_69 0.039984457 -0.060189277 -0.006793564 0.19019571 -0.14623001 -0.044419095 -0.12165485 0.004537229 -0.038807698 -0.005166659 0.07419037 -0.0043542646 -0.07064181 -0.075529054 0.008149692 -0.0056724586 -0.104098864 0.010998011 -0.3894003 -0.010058211 -0.06991219 0.11867016 -0.21045355 -0.0735007 -0.029813843 -0.11184459 0.026014214 -0.13058195 0.03236229 0.01409703 -0.2399483 -0.1364222
d_467 0.25109103 -0.16776043 0.18743728 0.23066778 -0.2435935 -0.100425206 -0.3093688 0.24159433 0.032504924 -0.13648209 -0.09420855 0.03972523 0.0094734775 -0.23444024 -0.112793766 -0.046121605 0.13185193 0.093018994 -0.040258095 0.19036548 -0.15020211 0.12748124 -0.17241809 0.18429744 -0.31690213 -0.18446273 0.047621265 -0.25193048 -0.17266044 -0.053054076 -0.32819557 -0.2341325
d_853 0.13328983 -0.12356099 -0.04425352 0.05132724 -0.05617155 -0.0056627607 -0.058103237 0.04969773 0.20900764 -0.05151811 0.16766329 0.1547543 -0.11183555 0.027805263 -0.04804263 -0.08210974 0.0786273 -0.024394399 -0.11182625 -0.019541945 -0.081382945 0.046843752 -0.114222914 0.1118534 -0.11144507 -0.052101027 0.095608704 0.015631247 0.036249224 -0.019405533 -0.1195968 -0.19657683
d_54 -0.06835059 -0.1672181 0.27933985 0.20753716 -0.19743413 0.06903529 -0.0041151773 0.092183955 0.30623397 -0.4635559 0.01433809 0.042837307 -0.14777558 -0.28023958 -0.25483587 -0.037102688 -0.20516838 0.2531983 -0.07787506 0.177437 0.2964375 -0.09767938 -0.32413638 0.103423335 -0.08506109 0.18555994 0.3131777 -0.15417664 0.22955254 0.29199693 -0.1759489 -0.09139103
d_261 0.06307449 -0.12041873 0.18507946 0.24410921 -0.2807481 0.098658934 0.1290483 0.34197998 0.3257314 -0.67929745 0.094385244 -0.4731653 -0.3150434 -0.18607573 -0.25802022 -0.053763412 -0.12570621 0.14695217 -0.31411016 0.16937825 0.0027346835 -0.13695954 -0.27223736 0.13700931 -0.071798734 0.12468217 0.22601117 -0.07169245 0.28221437 0.29476967 -0.23598322 -0.15621415
d_789 0.084451795 -0.2291794 0.13156481 0.06519985 -0.04785757 -0.03185584 0.12500836 0.22953197 0.15698542 -0.15945795 -0.028965259 -0.12964363 -0.035001326 -0.035678986 -0.123567134 0.06611048 -0.008610532 0.09780649 -0.17367989 0.13068415 0.0045928964 0.09008899 -0.18821286 0.20888916 -0.007651527 0.1137963 0.05385283 -0.057826094 0.04591784 0.07293006 -0.07343028 -0.113137186
d_283 0.17911218 -0.025470091 0.39978182 0.14099315 -0.16280642 -0.17824474 0.25977388 0.5967987 -0.059406996 -0.24478364 0.24860726 -0.13752134 -0.18534127 -0.17134458 -0.4699828 -0.008821627 -0.17437223 0.17236656 0.16681945 0.36038452 0.32340547 -0.1275841 -0.15367068 0.025558086 -0.0022191757 0.12383081 0.28243792 -0.09542091 0.11796524 0.028176278 -0.008955245 -0.20863691
d_55 -0.09108211 -0.031633146 0.25268966 0.13999717 -0.07027519 -0.14920141 -0.12786055 -0.011116169 0.020200035 -0.2024883 0.19284387 0.094521485 0.017867265 -0.040860366 -0.047191545 -0.08822976 -0.15493305 -0.029817365 0.098438 0.012165434 -0.003990882 -0.007789045 -0.15244268 -0.2839747 -0.24689747 -0.019686133 0.11927269 -0.14910659 0.16727002 0.09276597 0.08600871 -0.16462936
d_96 -0.18317068 -0.035280723 0.23210469 0.124088526 -0.19430503 -0.06860318 0.097865015 -0.1146367 0.19511905 -0.25555292 0.15135874 0.26974916 -0.1517721 -0.041782238 -0.23422629 -0.09984555 -0.030678049 -0.060463257 -0.09961036 0.1739623 -0.02708007 0.10101725 -0.14691985 0.053787652 -0.11466955 0.038326975 0.03586357 -0.2728755 0.19559245 0.15170228 -0.09155664 -0.29078585
d_174 -0.14255954 -0.15940249 0.11719292 -0.029027218 -0.18318877 -0.20052007 0.024426268 -0.008459626 0.2705775 -0.28141516 0.14995126 0.4037678 -0.19221039 -0.09835071 -0.19608097 -0.12844637 -0.09550131 -0.08783889 -0.0012388581 0.28563073 0.05729234 0.02363699 -0.19291648 0.053341545 -0.09194104 -0.087668 0.0007575104 -0.1413092 0.22826375 0.13115256 0.0010551644 -0.3786875
d_463 -0.10061607 0.06436803 0.1899567 -0.23079394 -0.10357311 0.04899208 -0.11357832 0.0217296 0.35291615 -0.22301416 0.016128737 -0.10304322 -0.13082547 0.18128431 -0.10449744 -0.21493284 0.019402506 -0.19785964 0.1780737 0.2579841 -0.14377432 -0.023574704 0.13141249 -0.045531817 0.07333874 -0.017719965 0.0018768632 -0.016903475 0.3208788 0.18487212 0.024577131 0.039790638
m_101 0.036307227 -0.12453934 -0.11207264 0.018547107 0.24639416 0.04854414 -0.32052594 -0.19579965 0.019921744 -0.22931238 -0.038009074 -0.22627349 -0.4238076 0.34724012 -0.10973172 -0.25844234 -0.11813087 -0.39789787 0.77936846 0.5674913 -0.210294 0.12590072 0.49856865 0.24301513 0.2081665 0.13328084 0.32419112 0.011778126 0.73733634 0.13296062 0.307944 -0.024666397
d_296 -0.027076375 -0.13480528 -0.1522587 -0.09677311 0.0148918945 -0.014115611 -0.17975453 -0.037120976 0.074117266 -0.07582297 -0.09776518 -0.19620748 -0.14251131 0.16827638 -0.15079789 -0.18326917 -0.032012593 -0.1737302 0.24923724 0.22232431 0.034593925 0.15801483 0.27316964 0.1923308 0.09436769 0.086918645 0.18132207 -0.07961599 0.19215004 0.106927596 0.07161291 -0.04895563
d_56 0.10676854 -0.09856796 0.1933934 0.18164635 -0.027968101 -0.13769053 -0.1427795 0.34425434 0.24178836 -0.10595703 0.025670495 0.029846242 -0.11400446 -0.15879895 -0.23089357 0.11598092 -0.005366158 0.03574555 0.11890689 0.06398273 -0.015593322 -0.059376717 -0.16413605 0.22309572 -0.10295224 0.11834932 0.2143743 -0.03209364 0.098661564 0.13141008 0.030656185 -0.27117676
d_80 -0.060931534 -0.025543533 0.19907421 0.092457645 -0.02603215 -0.16257168 -0.14104918 0.32904437 0.31250578 -0.18763886 0.024242394 -0.06656094 -0.08305844 0.054625172 -0.29952922 -0.118902676 0.019172413 -0.13727728 0.23521401 0.043395035 -0.26108134 -0.20974834 0.019748067 0.04669325 0.18314488 0.086593986 0.007372355 0.064401545 0.07664387 -0.16007705 0.23705468 -0.34753132
d_448 0.10115105 -0.047196317 0.023310091 0.02614762 -0.05580567 -0.40143168 -0.13343364 0.3263371 0.16780972 -0.3227705 0.14376996 -0.21390419 -0.32351872 -0.23758528 -0.1922179 0.12793483 0.4395417 -0.11154028 0.56352997 0.046838075 -0.23115857 -0.05909943 -0.337647 0.110457055 0.015083515 0.16797659 0.10592395 0.19085602 0.15157329 -0.028498258 -0.16875869 -0.41769323
m_109 -0.037008367 0.04338772 0.15990454 0.35815674 -0.00028237526 -0.17396498 -0.07237138 0.26800776 0.18737729 -0.17660888 0.23655142 0.37130466 -0.17500792 0.04873965 -0.14869876 0.031556513 0.03887218 -0.030798592 0.2083634 -0.09697754 -0.19813377 0.047415383 -0.13632728 0.33786166 0.14157571 -0.018336175 0.16871606 -0.15114848 0.26502353 0.0013525542 0.22652756 -0.104492225
d_1004 -0.033562448 -0.0014397893 0.105545565 0.29101625 0.024931502 -0.06614249 -0.013056222 0.2152369 0.08594656 0.11766841 0.28730005 0.06342256 -0.17889392 0.12112526 -0.0032708123 -0.061419077 -0.009481508 0.12042957 -0.15775397 -0.15483914 -0.52014893 0.14928593 -0.2223827 0.39490524 0.32017514 -0.015337734 0.12260497 -0.24627967 0.08179409 -0.13032062 0.34568906 0.11618562
d_57 0.20244998 -0.05730216 -0.27784634 -0.09930447 0.025269011 -0.20084485 -0.006476585 0.078670084 0.04681672 -0.10386567 0.03356323 0.31537902 -0.09869383 0.07116038 0.04762956 0.10824717 -0.14605232 -0.049231477 -0.31368333 0.09491373 0.12609927 0.16679671 0.34185538 -0.24099144 0.11026624 -0.31231597 -0.07343191 -0.060628183 -0.14051142 0.035241436 -0.19575103 0.03187804
d_781 0.1377887 0.09467621 -0.16316679 -0.0070249494 0.02561486 0.018162128 -0.052875776 0.1946277 0.11436863 -0.17093118 0.043615714 0.065684095 -0.103554875 0.13539916 0.008830784 0.11294754 0.057582688 0.055735916 -0.4372691 0.08528772 0.0019180502 0.20660438 0.46483958 -0.33880147 0.047176585 -0.06713665 -0.039567307 -0.025325 0.047429714 -0.14539883 0.11036392 -0.017988421
