247 32
d_1 -0.017191257 0.011607553 0.0127670895 -0.029740132 -0.004076707 0.031141067 -0.010253742 -0.00071503315 0.012479389 -0.009402644 -0.017887015 0.029251594 0.024963219 0.01251345 0.027464299 0.04192638 -0.03298355 0.0056179026 -0.0256867 -0.0060082814 0.008960174 0.025360078 -0.040969454 0.018289326 0.041260682 0.012224951 -0.031641055 -0.0020889025 -0.039789703 0.020300288 -0.013379121 0.013106979
m_25 -0.008448721 0.076440714 0.030883107 -0.09889199 -0.10919974 0.11497224 -0.06853005 0.06220251 -0.071395636 -0.08382822 -0.03733963 0.10469484 -0.0414703 0.09213528 0.11323365 0.049804077 -0.018161358 0.10124685 -0.018609088 0.077568434 0.07225038 0.07593419 -0.11055285 0.075804345 -0.07728623 -0.09309534 -0.0074344715 0.08301993 -0.070021786 0.04214809 -0.0626557 0.06829475
d_109 -0.0136013385 0.0029947842 0.03287343 -0.023881635 0.01661119 0.031646457 -0.017000826 0.032821205 -0.022419991 -0.022265028 0.021242078 0.030049413 0.019902896 0.022705458 0.017886247 0.016508657 -0.0018209899 0.030762613 0.0035583694 0.026155796 0.0010124184 0.025318015 -0.016066851 0.009900527 -0.03555489 0.0045708045 0.012666297 -0.009526473 0.013876707 0.019769933 0.018024795 0.0061593275
m_9 0.038220793 0.05518897 0.09459311 -0.08798995 -0.051065065 0.060952105 -0.08936808 0.037432976 -0.07231152 -0.022330418 -0.0582123 0.061540343 0.054676607 0.08599555 0.07984173 0.098901644 -0.049996562 0.079077505 -0.07002189 0.06395369 0.06562164 0.048110906 -0.106452584 0.05811885 -0.0389682 -0.05559925 -0.052722853 0.043282256 -0.061829023 0.03371085 -0.094012015 0.030702865
d_27 -0.008984904 0.001088785 0.0022293106 -0.017909631 0.016876584 0.007374455 -0.023727525 0.0040651383 0.0056378795 -0.03936895 -0.017367719 -0.015413576 0.036715947 -0.0105994465 0.0033933409 0.031528383 -7.356331e-05 0.029249664 -0.021886446 0.015964024 -0.018438924 0.035318647 -0.030014357 0.027628947 -0.0070166513 -0.013259029 -0.0067311525 0.024527187 0.021164801 -0.0057890452 0.00043956004 0.0018518064
m_63 -0.022680681 0.05072348 0.008006878 -0.00926105 -0.04241993 0.032132443 -0.059351638 0.048002157 -0.02095709 0.0094873505 -0.011822879 0.015959341 0.05218364 0.045138955 0.04053716 0.0295889 -0.0022610775 0.037279032 -0.0024932805 0.03861692 0.010712318 0.027664157 -0.010046583 0.035149846 -0.009277792 -0.03351527 -0.010246728 0.01735251 -0.040243924 0.050896447 -0.029819585 0.060909633
d_2 0.02786832 0.033857137 0.009684363 -0.06062372 -0.03522461 0.028040392 -0.027804928 0.03557199 -0.03995943 -0.033868115 -0.012190567 0.018888362 0.036044106 0.013093142 0.015795387 0.04208534 -0.062103394 0.049822118 -0.04877568 0.046850767 0.031610478 0.06443747 -0.04279829 0.04351401 -0.045489922 -0.017489659 -0.03814654 0.050306927 -0.016376687 0.039626993 -0.020623188 0.008771239
m_34 -0.018743888 0.07705136 0.098699726 -0.043688472 -0.09199137 0.06785593 -0.0624567 0.021627996 -0.100845724 -0.03920104 -0.05187753 0.08865347 0.06217112 0.043257706 0.10615508 0.08324435 0.03330261 0.040329527 -0.09889909 0.063455574 -0.011459222 0.07652319 -0.08967997 0.07706358 -0.0053070486 -0.11785203 -0.07640748 0.10374504 -0.09443378 0.013938798 -0.05089925 0.03302324
d_75 -0.003688564 -0.003098067 0.028713817 -0.009113123 -0.0065369043 0.0031904671 -0.02865789 0.05035662 0.009031028 0.0032118685 -0.051996373 0.020529347 -0.007305597 0.034510568 0.044048764 0.046723593 -0.0307251 0.023986977 0.0057770316 0.04406693 0.012790047 0.02545027 -0.011417463 0.0082143415 -0.011895485 -0.041276768 0.013619913 0.001950141 -0.0059844432 0.02636541 0.0042249407 0.001946588
m_37 -0.019361313 0.024868883 0.036240827 -0.053145982 -0.030813847 0.006237321 -0.034101702 0.015725244 -0.023289278 0.004545816 -0.005380098 0.041265413 0.02979306 0.04069046 0.037160695 0.053618222 -0.027936367 0.038505927 -0.048723977 0.037488043 -0.004041422 0.047230095 -0.0395163 0.040107753 -0.028800536 -5.32642e-05 -0.01401954 0.03478169 -0.013365372 0.0040011657 -0.034623604 0.058987353
d_42 0.06836455 0.028277222 0.064994834 -0.040631145 -0.032130204 0.056108773 -0.06729075 0.031211602 -0.055324957 -0.013622637 -0.016477311 0.045737077 0.02127885 0.03876885 0.04017447 0.019813428 -0.071155995 0.035990715 -0.036519047 0.043502856 0.08000048 0.010326871 -0.050190423 0.028002365 -0.051652115 -0.038731445 -0.067143925 0.027728416 -0.033048723 0.04219438 -0.054303486 0.0278112
d_25 0.037394486 0.06907404 0.053356215 -0.08029472 -0.03926584 0.05941214 -0.02659193 0.06781938 -0.025909588 -0.016608717 -0.06957912 0.0393914 -0.0358786 0.035307806 0.09085015 0.07760027 -0.06332985 0.06785559 -0.034804642 0.05325106 0.05648625 0.024102025 -0.042717367 0.07782894 -0.012484476 -0.060555167 -0.016279165 0.05046153 -0.016935602 0.062288392 -0.03681179 0.061146017
d_3 -0.0069367196 -0.001142601 0.042723693 -0.020638099 0.008514846 0.010544463 -0.007749258 0.04038316 0.016960308 -0.004283232 -0.028290715 0.030845793 0.037261788 0.012034506 -0.0028558592 0.019749725 -0.038828447 0.026021466 -0.04566524 -0.0075955405 0.0053532445 0.027155856 -0.05850779 0.03530827 -0.02613623 -0.008860031 0.021479508 0.0133221205 0.03546224 0.0398163 0.007971867 0.031758465
m_41 -0.023290616 0.16868955 0.13460656 -0.18499495 -0.1383588 0.16718833 -0.20530453 0.16496088 -0.20096323 -0.14918284 -0.13814038 0.1288085 0.046547554 0.14486454 0.13002218 0.15872408 -0.09059331 0.12166684 -0.08831167 0.16210666 0.1256456 0.1616723 -0.22240493 0.1578765 0.001719276 -0.22876576 0.0020593675 0.08509268 -0.14211589 0.1356247 -0.040295985 0.16249065
d_153 0.010207921 0.05142688 0.030495944 -0.051508 0.015836956 0.067525886 -0.035426565 0.0065175947 -0.072729014 -0.039088823 -0.045899265 0.030078853 0.02351897 0.041181285 0.043332383 0.014290612 0.018428653 0.037979696 -0.040243622 0.07617551 0.040166784 0.04348731 -0.07464545 0.06749767 -0.006618605 -0.0007948736 0.0053355615 0.015392702 -0.039948743 0.037692115 -0.023427233 0.03393281
d_111 -0.026897008 0.051602047 0.038439058 -0.02801922 -0.042935956 0.038539253 -0.05060718 0.012838047 -0.033979874 -0.0010606931 -0.054246575 0.032719176 0.017868277 0.03969999 0.024064187 0.03429482 -0.03203934 0.0498569 -0.019220587 0.06562312 -0.0035830867 0.027847156 -0.06895918 0.016284699 -0.010726805 -0.05292669 -0.04039846 0.028996702 -0.011216041 0.046857223 -0.026797403 0.037511185
m_82 0.030785458 0.028911881 0.019507723 -0.031788494 -0.0120158475 0.02481452 -0.06471432 0.04427653 -0.013564978 -0.013931462 -0.030974748 0.03026208 -0.0014045737 0.014921152 0.037826844 0.018897215 -0.02682515 0.022422094 -0.02467357 0.0132224765 0.01425994 0.02261421 -0.046162624 0.022293054 -0.014094389 -0.055452764 -0.030119367 0.036200356 -0.005021157 0.026069336 0.02432938 0.030977858
d_97 -0.0081170825 0.039490957 -0.012455796 0.0043657757 -0.0014375369 0.046814002 -0.038320173 0.040342 -0.028793387 0.0031610127 0.004563064 0.02579017 -0.04033985 0.019598216 0.025092348 0.020295192 -0.00043696538 0.034101315 -0.012847774 -0.01336859 -0.0148096625 0.03588918 -0.025686532 0.028761806 0.00829879 -0.03445596 0.034789678 0.01938281 -0.040527306 0.014660522 -0.018303506 0.028665021
d_4 0.025872314 0.059224494 -0.013302172 -0.017635224 -0.018539205 0.055795975 -0.044734567 0.011695707 -0.069762856 -0.03276913 -0.049289398 0.078120604 -0.019463964 0.04695528 0.047977775 0.00011166418 0.0068377135 0.015525309 -0.028509973 0.0646819 0.028072923 0.058144074 -0.033790216 0.026644725 -0.060945086 -0.055253547 0.005815138 0.041952673 -0.037009157 0.01728375 -0.03270844 0.0076718302
d_92 -0.006312953 0.04934011 0.050122 -0.0146599095 -0.028622374 0.024809195 -0.05966856 0.044516914 -0.010685565 -0.045779902 -0.021856345 0.006495976 0.011443177 0.0054600537 0.006674746 0.0024049594 0.021375485 0.007992441 -0.019329593 0.01473623 0.037104256 0.032752156 -0.048954803 0.012662514 -0.048037764 -0.056453932 -0.026237335 0.021792985 -0.00025275815 0.0214831 0.018441834 -0.0037204619
m_94 0.001380119 0.06693176 0.0791999 -0.03935122 -0.050098434 0.08461117 -0.09954143 0.08104787 -0.08096325 -0.0721048 -0.07878515 0.08618783 -0.021937583 0.07855637 0.0743713 0.06473489 -0.071258955 0.047962278 -0.062295634 0.054185256 0.050163485 0.05899689 -0.03972131 0.097517535 -0.04850744 -0.06731116 -0.043296464 0.04630656 -0.061487537 0.04286935 -0.056078956 0.034189194
d_11 -0.0015115247 0.049393654 0.025537549 -0.04298765 -0.046138886 0.026367828 -0.032087445 0.08220134 -0.058692 -0.020072157 -0.056129746 0.06938011 0.03468587 0.07078352 0.079621345 0.04470117 -0.054694504 0.069193065 -0.03343243 0.045491554 0.030724104 0.032068364 -0.032006573 0.062138893 -0.0070521617 -0.06398757 -0.05897337 0.066453524 -0.031087736 0.08695562 -0.018027928 0.069086246
m_88 -0.027962212 0.047139872 0.04640046 -0.0792791 -0.084837146 0.073373295 -0.05885339 0.07574419 -0.09509276 -0.060538657 -0.061804757 0.054493763 -0.040845644 0.057681415 0.10460985 0.058825295 -0.053795908 0.07512463 -0.1011542 0.0886605 0.0706554 0.07545401 -0.08319318 0.08131727 0.014631649 -0.09149425 -0.090054564 0.04606941 -0.075677216 0.038343787 0.0021352 0.08034247
d_119 -0.039400198 0.046868414 0.00053785695 0.0014635585 -0.0035914965 0.0036730818 -0.04086438 -0.023603717 -0.042205945 0.047027733 -0.030435309 0.04305035 0.011852948 0.026689488 0.03921078 0.008684948 -0.0143815 0.013858167 -0.0005411776 0.022425234 -0.005655972 0.011107389 0.007858016 0.04360491 0.01771231 -0.026369918 0.010214873 -9.888038e-05 -0.0390776 0.029855229 0.009250946 -0.009662794
d_5 0.03290198 0.005583748 0.00025639217 -0.04039576 -0.018595135 -0.032752864 0.0072078267 -0.009670033 -0.004180692 -0.018834613 0.015065046 0.017038658 0.03787466 0.029649891 -0.020196892 0.034385215 -0.028269175 0.0038615782 -0.025875129 -0.016375173 0.019218126 -0.009682516 -0.008894606 0.039928727 -0.0144260265 -0.007839016 -0.015879638 -0.0062610507 -0.009057808 -0.032496694 0.015868599 0.037210826
m_95 -0.0373485 0.033996522 0.054915093 -0.0435589 -0.036707357 0.040189687 -0.047793366 0.028747644 -0.056589928 -0.049293518 -0.018042533 0.044708043 -0.029775992 0.058365136 0.051188048 0.04953299 -0.08006541 0.027382584 -0.045847096 0.072142385 0.05957051 0.034254372 -0.048308615 0.05581494 -0.0299104 -0.017006796 -0.022692919 0.05605175 0.005346011 -0.0042796116 -0.0037730902 0.07620446
d_12 -0.016017165 0.064850025 0.040200893 -0.06988693 -0.08162086 0.026160045 -0.060902666 0.020072747 -0.0061837966 -0.03669763 -0.021432815 0.0051944605 -0.045205854 0.031237468 0.021272881 0.0027631726 -0.048012942 -0.0014614468 -0.05271693 0.032453906 0.008141089 -0.0058746994 -0.031799275 0.051739924 -0.009221649 -0.05279457 -0.00523222 0.06141064 0.05692972 0.0135676665 0.03624708 0.05286867
m_75 0.0034743007 0.061327636 -0.006438095 -0.014646634 -0.012131497 0.03448378 -0.0065469937 -0.004082525 -0.013222585 -0.00446528 -0.022568377 0.023088193 -0.017520033 0.007066215 -0.00882487 0.03439236 -0.019800806 0.0058731134 -0.0015975437 0.030038621 -0.0048500337 0.0032482198 -0.031826165 0.05844906 0.0031616096 -0.0028748233 -0.048884653 0.06397751 -0.03960922 0.037357852 -0.018090563 0.03334512
d_6 0.019398155 0.054306056 0.084585935 -0.06532436 -0.08575905 0.022578757 -0.06825948 0.056630667 -0.07167559 -0.07147786 -0.034565557 0.022401242 0.03549545 0.0708973 0.086217724 0.08692225 -0.028660664 0.05887368 -0.03544207 0.06437839 0.07071853 0.04940235 -0.037466776 0.0506197 -0.042135436 -0.07282413 -0.062007047 0.031255487 -0.042568527 0.017365858 -0.05316145 0.02932223
m_18 0.01843443 0.041253984 0.046992607 -0.019669317 -0.09388971 0.04514266 -0.07919301 0.010372391 -0.08947871 -0.03293427 -0.033424478 0.0021613822 0.012693138 0.020211015 0.03781156 0.03604911 -0.054117307 0.03875423 -0.045584537 0.05763426 0.023717597 0.039738968 -0.07673732 0.06694686 -0.012064559 -0.054238647 -0.04582576 0.07867237 -0.056150343 -0.016394807 -0.03760423 0.05879
d_76 -0.05382968 0.05782011 0.033032052 -0.05959924 -0.010333622 0.022952337 -0.032099508 0.014585149 -0.057100773 0.016581716 -0.0039430405 0.0147030745 0.036332496 0.058638774 0.03322918 0.013315525 -0.025961373 0.0014713169 -0.055599015 0.024932 0.030849503 0.08213716 -0.04408627 0.042077567 0.019826248 -0.0011576386 0.021032916 0.054409545 -0.004587856 0.0038884426 -0.0037660445 0.048836116
m_90 -0.014984166 0.058848478 0.014252486 -0.045315765 -0.025083497 0.04237676 -0.056097385 0.07219365 -0.0045173275 0.020948308 -0.030642051 0.07127132 0.02213777 0.058912944 0.05360778 0.06594518 0.033366516 0.05165985 -0.012597559 0.031849504 -0.016402584 0.034255486 -0.06935594 0.00036607543 0.023623675 -0.043759156 -0.015180992 0.06463367 0.016778886 0.0063023833 -0.03134193 0.025372
d_45 -0.020443656 0.07466121 0.046836857 -0.05291531 -0.060037166 0.06550595 -0.07606165 0.07166482 -0.08018789 -0.03957743 0.010304522 0.0831452 -0.006424038 0.047926642 0.021224743 0.08220878 -0.0148765445 0.054029297 -0.014206531 0.012923108 0.051418357 0.063546434 -0.03475683 0.032199416 0.023295173 -0.037585624 -0.064292625 0.07379211 -0.063438736 0.032088667 -0.020884044 0.056440163
m_68 -0.003400694 0.05228807 0.04318801 -0.04501001 -0.037414182 0.048138723 -0.04718566 0.04389576 -0.009629628 -0.018302055 -0.033711925 0.009030336 -0.023839323 0.043885883 0.01490565 0.02314268 -0.031731043 0.048839986 -0.030839711 0.03615519 0.0356612 0.014415461 -0.060383797 0.035264663 -0.052718442 -0.018268246 -0.017485112 0.055610344 -0.02385576 0.018309493 0.008280167 0.059071563
d_7 0.008083001 0.0026929625 0.03772202 -0.022163033 0.0058094766 0.020941172 -0.029900923 0.04916636 -0.028222218 -0.04117714 -0.010640038 0.022479687 0.009087017 0.025812538 -0.01599611 0.02014892 -0.0060994653 0.050500765 0.007182767 0.017611703 0.0059451745 -0.00021476345 -0.034470554 0.046045735 -0.031820115 -0.047748186 -0.028585818 -0.019171635 -0.023568261 0.019795697 -0.009874413 0.04859949
m_22 -0.0061253877 0.060213078 0.06495061 -0.08827791 -0.07911247 0.04351563 -0.064827845 0.020368524 -0.10067329 -0.08944327 -0.07434011 0.09088176 -0.023046019 0.09596981 0.025382306 0.093282804 -0.07151203 0.037861027 -0.045661967 0.06985995 0.07545462 0.102911256 -0.09161358 0.061720096 -0.04046762 -0.01723914 -0.054505337 0.06467649 -0.04349283 0.02846369 -0.02514439 0.10371129
d_64 0.02327371 -0.015074965 0.009962915 -0.008739244 -0.031173833 -0.005981829 -0.007067072 0.037036706 -0.02206083 0.013996887 0.004900441 0.003949032 0.031257633 0.020363437 0.004911511 0.024060078 -0.036002286 -0.013090553 0.008957454 -0.0028584688 0.032100026 0.0093643665 0.0068242257 0.005761871 -0.0348834 -0.010603821 -0.037222806 0.032587428 -0.00847049 -0.022788884 -0.018645044 0.025600854
d_134 -0.021635586 0.011687094 -0.0021543768 -0.008022975 -0.015088469 0.04692045 -0.031065831 0.02364006 -0.04741732 -0.004756132 -0.043366283 0.016601074 0.010176846 -0.0021176422 0.037252054 0.008450569 -0.041828986 0.038933627 -0.016484138 0.028574452 0.034485277 0.0030074678 -0.0341494 0.035882212 -0.030446276 -0.023441158 -0.01754926 -0.009444922 -0.027079636 0.033391967 -0.005677973 0.013126155
d_66 0.020232724 0.060302842 0.011675749 -0.0027515828 -0.042351615 0.023885252 -0.028868921 0.0029133372 -0.029526431 0.00010744622 -0.008416897 0.041390713 -0.026077732 0.030394444 0.033059463 -0.005775946 -0.04955911 0.027422836 -0.04004 -0.00029680645 0.0020526866 0.02974857 -0.017921288 0.027897753 0.005169301 -0.03769987 -0.0028085508 0.05206017 -0.028482212 0.044243813 -0.0058636763 0.030301053
d_8 0.035470724 0.014592797 0.019791644 -0.024387581 -0.058176253 0.0053729718 0.0019267667 0.0072767595 -0.047209404 -0.012066757 -0.04328232 -0.007692056 -0.021313313 0.01785138 0.032803662 0.019106684 -0.012397804 0.03683625 0.016864955 0.011979727 0.0024313256 0.024180865 -0.008423373 0.052355878 -0.0029309294 -0.014277859 0.00048380625 0.010659527 -0.011283474 0.018118791 -0.022061115 0.028650202
m_32 -0.037299067 0.024793558 0.009080445 -0.023049584 -0.0257563 0.04419598 -0.020729978 0.057792883 -0.06608853 -0.06609708 -0.04357322 0.031409953 -0.007639576 0.01339341 0.04349889 0.030267222 -0.020267855 0.032239657 -0.044528354 0.0057687773 0.011266537 0.027868206 -0.015240313 0.06055693 0.016563445 -0.043216467 -0.047152963 0.05341655 -0.025330313 -0.008811129 0.0070617204 0.041560084
d_145 0.013561097 0.02233061 0.037904214 -0.011357565 -0.051101614 0.03848481 -0.026346644 0.0047747167 -0.055534273 0.009279657 -0.0009891414 0.025309054 0.018697675 0.025123652 0.033531025 0.0395161 -0.034179255 0.028609822 -0.024172949 0.025119986 0.037615165 0.05362169 -0.03186639 -0.0045958054 0.01666539 0.0061435094 -0.057385612 0.010722339 -0.05900549 0.014485974 0.0042209113 0.010665225
m_15 0.030666439 0.09996304 0.09323111 -0.061302744 -0.0964949 0.10056714 -0.116292715 0.023628615 -0.11060753 -0.041724116 -0.047592513 0.06945228 -0.016833654 0.07623038 0.08604492 0.07340552 -0.07264288 0.05052516 -0.025493845 0.089014724 0.08034585 0.0813493 -0.11835834 0.102122724 0.03497715 -0.09618837 -0.09611145 0.107262775 -0.075261675 0.06861282 -0.040618062 0.10211307
d_71 -0.008023899 0.018196533 0.058817796 -0.05485821 -0.04309512 0.0087357685 -0.027120989 -0.0057713576 -0.030600078 -0.06321787 -0.07537311 0.02868537 -0.0153780775 0.047224082 0.0546481 0.009130375 -0.0543633 0.033822708 -0.02229985 0.06033756 0.023338411 0.012604425 -0.022305746 0.041390672 0.0059998515 -0.046143044 -0.022188615 0.033980127 -0.011814719 -0.0025476846 -0.019629458 0.049581155
m_14 -0.007421664 0.04146048 0.064934626 -0.03578423 -0.06373188 0.012892472 -0.024646439 0.027624808 -0.046416823 -0.03873882 -0.06497174 0.026854418 -0.010815296 0.038575944 0.04643454 0.034633808 -0.034470662 0.05622054 -0.02925286 0.06683577 0.04033248 0.084611796 -0.028586274 0.017403472 -0.01944713 -0.033737864 -0.027796065 0.06080852 -0.059383 0.061005995 0.010659246 0.056252345
d_9 -0.03347466 0.015458282 0.044617347 -0.031265974 -0.04951406 0.041381538 0.0066991616 0.031213237 -0.007662328 -0.047257766 -0.04076041 0.028358659 0.0043697967 0.040027525 0.036159884 0.0012602829 0.007966629 -0.0243599 -0.03249294 0.024115287 0.0024142186 0.03314782 -0.022146586 0.039030943 -0.027230363 0.021181187 -0.015510105 0.030018717 -0.009483581 0.0034616566 -0.015488798 0.0332018
d_54 0.0018736399 -0.017216986 0.029490188 -0.01803182 0.0023949803 0.0086945705 -0.032101076 -0.006079047 0.011016201 -0.047214016 0.012098743 0.043916672 0.0038681715 0.054731622 0.007895553 -0.013227804 -0.008770785 -0.0048432276 -0.03256305 0.029248785 0.0093259 0.0017372747 -0.048144497 0.0039383858 0.0043278034 -0.020001577 -0.03834878 0.024095986 -0.008689679 -0.025390007 0.022349343 0.0024945056
m_53 -0.01152678 0.048588917 0.04799183 -0.084329784 -0.02477555 0.10283066 -0.04875578 0.0564844 -0.0855701 -0.060691755 -0.07473447 0.048469394 -0.0010435269 0.052109204 0.0770919 0.07075593 -0.029791985 0.07216511 -0.08294883 0.06338572 0.02500086 0.058627892 -0.08243242 0.08603487 0.043462716 -0.077759065 -0.04446742 0.054628372 -0.092295565 0.07445149 -0.0066230316 0.10392906
d_164 0.009453437 0.022185752 -0.021770883 -0.023072079 -0.044839874 0.0060423072 -0.0048460606 -0.010169648 -0.04095435 -0.02596165 0.0021918248 0.013824312 0.010779806 0.019998334 -0.014167822 0.0013207551 0.0010801214 0.034601685 -0.031037845 0.005989254 0.011297574 0.014847371 0.013145834 -0.016151229 -0.0003231354 -0.0030824845 0.022201415 -0.0032456252 0.006745775 -0.003413849 -0.029067352 -0.009747367
d_24 0.013701086 0.036423992 0.051836606 -0.026437841 -0.0051642633 0.06205017 -0.01829938 0.017507628 -0.06081875 -0.02410917 0.0033275252 0.049056202 0.04088116 0.04521804 0.028026603 0.039782256 -0.056643322 0.0020132386 -0.040024985 0.054380674 -0.022109332 0.012917744 -0.035875373 0.03514558 0.024843583 -0.06136809 0.0014359998 0.0061048185 0.013602533 0.0063146176 -0.013720168 0.014868191
d_10 -0.00013170065 -0.0071542994 0.014685208 -0.019918395 -0.056226525 0.0053949724 -0.0024635433 0.014331537 -0.048615567 -0.010152325 -0.048045423 0.050316144 0.033424087 0.009922853 -0.015412812 -0.0011467827 -0.026924917 0.019969333 -0.04731506 0.012704477 0.03586725 0.014022298 -0.025268756 0.007280522 0.013906196 -0.045257296 -0.02957435 0.02189413 -0.0063962815 0.05613133 -0.0042945924 0.027951552
d_174 0.0582783 0.042817608 0.030258114 -0.016442733 -0.06861403 0.057325274 -0.061378293 0.0036085458 -0.059608035 -0.03185093 -0.034254 0.051177673 -0.003095104 0.047713522 0.0729939 0.015417168 -0.020915763 0.04189392 -0.06163731 0.05116635 0.009392682 0.045777958 -0.05880444 0.04993213 -0.013644218 -0.04536886 -0.046433464 0.029643312 -0.042601738 0.03211494 -0.015206624 0.030188024
m_47 0.041799042 0.016237631 0.05251566 -0.008907834 -0.00976501 0.030054959 -0.03465179 -0.02960129 -0.04672403 -0.019982047 -0.032022174 0.038798008 0.05186684 0.03958829 0.02569237 0.02571224 -0.044099998 -0.009076672 -0.011338074 0.04283861 0.057182986 0.058606822 -0.03718209 0.0073777703 0.03494675 -0.03021498 -0.027416565 0.014351675 -0.005661973 0.03814795 -0.0036757365 0.038051985
m_11 -0.03899929 0.10419421 0.07732148 -0.04170761 -0.08549197 0.04796724 -0.032278057 0.06368229 -0.0902307 -0.066307224 -0.04552126 0.092831396 0.058268752 0.04911664 0.03957378 0.052239448 -0.042646587 0.05206579 -0.054506365 0.020639189 0.0366042 0.104745105 -0.06523683 0.09270369 -0.03119541 -0.067028485 -0.08782497 0.08659367 -0.058197077 0.08794387 -0.012104727 0.058309287
d_130 -0.0019879541 0.039095864 0.056028496 -0.024835736 -0.012230449 0.026364855 -0.01623983 0.01508783 -0.017579999 -0.048820127 -0.0028954837 0.005759964 0.012845203 0.017097369 0.04354153 -0.0044565205 0.017139267 0.02514884 0.0068009715 0.0036494522 0.029846061 0.030524123 -0.036038034 -0.001087476 -0.022726854 -0.048580304 -0.016903933 0.021585021 0.012585789 0.026056316 -0.010881757 -0.001205598
d_136 0.0067219264 0.03472867 -0.012102975 -0.066015154 -0.04855946 0.091519415 -0.05287961 0.04571795 -0.048998524 -0.016038876 0.0016922886 0.07201824 0.053834297 0.0350676 0.020402992 0.022314312 -0.05318963 0.050431468 -0.07755301 0.075345695 0.024029505 0.046046853 -0.050154977 0.012762355 -0.0180706 -0.016708186 -0.054786142 0.07329451 -0.053965047 0.068556696 0.033559956 -0.012250369
m_1 -0.0175764 0.027744625 0.018429909 -0.043179877 -0.06408493 0.016909592 -0.021739325 0.016288422 -0.047586076 -0.019787919 -0.02923867 0.03404521 -0.029955594 0.007266657 0.00507737 0.0130056795 -0.024099559 0.04028389 -0.047562625 0.023924813 0.037455194 0.038607303 -0.058988683 0.027732877 0.0059690694 -0.018725917 -0.034085687 -0.0064074644 0.0041850694 0.035998512 0.020515142 -0.0039914683
d_95 0.010627413 0.02090069 -0.0016818675 -0.018052317 -0.030250702 0.03459716 -0.019666392 0.0011736094 0.006156013 -0.04333994 -0.014266982 0.03155094 0.01678272 0.021455357 0.043312162 0.042457465 -0.004497646 -0.01060183 -0.008560116 -0.000538073 -0.02533726 -0.0026149992 0.0017974596 -0.0016991198 -0.025630558 0.024140324 -0.027991833 -0.013182621 0.0050941873 -0.0037239757 0.012789862 0.0102749
m_6 0.0030530347 0.059125405 0.07012378 -0.035326783 -0.0663041 0.09360828 -0.052405372 0.035540007 -0.06578713 -0.07604691 -0.05258311 0.0574223 -0.03670501 0.022043541 0.053316932 0.049576048 -0.045805063 0.054422576 -0.049384043 0.036158547 0.07850048 0.056087106 -0.07320798 0.06696648 -0.013862094 -0.040915996 -0.033340428 0.091038875 -0.05858446 0.048966598 -0.0023146444 0.036023643
d_13 0.012939312 0.031672817 0.025250228 -0.05679811 -0.028073464 0.044089656 -0.006883598 0.00067159766 -0.025220627 0.00710465 -0.04546981 0.019650986 0.061989293 0.02503962 0.009055693 0.025737073 -0.004434282 0.014908977 -0.03851768 0.0073107826 0.02693145 0.009578183 -0.055147152 0.011109712 0.031362213 -0.014433234 -0.045514755 0.00072780065 -0.0272008 0.011401942 -0.00440475 0.00359812
d_74 -0.016513051 0.013964862 0.045986712 -0.0531158 -0.0259524 0.026325468 -0.023756921 0.04540578 -0.019203367 -0.034142986 -0.04199041 0.041660983 0.00117455 0.029112672 0.009755326 0.032483142 -0.060059384 0.027544402 -0.060841583 0.014807488 0.019730698 0.0019471468 -0.050724953 0.0578271 0.021024337 -0.014576169 0.0018029888 0.013553756 -0.0021533845 0.045611314 -0.017430102 0.0035679028
d_36 -0.0053828433 -0.007477632 0.0097764805 0.013708388 -0.0035271496 0.017776888 0.010496879 0.021620154 0.019688388 0.02463338 -0.023017451 -0.00034435373 0.00987541 -0.025554467 -0.008608796 0.013913948 0.03487155 -0.005657154 -0.009162426 -0.012824506 0.03587778 0.010566163 -0.017856043 -0.025376344 -0.033924777 0.021472048 0.002933579 -0.0036465498 0.019932846 -0.017884307 0.020151779 -0.014069773
d_14 -0.044131815 0.04240454 0.013280584 -0.049507804 -0.029414993 0.0052571567 -0.056380652 0.033210326 -0.0019472898 -0.0024586734 0.002326883 0.03118802 0.047723275 0.047863863 0.014560129 0.027079629 -0.02932459 0.045430567 -0.05379076 0.046922166 0.0060874997 0.03962101 -0.021957967 0.036445305 -0.02951992 -0.027983807 -0.04897445 0.046073914 -0.0054190643 -0.019944344 -0.053286396 0.027529838
m_56 -0.021099146 0.041492358 0.021847052 -0.032045566 0.0050911577 0.03574357 -0.010873752 0.039214533 -0.041700438 -0.020672046 0.01644451 0.048705116 0.02834383 0.009170204 0.002489515 0.0069904537 0.0104476195 0.037222542 -0.022591569 -0.0050551463 0.014226548 0.010152949 -0.036285635 0.030213155 -0.025344849 0.012411377 -0.011453522 0.048296314 -0.0033132741 0.04106165 -0.034962058 0.057212714
m_65 0.023140015 0.08869586 0.049422905 -0.05653338 -0.08257203 0.10005858 -0.10312129 0.04433466 -0.09718922 -0.04009807 -0.0742428 0.10343857 0.046445474 0.032516126 0.08689569 0.014602728 -0.06957954 0.06481867 -0.075959444 0.058532257 0.080872245 0.030763406 -0.04929542 0.07845255 -0.040922314 -0.060420975 -0.044742253 0.059370562 -0.035451397 0.03223257 -0.056566775 0.047301166
d_100 -0.0014910903 0.015034008 0.003658215 -0.03338647 -0.02566576 0.0113984365 -0.012318307 -0.0029687202 -0.014107744 -0.0052156607 -0.0040235897 -0.00095987646 0.035485383 -0.0018675718 0.0098858755 0.012803813 0.021404127 -0.0022079223 0.02703167 0.02610246 0.0018265741 -0.007188644 -0.017548155 0.010888068 0.012084954 -0.0412155 0.012821555 0.022336964 -0.02961517 -0.0023871972 0.012700244 0.025858276
m_42 -0.022270355 0.005517274 0.036782533 -0.0066478495 -0.022042455 0.035823874 -0.046019092 0.03935232 -0.03644332 -0.0066285627 0.014158271 -0.014989369 0.04615294 0.012771111 0.012143118 -0.018850356 -0.02919976 0.059328806 -0.009082796 0.027695104 0.05179686 0.032787547 -0.03283215 0.042954776 -0.042304773 -0.04523288 -0.0071811373 0.043124888 -0.012887019 -0.0021023294 0.00389644 0.0031314932
d_140 -0.0362487 0.0038216338 0.031678148 -0.0011778525 -0.030618386 0.014364066 -0.025087781 0.040159456 -0.02316187 -0.03653419 -0.0027967668 0.030947221 -0.008654544 0.008861788 0.0045094015 0.049989153 0.024925789 0.016501067 -0.027460149 -0.004291942 0.044127513 -0.0044534234 -0.007372853 0.042869534 -0.00565622 0.006399677 -0.026757406 0.057561725 -0.0070087286 0.046037324 -0.030581826 0.040433533
d_15 -8.8397996e-05 0.0496188 0.006347952 -0.0598102 -0.06457291 0.054637484 -0.05463297 0.03988934 -0.051017426 -0.05160084 -0.075660236 0.06508043 -0.0533378 0.036481008 0.03986748 0.0097972825 -0.048489347 0.04211368 -0.069383144 0.07985941 0.027291652 0.07828373 -0.078125834 0.083292715 0.006133044 -0.043857936 -0.05386396 0.045461237 -0.025621202 0.0057472913 -0.03423474 0.05205934
d_68 0.018249672 0.017308261 0.01914741 0.0018617059 -0.004464868 0.03526304 0.0011153594 0.007730218 -0.030729357 0.009803969 -0.03880122 0.038916077 -0.033575222 0.02037487 0.04525498 0.010244044 0.0015803501 0.027020924 -0.0008633826 0.030157737 0.003778038 0.009052899 -0.030692123 0.034884863 0.024342362 0.011391876 -0.01329188 0.0058556013 -0.023664081 0.02319105 -0.008523126 0.03824923
m_70 -0.0047902125 0.04128557 0.051570196 -0.027840314 -0.03328681 0.025502168 -0.011106805 0.03151414 -0.0060713287 -0.026834533 -0.038971134 0.0107279355 -0.0006812997 -0.010990372 0.034880575 0.02938665 -0.04422684 0.038809173 -0.039651353 0.025560703 -0.01226439 0.04711272 -0.03878303 0.0016867756 -0.004047383 -0.049977645 -0.012893189 0.018321265 -0.04568062 0.03397596 -0.022765456 0.008308566
d_16 -0.019036163 0.038582373 0.044659525 -0.021843381 -0.039134555 0.021955522 -0.060039137 0.0029859594 -0.040359937 -0.009476339 -0.058068275 0.056113433 -0.0030422197 0.03711148 0.03301552 0.032161545 -0.027367193 0.008263979 -0.039148826 0.021206079 0.034832563 0.039116044 -0.06028679 0.04284993 0.010952072 -0.032655112 0.0027687768 0.056661993 -0.036814593 0.02534394 -0.031252507 0.039892837
m_93 0.014203903 0.045082055 -0.002795719 0.011462977 -0.03420955 0.03210082 -0.019649696 0.036603622 -0.022602893 -0.0018338584 -0.051275976 0.0037041362 -0.019846477 0.0502512 0.006528036 0.009339113 0.0026731915 0.044679333 -0.052141316 0.04071113 0.04026307 -0.0027916003 -0.04500632 -0.0011057216 -0.025992323 -0.010985197 -0.0043832404 0.041376475 -0.038429134 0.0035894504 0.012608474 0.02881732
d_17 0.017704729 0.017711643 0.0063985027 -0.033410206 -0.050622188 0.025415752 -0.022688039 0.02400732 -0.0073413067 -0.059389733 0.0018106708 0.008881787 -0.011090137 0.0027238927 0.062671974 0.010963703 0.01184701 0.0416092 -0.003177784 0.04313287 -0.0077397176 0.051038552 -0.011112585 0.025931735 -0.036267992 -0.022018112 -0.044934236 0.030386077 0.003160079 0.0357215 -0.025278904 0.030861875
d_93 -0.01955476 0.07124029 0.003943692 -0.061197717 -0.06254918 0.06884446 -0.047749564 0.059679754 -0.0633054 -0.029451346 0.012875931 0.040279746 0.037343767 0.020253882 0.040446095 0.060506962 -0.0040509626 0.026892172 -0.045265432 0.06514035 0.011557878 0.030920232 -0.06711236 0.027012747 0.027061772 -0.06335578 -0.03307367 0.039742738 -0.057611067 0.020787051 -0.014572402 0.016914349
d_166 0.0028411201 0.045467794 0.010275006 -0.0662975 -0.064055294 0.022207994 -0.032321677 0.014211483 -0.027803695 -0.061829876 -0.051595457 0.019125823 -0.06438578 0.06386331 0.0470478 0.06135098 -0.035603512 0.03524141 -0.035327762 0.026941493 0.06662095 0.033460505 -0.074846156 0.048612017 -0.03050928 -0.049500875 -0.04277607 0.0309932 -0.041591853 0.053306602 0.0022314852 0.012196632
m_61 0.00881109 0.020995243 0.06900245 -0.017577978 -0.01828342 0.011070359 -0.006553069 0.014519898 -0.037531216 -0.009007294 0.004651407 0.06525687 0.016918182 0.008137772 0.05941493 0.051483847 -0.052545585 0.039918557 -0.036687985 0.035916544 0.010952539 0.068828106 -0.017827582 0.036368623 -0.033906095 -0.03485041 -0.012619438 0.027429732 0.0074769077 0.045381106 0.01898676 0.0640494
m_92 -0.0118664 -0.0049231523 -0.0053661894 -0.029419456 0.0075309793 0.0038977354 -0.005531231 0.035844717 -0.0076810964 -0.004566822 -0.032799512 0.039761648 0.009998835 -0.012562321 0.019255813 0.011732997 0.004247832 0.041937504 -0.007438576 0.038908917 -0.013604291 -0.008771318 0.00096646976 0.016638236 -0.004840597 -0.0071577183 0.011139041 0.0020738747 0.006748053 -0.0057006343 -0.019434435 0.03374428
d_31 0.0012634974 0.019434623 0.00050920853 0.005559302 -0.009123198 0.0036973548 0.015185252 -0.0064340946 -0.039457742 -0.00046331482 0.0016921554 0.023168406 -0.0065915748 0.008436777 0.03890179 0.0038696453 -0.030132921 -0.011568598 0.0052639856 -0.013753062 -0.0025600716 0.04160095 0.0032665823 0.036580317 -0.00017806096 0.0057721566 -0.033575065 0.010909524 0.010571312 -0.0024523917 -0.030250799 -0.0074197063
d_18 0.046690106 0.029020267 0.004371841 0.0039729485 -0.04791455 0.024507323 -0.03728649 0.022082765 -0.050171986 -0.032567788 -0.05361724 0.044379845 0.030892164 0.042393323 0.02692096 0.023155736 -0.042816415 -0.034336045 -0.054421883 0.0296105 0.0013286788 -0.0043670284 -0.06756856 0.029085781 0.009646038 -0.011231518 -0.033838358 0.012063988 -0.011204237 0.005515558 0.024049787 0.03400047
m_57 0.012084277 0.034881793 0.042088903 -0.02849903 -0.019906605 0.039670974 -0.034504034 0.04431777 -0.053858828 -0.048235137 -0.03453573 0.008116402 -0.02241894 -0.0030851243 0.046039328 0.015641611 -0.04943133 0.02492027 -0.04914295 0.026000047 0.018784009 0.028124072 -0.020239446 0.044249542 0.027797228 0.013526456 -0.050939426 0.062023677 -0.031692516 0.035612572 -0.014673046 0.017406285
d_34 -0.008859215 0.014404223 0.012995748 -0.03927474 -0.029157393 0.052181587 -0.05989252 0.056597922 -0.050321613 -0.03762703 -0.015669845 0.06983887 0.030336171 0.02325835 0.016721211 0.017007941 -0.04899826 0.008160524 -0.009982476 0.017367449 0.007104244 0.06560776 -0.025150852 0.028512381 0.021845343 -0.060919575 -0.04308719 0.038670897 -0.022408608 0.049366906 -0.031174475 0.013618227
d_19 -0.012075239 -0.015424001 0.007100684 -0.037518743 0.024138916 0.015089046 0.014952648 -0.00034087803 0.00236359 0.009967085 -0.005567082 0.012027657 0.015042301 0.011422757 0.040484868 0.034187596 -0.0015089898 0.020585187 -0.011190176 0.028944882 -0.0043658977 0.009802667 -0.006477856 0.012782352 -0.02969358 -0.030608168 -0.007561547 -0.0025141235 -0.017671458 0.01566672 -0.017006474 -0.0013950341
d_78 -0.023503974 0.039989106 0.026762247 0.01812668 -0.020518946 0.015956353 0.0015271362 -0.029171936 -0.0019817683 -0.04436593 -0.019180948 -0.0051242984 0.0071485564 0.032472737 -0.025620209 -0.020059599 -0.04420677 0.0004935465 -0.0013660495 0.013728945 -0.0063719116 0.04075841 -0.0051140524 0.041270103 0.021992411 -0.028059814 -0.034888297 -0.006176399 -0.022224024 -0.022485072 0.0052413647 0.05080142
d_83 0.005522686 0.033323906 0.012374389 0.0049839453 0.01544941 -0.009081962 0.011103978 -0.024005175 -0.016798008 0.015949575 0.0132257035 0.006905508 0.022483267 0.017025722 0.011467732 -0.0031544333 0.010132574 0.0030569527 0.008682781 0.0099853035 0.035529826 0.022259172 -0.0023747184 0.035398982 0.011506747 0.0006351392 -0.022200445 0.012632977 0.007847324 -0.031677444 0.0034292564 -0.011885317
d_20 -0.01084807 0.0007565012 -0.019442074 -0.020432048 0.017308246 -0.0029550823 0.018108688 0.008567145 -0.015123129 -0.007283639 0.017563619 0.037339278 -0.025663413 0.012076473 0.025782129 0.016472984 -0.0076794857 0.005435202 -0.036818653 0.0391654 0.013595071 0.02600516 -0.028777868 0.032998733 -0.009355411 -0.04292172 0.015909746 0.0147169335 0.016199145 0.0059798285 -0.026868906 0.02241545
m_40 -0.011604737 0.04599017 0.059957355 -0.09745893 -0.045155637 0.09699087 -0.101628155 0.061045766 -0.120148726 -0.11446571 -0.10913701 0.09194132 0.04437307 0.09043425 0.08380399 0.063654006 -0.112633474 0.08363617 -0.1193282 0.10199005 0.073371336 0.10313181 -0.086445935 0.04193648 -0.016533863 -0.05759017 0.0006040535 0.08704171 -0.017909892 0.06294115 0.024329023 0.08641611
d_49 -0.03674197 0.016628575 0.04102395 -0.027231283 0.0018390738 0.039930236 -0.044093955 0.043475363 -0.048580986 -0.027859906 -0.045433015 0.02374752 -0.0025696056 0.028436124 -0.01001861 -0.0044436203 -0.0395866 0.030514402 -0.0039998414 -0.00073535927 0.03820377 0.019695597 -0.04290034 0.04787599 -0.003544896 -0.00612403 0.005009816 0.037711598 -0.022089422 0.001421229 0.018842988 0.040273238
d_158 -0.010297148 0.043453865 0.0017340081 -0.04203823 -0.030109026 -0.006151139 -0.014420912 0.024076277 -0.031360254 -0.018459994 -0.017156951 -0.02026664 -0.013185705 0.0072164387 0.023597585 0.02525267 0.00925033 0.026503474 0.014684316 0.04503364 -0.010168595 0.04034062 0.012626345 0.0359926 0.009925671 -0.04602668 0.01851124 -0.012783488 0.020725068 0.023663465 0.009103076 0.0054574856
d_21 -0.0017858003 0.019134495 -0.0033507436 0.0020965198 -0.019471895 -0.0076151146 -0.0063798022 0.035498023 -0.029930342 0.01241417 -0.015636666 0.020154381 -0.03662897 0.02539592 0.002956207 0.031711876 -0.04142155 0.024985345 -0.002793986 0.032032266 0.0027032285 0.023491943 0.008184763 0.003155224 0.0043227193 -0.030930782 -0.008430782 0.023198986 0.013594924 0.009648334 -0.03242051 0.00056621386
d_152 -0.004879087 0.074876405 0.06487238 -0.041141596 -0.019162416 0.04505945 -0.060327604 0.06511778 -0.029383793 -0.056745224 -0.040819228 0.053836644 -0.03230654 0.06669386 0.03484497 0.05579475 -0.028356412 0.036583055 -0.057120442 0.032497697 0.058464777 0.027993444 -0.035195388 0.053911854 0.045664586 -0.022775719 -0.027246457 0.07517779 -0.026749274 0.043036856 -0.01495607 0.03946889
m_71 -0.035207175 0.008833969 -0.002237875 -0.03586555 -0.017825551 0.016179176 -0.04375422 0.014614893 -0.047214974 -0.039554313 -0.042969957 0.04351098 -0.011215717 0.023561146 0.005471514 0.030900348 0.004764107 0.024310619 -0.01559463 0.018520929 0.0020947587 0.030709183 -0.011828069 0.029035978 -0.03307358 -0.021078423 -0.045672297 0.035368267 -0.056227617 0.03490209 -0.003751895 0.009197844
d_22 -0.0060392064 0.023143644 -0.023774492 0.02351832 -0.013388621 0.03236063 0.024170915 0.011810409 -0.034560427 0.018168343 0.017544933 0.035285473 0.017944407 0.009356664 -0.0016621007 0.0041843597 0.017340368 0.017682523 -0.024445672 -0.010895565 0.03399162 -0.009819157 0.019302243 0.03651608 -0.012355065 0.008748285 0.010963859 0.018643063 -0.028846152 0.025549535 0.014472932 0.031988967
d_96 0.0070903115 0.05257675 0.025381505 0.012103703 -0.05321242 0.011299499 -0.031337798 0.0013793488 -0.052152224 -0.04905194 0.0172282 0.015266529 0.018087119 0.053035587 0.032776147 0.04638166 -0.006957953 0.03566685 0.004042751 0.045601867 0.004967278 0.05451701 -0.0064022737 0.0135929715 0.0059480947 -0.009926704 0.0052091107 0.012388172 -0.0060697645 0.012327225 -0.00026991218 0.0019749394
d_79 0.037157606 -0.008088693 -0.0066799833 -0.022334574 -0.038909167 0.031810615 -0.01760513 -0.017172132 -0.007179372 -0.03352482 -0.007972951 0.050166108 -0.021640157 0.0077752923 -0.010820773 0.018933794 0.014543382 -0.008525734 -0.0056252056 0.040221315 -0.0007724841 -0.0069433004 -0.044816904 0.052001663 0.017115466 -0.00343946 0.011806319 0.015046611 -0.011139786 0.04810998 0.026662907 0.003470363
d_23 0.02176506 0.012674287 0.027372362 -0.013118459 0.025207818 -0.018695515 0.021300914 -0.023706544 0.015401831 -0.028474139 -0.0057307472 0.012488147 0.029304057 0.0017714715 0.0033691083 -0.02399221 0.027223095 -0.006857004 0.015684348 0.013092071 -0.017683305 0.003975378 -0.032969605 -0.0061204843 0.008493797 -0.004069843 -0.015182082 0.019816574 -0.028311824 0.027472738 0.0065683364 -0.03518143
d_72 0.039352592 0.009800625 0.01028152 0.006934374 -0.023127668 0.049647063 0.011079654 0.046167616 -0.028171804 0.020340137 0.021047905 0.0019716294 -0.013829937 -0.022825826 0.019524265 -0.005038481 -0.000239274 0.03817238 0.011327328 0.011895041 0.01602564 0.034208883 -0.05361047 -0.005085333 -0.035478298 -0.009115762 -0.014876417 0.017102726 0.0014916915 0.028804021 -0.013881365 0.014783845
m_50 0.014827685 0.02600949 0.0552006 -0.08775704 -0.038208604 0.06377483 -0.05778564 0.026700143 -0.046353854 -0.03720273 -0.045697276 0.050707676 0.02533077 -0.002170716 0.06976553 0.042436257 -0.009762264 0.058972 -0.029839642 0.07891174 0.07494795 0.04016919 -0.0584536 0.015399594 -0.0046332134 -0.08480801 -0.04223894 -0.0070751654 -0.029567022 0.044532463 0.014055568 0.042680297
d_91 0.005490514 0.036786284 0.00216371 -0.017081777 -0.053167813 0.021264665 -0.04341956 0.02865196 -0.037407525 -0.025366731 0.01700268 0.01874669 0.039233167 0.012577413 0.03348618 0.010611558 0.007046183 0.016655002 -0.017076118 -0.0035579302 -0.014670022 0.04493947 0.002798778 0.04353019 -0.019935846 0.02155427 -0.005325799 0.011306712 -0.031162072 -0.03279625 -0.0016720206 0.04383983
d_115 -0.012405842 0.01373041 0.044837367 -0.03516074 -0.0012548361 0.035168573 -0.053373415 0.035577107 -0.019171622 -0.00863849 -0.05760298 0.03253995 0.020976033 0.023745254 0.03320458 0.04651513 -0.0058035282 0.054367382 -0.009001697 0.02964889 0.028266365 -0.0069740694 -0.049126185 0.005669425 -0.013623556 -0.048675675 -0.046734184 0.012263172 -0.016790893 -0.0016256473 -0.047020823 0.04575923
m_84 -0.009761052 0.03634354 0.04607183 -0.0776226 -0.030805776 0.048335608 -0.050540525 0.030737733 -0.06848476 -0.049767014 -0.056238763 0.023173366 -0.012942357 0.043993194 0.048690174 0.04737585 -0.05732756 0.04113809 -0.031867757 0.09372766 0.058014914 0.08306436 -0.060130216 0.06267978 -0.010078317 -0.023531843 -0.021678604 0.04884956 -0.028803965 0.06517355 -0.0042306823 0.06902314
d_80 -0.0150808655 0.046616737 0.060686294 -0.018078988 -0.06690932 0.06598172 -0.06706316 0.024359047 -0.03201618 -0.001223383 -0.032815263 0.050888654 0.0032065865 0.009376373 0.016013347 0.046346813 0.01402678 0.06500808 -0.046843667 0.048100464 0.033181038 0.008631617 -0.06573535 0.05985343 -0.01756801 -0.020154545 -0.01067593 0.010671331 -0.012721255 0.02410733 0.03323711 0.009729199
m_46 -0.040994123 -0.0011584889 -0.002533482 -0.020425612 -0.008231413 -0.0038980604 -0.014739277 0.004363209 0.009958895 0.007660516 -0.019669354 0.029178292 -0.022794768 0.012497928 0.016091708 0.020359905 -1.0571908e-05 0.005363817 -0.010788046 0.009486839 0.008242608 0.041682575 -0.04079124 -0.002571696 -0.0038775518 -0.020192217 -0.0014477964 0.008041179 -0.007369384 0.02388179 -0.0051835245 0.020736013
d_137 0.051710658 0.05022658 0.070864886 -0.067962304 -0.068819806 0.062497035 -0.047511473 0.032754216 -0.036023814 -0.07747889 -0.023014344 0.05231742 0.04253006 0.029099356 0.062148415 0.042423237 -0.05138904 0.039158627 -0.031344134 0.06252282 0.10337903 0.070241466 -0.05031764 0.029895294 -0.01216148 -0.070287466 -0.052002806 0.09773276 0.027839558 0.04731495 -0.022847993 0.033581648
d_26 -0.021222752 -0.009064413 -0.011878813 -0.01909261 -0.019642428 0.022529695 -0.04308952 0.01014163 -0.03933109 0.007928891 -0.036233425 0.0022287704 0.004340127 0.019541152 0.039986666 -0.014799299 -0.041716542 0.043170262 -0.006059296 0.032493107 0.016402824 -0.016496152 -0.021024326 -0.009458866 0.038131405 0.004213844 0.010479828 0.022173323 -0.003182048 0.0034957482 0.0073937266 0.022672622
d_40 -0.021360548 0.021609146 -0.001080364 -0.04716026 -0.034720674 0.022836525 -0.020140395 0.014093246 0.0005515064 0.0021356787 -0.04296454 0.036625456 0.023785606 -0.009092207 0.034214232 0.009196668 0.006792218 0.04867475 -0.022040179 0.021301907 -0.0072167898 -0.0008208123 -0.041695595 -0.006244581 -0.005678684 -0.05150003 0.00945252 0.004898126 0.008062625 0.02014773 -0.039771 0.033668485
d_150 0.0039156186 0.00040623592 -0.02064605 -0.027620938 -0.04047271 -0.014545273 -0.026898898 0.008738825 -0.024563773 0.024064654 0.0019914499 -0.008241421 0.028403927 -0.0010577496 0.021456698 -0.014454817 -0.015717708 0.010315681 -0.01005126 0.00039982004 -0.002872915 -0.00085150916 -0.026903499 -0.016799023 0.022963919 -0.01575205 0.0027088565 0.03239691 0.021285031 -0.011601068 -0.0059371367 0.025685616
d_114 -0.0035897726 0.03539105 0.0122944135 -0.0112092085 0.01041662 -0.014030332 -0.026871294 0.034580745 -0.022296991 0.011444289 -0.03439349 -0.0018358547 0.04607042 0.0009898385 0.033628512 -0.021382142 -0.006848554 0.007873056 0.025434908 0.028359141 0.012442412 0.024809554 -0.03672286 0.009239968 0.031712133 -0.017228423 0.010761311 0.035263125 -0.015776731 -0.02590657 0.011587657 0.023075406
d_110 0.041565087 0.03333813 -0.0063224165 0.0062907506 0.001420504 0.038684614 -0.00841325 0.03080304 -0.018607153 -0.029428255 -0.01288484 0.012661555 -0.015880208 0.0059148762 0.04154697 -0.009166533 -0.026702499 0.002395932 0.008833796 0.05057218 -0.010800853 -0.018351026 -0.034833692 0.033829387 0.0012419168 -0.005798301 -0.025061041 0.021866713 0.02413011 0.013958143 0.027272003 0.010139582
d_28 -0.028240837 0.06488859 0.0031532063 -0.056638956 -0.028589599 0.030207228 -0.0481767 -0.0016354709 -0.030308468 -0.05073013 -0.022974262 0.04328873 0.0072962833 0.013348816 0.058077775 -0.00804292 -0.059458587 0.010187862 -0.032958314 0.029955735 0.046095166 0.025590528 -0.029988332 0.060384445 0.00442281 -0.05066345 -0.03085545 0.042219903 -0.032652214 0.06077424 -0.01517459 0.014925352
m_13 -0.008488173 0.09126035 0.05570776 -0.048680104 -0.031166898 0.069320954 -0.053717338 0.016969347 -0.02124529 -0.033549853 -0.042988397 0.06531602 0.03104416 0.05352356 0.062141076 -0.021489775 -0.052622683 0.040436342 -0.05198568 0.058318697 0.057245295 0.06646307 -0.071057916 0.04354962 -0.025440559 -0.087848544 0.029702373 0.02943445 -0.011469154 0.03952775 -0.03717108 0.02727853
d_102 0.011937518 0.056882657 0.053929545 -0.04040121 -0.046206363 0.053913303 -0.022945408 0.04779387 -0.020561557 -0.03901343 -0.03291396 0.045591272 0.013857665 0.028286919 0.0057610795 0.0155947795 -0.010250239 -0.0011586994 0.010998443 0.0046426547 0.046853915 0.03631739 -0.02807668 0.042107213 0.0077637075 -0.029151076 -0.013221297 0.01921981 -0.03518606 0.052931324 -0.05089377 0.03456558
d_41 -0.014951582 0.026919855 0.008002438 -0.024541855 -0.052193128 0.018749004 -0.05539108 0.019656286 -0.023979653 -0.05389826 -0.051776852 0.018215349 -0.010107227 0.010061007 0.038644753 0.025810909 0.0055560856 0.02486659 -0.03773985 0.039837256 0.012890256 0.009405933 -0.05000209 0.012064967 -0.03609485 0.0024381094 -0.03567267 0.025778372 -0.01672649 -0.00067450944 -0.03587825 0.052667905
d_106 0.0096547045 0.028290493 0.040263444 0.024538022 0.0026466944 -0.014765882 -0.037350815 0.025429249 -0.030479953 0.02579576 0.002370038 0.036027282 -0.039613795 0.03139834 -0.009200253 -0.011704454 -0.032513715 -0.021399867 -0.030898314 0.010384874 0.02913396 0.011854488 0.0028425916 0.03308112 0.010539652 -0.017242644 0.010962741 0.040889688 -0.007456644 0.024626814 0.0029465836 0.014371641
d_29 -0.013978034 -0.008493758 0.041308746 -0.017129809 -0.048704077 0.034562718 0.007571877 -0.0037052473 -0.040535647 -0.0055179787 -0.0043667913 -0.008256686 -0.026815945 0.04118175 0.018575437 0.004937186 -0.014515524 0.048741527 0.004707389 0.033230644 9.030849e-05 0.0019260552 -0.0018469496 -0.008525413 -0.0006297692 -0.03381839 -2.0521227e-05 0.047948685 -0.003433796 0.04032568 0.029426128 0.0024766675
d_57 0.006950564 0.04239012 0.02106077 0.0057323463 -0.040133186 0.007790237 -0.01662255 0.0039618923 0.013689905 -0.036751647 0.010197336 -0.00040363055 0.014881964 -0.013208181 0.018817816 0.0061806166 -0.019627161 0.03476163 -0.035650972 0.0018000728 0.035843335 0.0110267345 -0.03725321 0.021477282 -0.01268507 -0.010212904 0.0046733464 0.032524772 0.012591315 0.003525761 -0.03122849 0.031615183
d_133 -0.010688916 0.03132887 -0.0031142766 -0.03246782 0.014713338 -0.0054133264 -0.024196917 0.0106223505 -0.0337596 -0.016307471 -0.0047339685 0.027675452 0.0075783073 0.01171728 0.0013021221 -0.010851964 0.011131976 -0.008083606 -0.027225407 -0.011181996 -0.01999512 0.014872825 0.0021446305 0.046400413 -0.000836784 0.0023902315 -0.033663373 -0.0058002933 -0.02201097 0.0054269256 -0.0031023887 0.02259884
d_30 0.008832131 -0.008562471 -0.008231123 0.010052575 -0.024114743 0.032558005 -0.0122361295 0.025128847 -0.020175101 -0.023152417 -0.0071501047 -0.010501865 0.004263838 0.0147008225 0.018528052 0.043117195 -0.021294702 0.02394363 -0.0034993785 0.050437532 -0.0048637353 0.0023698383 -0.01498819 0.025773622 0.026207756 -0.0005433797 -0.021751182 0.04842721 -0.017414965 0.03243845 -0.027370166 0.02726394
m_86 -0.04656333 0.04267574 -0.0152948825 -0.0035652583 -0.011888893 0.01115455 -0.009465667 0.03909409 -0.029390974 -0.0020620096 -0.007855999 0.048264716 0.015360048 0.016988788 0.0041669523 0.012701437 -0.027324276 -0.0012518237 -0.038758762 0.043543085 0.026451936 0.03403367 -0.04521037 -0.006033455 -0.018204326 0.013126868 -0.019172484 0.03141237 -0.018904869 0.040855605 0.008627546 -0.007417357
d_81 0.023982914 0.046877168 0.0139453355 -0.030057505 0.0048243986 0.018340815 0.018261429 -0.0066721584 -0.022507293 -0.042887703 -0.011988293 0.011610303 0.02493647 -0.006351921 0.0322018 0.026660323 -0.034047235 0.051105067 -0.048348323 0.054430246 -0.007948978 -0.0038556252 -0.018844914 0.048978876 -0.014400526 -0.025664132 0.0069255144 0.023314668 -0.04025376 0.039666608 -0.04134191 0.00502403
d_162 -0.016164351 0.040025398 -0.01329251 -0.0063041286 -0.0011242186 0.010183638 0.008025603 0.02417258 -0.021695076 -0.03362111 -0.008328981 0.034522135 0.013929199 0.0056022904 0.00019354606 0.033158787 0.022342166 0.033075847 0.002897387 -0.0047851694 0.035064742 0.0037203147 -0.027397878 0.012721911 -0.009520818 0.012888599 0.020240769 0.004494627 -0.025103027 0.013567905 0.017079625 0.039518937
m_43 0.0073175267 0.018963723 0.022464555 0.015413491 -0.002410958 0.016461551 -0.0039194957 0.011870412 -0.031844996 0.00801134 -0.0084195305 0.0126836635 0.009324663 0.0016351328 0.026114093 0.012011129 -0.03960786 0.0008862908 -0.03432381 0.022283744 0.019194163 -0.024528595 -0.023774765 0.02582062 -0.0075931703 -0.037858665 0.012518819 0.0032532597 -0.009554513 0.0035276879 0.0032043145 0.023012549
d_60 0.0068639414 0.046036907 -0.010108016 -0.009899013 -0.02545135 0.041679762 0.009389123 0.034872048 -0.020951707 0.02157312 0.0029220828 0.020763882 -0.00042905146 -0.0024978444 -0.005725976 0.022565234 -0.041074306 0.046323072 -0.0070924307 0.04622394 0.022776565 0.022096194 -0.024738062 -0.010093559 -0.029660238 -0.019660443 0.0184733 0.002226863 -0.028138865 0.021765249 -0.045510184 -0.015125021
d_120 -0.014513923 -0.018328115 -0.00764653 0.0060805287 -0.034874484 0.02246891 0.014700901 0.0066165407 -0.0057539307 -0.024222855 -0.03463314 0.0046147346 0.0057996185 -0.021361146 0.034107078 -0.009438838 0.004460107 0.029311642 -0.009352762 0.025596552 0.0058537177 0.0033281473 -0.007937264 -0.015667863 -0.005823746 0.004722782 -0.009326049 -0.0082190465 -0.010873 -0.001379956 -0.0037460453 -0.010262156
d_32 0.005668283 0.04430138 0.025566828 -0.036422417 -0.007018856 0.01763283 -0.0065732086 -0.01680859 -0.028908327 0.03442283 0.019583404 0.018521305 -0.013807386 0.005847064 0.0024034749 0.03933005 0.03378279 0.041972693 -0.00031801919 -0.008077732 0.017401878 -0.022586461 0.0018023737 -0.0043938444 0.007168615 -0.013193836 -0.02227188 0.026150309 -0.041746177 -0.0022721896 -0.03232978 0.004686517
d_116 -0.02783371 0.016617984 0.038758606 -0.007894279 -0.00553234 -0.010748083 -0.0036048344 0.025105413 -0.028035473 0.00551783 -0.025961025 0.0014213161 0.021176301 0.014086059 0.030923702 0.041675046 -0.034937266 0.02102017 0.01235172 0.02585376 -0.023747101 0.012681885 -0.04480307 0.043617442 -0.002789944 -0.038287368 0.0032972866 -0.013697412 -0.014328541 -0.012153539 -0.001325794 0.044229873
d_33 0.024316113 0.0473493 0.03382714 0.013832191 -0.03212708 0.059490472 -0.032424673 0.03310081 -0.032789893 -0.015532254 -0.026556093 0.01126058 -0.0036656698 0.05084566 0.03549656 0.023228472 -0.024242103 0.02697751 -0.03829663 0.05737989 0.060428116 0.045417566 -0.016838688 0.05335449 -0.004410284 -0.022198584 -0.04629164 0.012257047 -0.05528151 0.038882893 -0.038288426 0.009345321
m_2 0.04537496 0.013340148 0.030812073 -0.028936397 -0.048742753 0.016427245 -0.04324717 0.03854629 -0.03229028 -0.030616157 -0.028629567 0.016081773 0.01832129 0.05360898 0.055500265 0.0038482612 -0.033959687 0.0076262234 -0.03373677 0.042849556 0.04321853 0.019347887 -0.06049743 0.03018079 0.007961489 -0.013994597 -0.014293824 0.04525675 -0.0243597 0.04548461 -0.0035060018 0.005626551
d_70 0.011679355 0.023818018 -0.016095228 -0.00041410653 0.0313567 0.039932456 -0.038727775 0.030535545 -0.004214028 -0.00883344 -0.008396131 0.037152115 0.04021736 -0.004081333 -0.01735136 -9.784056e-05 0.013099806 0.0009040837 0.022346152 0.0069172406 -0.007841996 -0.016911045 0.009911575 0.0007585846 -0.034599356 0.022830399 -0.015369967 0.028920662 -0.018027462 0.0063294196 -0.003968274 -0.017704403
d_98 -0.012888545 0.053924352 0.047802497 -0.058455355 -0.081385545 0.009239043 -0.03251451 0.035028104 -0.06239162 -0.08117324 -0.042519107 0.06940352 0.009423052 0.029256798 0.044070553 0.040291235 -0.037899107 0.0145380655 -0.046778865 0.031008713 0.081308946 0.04715081 -0.055096656 0.08205596 0.0049711308 -0.019634828 -0.05103203 0.066099465 -0.028626792 0.048311338 -0.007737161 0.049496822
d_35 0.028182395 0.043954715 0.022650648 -0.055059627 -0.07252101 0.016197382 -0.06183766 0.024606355 -0.014866645 -0.046818916 -0.041791923 0.048553877 0.042787086 0.041238457 0.009132339 0.035015363 -0.037455954 0.034483105 -0.060869448 0.016612668 0.0044603855 0.07562224 -0.02179241 0.05117615 0.026748946 -0.016640257 -0.013963814 0.057873394 -0.030276047 0.031904556 0.017366748 0.027336827
m_28 -0.019052282 0.038781323 0.063504584 -0.06450621 -0.058378436 0.05800979 -0.056203242 0.03365437 -0.046078935 -0.009438761 -0.021549586 0.066109456 -0.040872503 0.069036484 0.03343603 0.0683604 0.0041645803 0.0044605713 -0.056147456 0.072166406 0.013382757 0.054774504 -0.04391968 0.04933865 0.03698149 -0.069449626 -0.031249188 0.02212854 -0.035546444 0.020628698 0.0024317568 0.02814381
d_87 0.013103353 0.05348734 0.045082234 -0.020176578 -0.056531034 0.053834222 -0.036391083 0.06215576 -0.06843526 0.001691841 -0.026721515 0.027857548 0.007914411 0.06677918 0.02323931 0.07689977 -0.011354885 0.04210564 0.016151974 0.033093963 0.0402867 0.03490346 -0.025546528 0.03142767 -0.013147052 -0.056264967 -0.022022791 0.043273497 -0.06182662 0.027971413 -0.014242828 0.06945359
m_38 0.011239499 0.044852633 -0.007145573 -0.05742042 -0.02972195 0.062641814 -0.06353223 0.034246385 -0.011352265 -0.051009577 -0.017968113 0.043936595 0.010142287 0.00076151174 0.0032335646 0.065009795 -0.0405346 0.023560466 -0.024969645 0.043157585 0.02691169 0.026433723 -0.06739395 0.051776335 -0.006013506 -0.05889641 -0.020625148 0.025005091 -0.041602027 0.054038685 -0.0005876282 0.04179994
m_31 -0.006499149 0.00210279 0.046561234 -0.0064316546 0.009640206 -0.0019334769 -0.027034562 -0.0054869372 -0.018980546 -0.020947553 -0.024403233 0.049409214 0.00036684773 0.029155321 -0.009029282 0.047820788 -0.009169625 -0.012418337 0.0014656051 -0.0011634636 0.045694955 0.023804322 -0.0015824684 0.049681537 0.019900016 -0.04208905 0.010891128 0.020092618 0.017686337 -0.010309291 -0.042519405 0.044399578
d_37 0.008794055 -0.023666091 0.0058248905 0.015964178 0.016253121 -0.012771991 0.025377529 -0.0044665188 -0.011648564 0.00037073763 0.021616448 0.014507242 0.02921584 0.03056907 -0.019158479 0.013237579 0.00039656134 0.026512077 -0.030505076 -0.019752672 -0.02411757 -0.006404828 0.0084438315 0.0014728424 -0.019703427 -0.022194248 -0.0043506003 -0.0045025186 -0.01476397 0.011971297 0.019921632 0.021847319
m_91 -0.019691592 0.035596367 0.025110641 -0.044655763 -0.023951188 0.06323011 -0.041236825 0.039630037 -0.04466095 -0.032264538 -0.029633973 0.015635606 0.013242159 0.037839413 0.06928395 0.020570353 -0.033778172 0.013333745 -0.0016489425 0.07071961 0.039913036 0.05541117 -0.013181592 0.07066846 0.0031319105 -0.033904962 -0.033400223 0.024248378 -0.0039494853 0.018036751 0.008003319 0.067956865
d_69 0.0275943 0.04639946 0.04829377 -0.0022949507 -0.020608397 0.012832921 -0.039337203 0.013264814 -0.01820226 -0.028528137 0.0016924022 -0.00958337 -0.04560168 -0.0005432409 -0.0014379262 0.007028955 0.025808718 0.034982163 0.005346815 -0.0059194155 -0.014996653 0.032163143 -0.019234458 -0.016384915 0.01339303 0.021879982 0.008139162 0.01685166 -0.036438733 -0.0071066185 -0.041059054 0.01336153
d_38 -0.038546845 0.060015604 0.047824692 -0.036651663 -0.08311351 0.05034228 -0.04669343 0.041628033 -0.044352237 -0.042501844 -0.07871079 0.09320339 0.046120103 0.06486786 0.08763066 0.08087631 -0.07480401 0.08883952 -0.05382845 0.0658508 0.05560996 0.03605775 -0.04550021 0.08768685 0.02264876 -0.056295514 -0.036439687 0.063570805 -0.039901666 0.041846458 0.030820245 0.044666406
d_148 0.014003329 0.0018220325 0.035754714 -0.026908789 -0.022139693 0.032643557 -0.021111315 0.03309735 -0.029751718 -0.015720524 -0.016168011 0.035826243 0.005684344 -0.01542782 0.008628668 0.0095039345 -0.023938093 -0.0068937326 0.015761828 0.022104425 0.05056151 0.016530864 -0.00680593 0.027916996 -0.049179282 -0.027234077 -0.042922508 -0.001373935 -0.006459453 0.034047313 -0.043676905 0.011876288
d_58 0.04241836 0.019521592 0.00075357035 -0.042392768 -0.009736279 0.0367722 -0.03511585 0.012667032 -0.039834347 0.017067805 -0.028705176 0.016046666 0.028730333 -0.0043654386 0.020252146 -0.027745452 -0.0014589755 0.05497187 0.013070927 0.038587186 0.019379824 0.0009083273 0.0035257721 0.05395168 -0.041241918 -0.04051508 0.007128298 -0.012870712 0.031579185 0.047139067 -0.009277927 0.038996752
d_135 0.01398809 0.03615749 0.060518526 -0.06144095 -0.041081637 0.030938756 -0.03998046 0.04844509 -0.051167395 -0.007516453 -0.04509558 0.027630491 -0.019922584 0.0463334 0.037639286 0.020040449 -0.01303098 0.041614357 -0.018330242 0.02817221 0.0040419893 0.017946657 -0.03681345 0.06793787 0.02996394 -0.05624552 -0.04477992 0.02681359 -0.0047718314 -0.0014181337 -0.028136132 0.041213863
d_39 0.0054814885 0.05515261 0.05717129 -0.05163463 -0.04044565 0.06460877 -0.061041348 0.06810892 -0.071124926 -0.032296143 -0.050515603 0.07402657 -0.0075825527 0.02277026 0.007698716 0.073866986 -0.03471035 0.027870096 -0.05749732 0.029268133 0.030906236 0.05715805 -0.06890043 0.046611425 -0.023449283 -0.01791737 -0.045858946 0.031518582 -0.04892204 0.0037028915 -0.021487731 0.041338425
d_143 -0.024206433 0.055190023 0.050299965 -0.053623833 -0.06484284 0.066609666 -0.058245774 0.057505403 -0.021819934 -0.01727176 -0.034112345 0.03053225 -0.020698301 0.062337905 0.047587063 0.062431205 -0.046537515 0.006042434 -0.024936575 0.020927839 0.055002563 0.019077264 -0.039986137 0.030102052 0.0042125755 -0.027076041 -0.010981955 0.036455367 -0.027034596 0.022871861 -0.0067309467 0.040683057
m_77 0.01094944 0.046854716 -0.009237906 -0.036825467 -0.023878057 0.043213118 -0.06468642 0.054982707 -0.057812534 -0.025370779 -0.07487745 0.04145088 0.008418902 0.0555385 0.08080326 0.074715085 -0.04360836 0.003717152 -0.06775706 0.05281975 0.0011619516 0.07212011 -0.06053131 0.06482783 0.018747522 -0.06056096 -0.04767142 0.06616302 -0.012176061 0.008836013 -0.009633368 0.025204543
d_48 0.011498843 -0.007949727 0.035173517 -0.030939505 0.01346905 0.0052147983 -0.02989234 0.032940768 -0.014089825 0.019370707 -0.022883052 0.0076350216 0.014005444 0.037064306 -0.004656048 0.017619293 0.005721376 0.00082510663 0.0116540175 -0.00067005306 0.021198008 -0.00021153595 0.018005583 0.012492655 -0.012538403 0.01586556 0.0009511374 -0.011268699 0.028456185 0.027842462 -0.033227235 -0.024055041
d_165 -0.021669202 0.01242148 -0.007631085 -0.0067285337 -0.046546135 -0.018441744 -0.040946886 -0.014152271 -0.0081717875 0.0031396248 -0.026212163 0.03313955 -0.01360261 -0.025514401 -0.030034263 -0.01585437 -0.016482094 0.016764713 -0.036798347 -0.010828553 0.04036076 -0.006108565 0.002825872 0.010236818 0.0048866114 -0.018834185 0.000764051 0.025801294 -0.011956254 -0.016687227 0.03981047 0.02030176
d_43 -0.031466983 0.036511946 0.015761537 -0.03581379 -0.04960843 0.052709933 -0.032995854 0.048130263 -0.00601091 -0.023144703 -0.030639734 0.038809434 -0.009480172 0.010664552 0.0366826 0.03731924 -0.01135839 0.013120042 -0.0030555283 0.055272356 0.01466479 0.015614094 -0.051473945 0.009531444 -0.015789092 0.008759191 -0.0041677332 -0.015185035 -0.015223112 0.044836756 -0.010810761 0.036680985
d_89 -0.0139878085 0.013466859 0.0289637 0.007617579 0.012542831 0.0004108441 -0.04301427 0.021675073 0.015907876 -0.0032623755 -0.023989255 -0.0033723605 -0.026199877 0.011171948 0.011583893 0.02096154 -0.029218305 0.04474072 -0.003944938 0.017596323 0.006964266 -0.010885881 -0.03574964 -0.0049425014 -0.034078166 -0.002952111 -0.016983435 0.035450973 -0.006221021 -0.016176526 -0.022540355 0.017601073
m_4 -0.00786932 0.028346281 -0.008301364 -0.028680164 -0.03988256 0.023022331 -0.03539322 0.026103405 -0.06608521 -0.03823914 0.031799193 0.03027048 0.017296083 0.031751968 0.05103786 0.036198087 -0.025221653 0.008658138 -0.0089205485 0.012112344 0.056479685 0.028762547 -0.03875763 0.015076724 0.016428666 -0.06792028 -0.033993676 0.0019123321 -0.005621494 4.465552e-05 -0.008191141 0.006575309
d_85 -0.003054664 0.032324657 0.017260088 -0.043202646 -0.0032612928 0.030397648 -0.03525937 -0.0013450454 -0.013308685 0.0015633577 -0.02416399 0.04260444 0.028427515 -0.006038242 0.0019540526 -1.2399629e-05 -0.0005722083 0.05206016 0.0054144096 0.022179766 0.020194678 -0.014223775 0.0062562753 -0.013189463 0.016803656 -0.000859641 -0.045567133 0.01821851 -0.036420606 -0.007583417 -0.022912512 0.0016628252
d_44 0.008448711 0.041160386 0.021161875 -0.021846214 -0.03768773 -0.016746376 -0.03478036 -0.0052206763 -0.039486673 -0.0037362804 0.022760002 0.008078107 0.029414516 -0.008279579 0.03343298 -0.025589123 -0.0042057917 0.028599486 0.018665416 -0.021006308 0.004372253 0.0014394806 -0.016680416 -0.006739389 -9.889668e-05 -0.012645753 -0.02827364 0.037413493 0.004590119 0.021474741 0.005025992 0.0081521515
d_77 -0.025801431 0.048517518 0.033644255 -0.04016435 -0.030040458 0.03330922 -0.053215835 0.049151033 -0.022114027 -0.008326467 -0.012475165 0.060482685 -0.020565126 0.06471783 0.04681593 0.06701934 -0.056618553 0.034196697 0.0032426426 0.016560711 0.04999833 0.040779885 -0.05430273 0.05167086 0.0008966229 -0.033514265 -0.02896576 0.06301517 -0.024453826 0.03695305 -0.019773627 0.035604138
d_65 -0.0060402276 0.013255054 0.031044481 0.01962063 0.0029968019 -0.010502423 -0.03237223 0.005188613 -0.023813672 0.0014606696 0.0066624857 0.030825496 -0.005303683 0.028780062 -0.011986624 -0.006085485 0.027019853 -0.0037442194 0.012719892 0.0053354306 0.00874681 0.010653626 0.005744565 0.037005387 0.037584238 -0.040652 0.01938564 0.03433659 0.018911202 0.038368456 0.017019216 0.019183762
d_46 -0.011410455 0.0010024649 -0.00926815 -0.019412953 0.006340374 -0.0055797873 -0.026373927 0.0043900213 -0.03210205 -0.047987014 -0.029587865 0.03137128 0.025055395 0.010981535 0.037734434 -0.0016309517 -0.025945904 0.019451758 -0.015431728 0.028121686 0.010468779 0.04419657 -0.037325263 -0.014917645 0.009873827 0.005883761 -0.007697662 0.031829614 -0.009235393 0.034937102 0.015636213 -0.021018432
d_169 0.0289785 0.007965516 0.003422278 -0.048792057 -0.036060266 0.0303858 -0.046772953 0.018334664 -0.019347373 0.015046569 -0.03693098 0.04845593 0.04876573 0.04143128 0.028533272 -0.016128793 0.020489702 0.06769185 -0.030829128 0.01992127 0.0072493986 0.026576642 -0.00461748 0.061143294 -0.0059713856 -0.05474839 -0.036495984 0.048504118 0.021023525 0.03149906 -0.044862945 0.034707077
m_8 0.029531939 0.06478523 0.0010354398 -0.037679184 -0.019468592 0.0368861 -0.015680186 0.03527808 -0.011696793 -0.011502579 -0.007937695 0.019418582 0.010493746 0.0556007 0.0487323 0.010158993 -0.0038727866 0.048514556 -0.03932337 0.025276719 0.009147871 0.046966877 -0.06634416 0.027523607 0.019997954 -0.011493301 -0.0501678 0.041763686 -0.0009912727 0.023921221 -0.033345554 0.01745852
d_144 -0.027301237 0.018176468 0.028103862 -0.0560335 -0.041363828 0.04252772 -0.041717324 0.047476724 -0.020129804 -0.046509344 -0.016184567 0.06009254 0.033296242 0.026932115 0.05333461 0.034439247 0.0029903054 0.05371984 -0.025675636 0.027853698 0.025595091 0.03354224 -0.046231117 0.06473029 -0.0021544956 -0.043158382 -0.06588804 0.035242517 -0.047571786 0.025712904 -0.037041984 0.042156093
d_47 -0.012440922 0.049836222 0.022688387 -0.004557127 -0.04219572 0.014033455 -0.02332894 0.0013813158 -0.045402367 -0.0134205865 -0.021085087 0.025612265 0.010058597 -0.00097225606 0.04988076 -0.00040545315 0.0016332287 0.030746182 0.0099994 0.02059593 -0.012882361 0.003268513 -0.042798497 0.048383772 0.010318473 -0.0016435524 0.0030716043 -0.0010236972 0.025907077 0.032815352 0.015678698 0.019513179
d_132 -0.0077037844 0.012901791 0.04433558 -0.039758775 -0.0076266224 0.046999525 0.0011140169 0.025292827 0.0020330683 0.0132714715 -0.03364315 0.031578425 0.038316995 0.045658756 0.030529484 0.03140588 0.0028063306 0.034829147 -0.04259227 0.043500535 -0.008510046 0.030523313 -0.012110956 0.026851296 -0.042285543 -0.030313663 -0.033744432 0.0138193965 -0.019773189 0.022321004 -0.029627945 0.020855157
d_50 0.022002809 0.011720976 0.014973661 -0.00430373 -0.024740184 0.013376718 0.0054793158 0.048046064 -0.019562118 -0.045037303 -0.020378143 0.041777283 0.002784751 0.065819345 0.03515116 0.04400119 -0.028753195 0.051073603 -0.052563168 0.042968743 0.036655825 0.027886264 -0.043139886 0.0071214014 0.036236882 -0.027487813 -0.008344647 -0.0027613775 -0.03668653 -0.010077979 0.0013302355 0.032998275
d_51 0.032304756 0.04975864 0.023715751 -0.0015337192 -0.03403429 0.0064552515 -0.048436277 -0.008951649 -0.027234321 -0.040476404 -0.019927222 0.04622098 -0.013434175 0.03314979 0.013596206 0.005261041 -0.018003475 0.03215299 0.010917023 0.04091736 0.0460003 0.0009615072 -0.027566243 0.051020622 -0.015072832 -0.048091114 0.0024747332 0.032313414 -0.025406104 0.021595934 -0.009688759 0.029522669
d_52 -0.025901945 0.007123857 -0.018064888 -0.01563315 -0.024879279 -0.0064095166 -0.015029807 -0.005424961 -0.011163996 -0.011668389 -0.03541028 0.010673033 0.006619103 0.020999212 -0.006927094 -0.0064323535 -0.02706844 0.040053926 -0.013834015 0.027347919 -0.0077305934 0.015551439 -0.0043991148 0.006027995 -0.0075426013 0.006922139 0.0042598075 0.023133084 -0.03588818 -0.002305164 -0.021609085 0.034003824
d_73 0.0149018075 0.018413026 0.011626098 -0.06608466 -0.017512292 0.015538998 -0.037115216 0.05608672 -0.008841274 -0.026707571 -0.050675176 0.057845958 0.0018290756 0.030161485 0.022132445 0.035994347 -0.013264763 0.009073195 -0.050943565 0.030925995 0.06873759 0.054496806 -0.016081845 0.048805404 0.0062098107 -0.06542585 -0.022572974 0.013130194 -0.018150434 0.057904918 -0.028387383 0.058283813
d_59 -0.0245016 0.013495212 -0.017087808 -0.007806376 -0.028430935 0.043397084 -0.0045922045 0.048926957 0.030036688 -0.024210675 -0.010483898 0.030920947 -0.037909947 -0.00089257164 0.0055464394 0.026187226 -0.00094521884 0.0016248431 -0.016251769 0.009941274 -0.0079063075 0.017733248 0.006997426 0.0036608893 0.016969727 0.013784859 0.0055892467 -0.0020242021 0.0047970307 0.014934093 -0.0066854525 0.012341957
d_53 -0.023289472 0.059954822 0.022337507 -0.03264336 -0.03425961 0.043690473 -0.015057259 0.039250575 -0.0070607327 -0.054043658 -0.05559939 0.02813919 -0.04376171 0.031957846 0.010871429 0.01715889 -0.053025696 -0.016224364 -0.060096543 0.03327445 0.019439606 -0.0074489703 -0.017099934 0.021219274 -0.008772629 0.00923281 -0.023232184 0.028150052 -0.024056468 0.019821908 0.013684364 0.0023398884
d_159 0.0046282853 0.018385611 -0.00091212755 0.012967153 0.031087505 -0.023538424 -0.024043653 0.015959403 0.031033227 -0.02960044 -0.014472173 0.0062315753 -0.0038527455 0.037806593 -0.01757268 0.02938607 0.0022311392 -0.006888557 0.030502485 -0.011204265 -0.020262092 -0.013552879 0.015206879 0.0051634843 -0.016251277 -0.020496683 0.010266196 0.025757238 0.012551304 -0.019641053 -0.0025232788 0.034867093
d_163 0.028713427 -0.015334854 0.044138286 -0.017266432 -0.014658541 0.026257064 -0.020667858 -0.02962469 -0.03502931 0.009326169 -0.04590468 -0.0039640614 0.0061398675 0.01921495 0.020866895 0.027192427 -0.010983184 -0.021955099 -0.009541247 -0.0155771375 0.0024527353 0.034655295 0.0015624147 0.022322593 -0.0031434945 -0.03097526 -0.02270592 0.04271255 -0.0029992615 0.026247028 -0.013151562 0.047055017
d_55 0.010632381 -0.011664588 -0.003913492 -0.041427396 -0.007456158 0.04127702 0.007636401 0.00851707 0.03395065 -0.01206786 0.035713263 0.002428723 0.0038073855 0.024803612 0.019565584 0.008317164 0.009006962 -0.01755977 -0.044608258 0.03555583 0.024710432 0.023019627 -0.018003093 0.007164295 -0.01096062 -0.0093366355 -0.0005284655 0.02445824 -0.008497555 -0.02088437 -0.004341785 -0.0076478766
d_56 0.015148732 0.03852328 0.04518508 0.0028072423 -0.03197838 0.030161949 -0.048336063 -0.0074935304 -0.04997569 -0.030968558 -0.042277336 0.013251379 0.0065636733 -0.0021455898 0.008443551 0.0527809 -0.032275617 0.01855732 -0.015234559 0.027556187 -0.0013347794 0.036687467 -0.042801484 0.002496574 0.010363696 -0.025395755 -0.044275474 0.02103864 -0.0085474625 0.04095478 -0.010819783 0.03765798
d_149 -0.06946914 0.083523415 0.014563911 -0.0583013 -0.029154073 0.042703085 -0.061798044 0.06513162 -0.083099425 -0.03319057 -0.04736902 0.021708082 -0.034639712 0.032019053 0.057298277 0.011095338 -0.056968074 0.026989862 -0.05519223 0.08459681 0.0060043647 0.07284111 -0.074579425 0.07397642 -0.024003204 -0.051385857 0.036261138 0.058719736 -0.08558629 0.021952793 -0.02735556 0.060756743
d_86 -0.0029500043 0.010952737 0.009146982 -0.043982644 -0.039371263 0.034412626 -0.04226996 0.030485813 -0.0008384753 -0.03594248 -0.0046492363 -0.012238845 -0.020421911 0.042126555 0.011226965 -0.014301667 -0.00976257 0.035631463 0.01712031 0.0261514 0.033511944 -0.012838619 -0.021227634 0.0022001658 -0.0036930698 -0.032026924 0.0036977716 -0.014506704 -0.02967129 -0.028639464 0.0042872233 -0.0043844264
m_59 0.022635937 0.047652714 0.029095013 -0.037676282 0.001054645 0.01900265 -0.029903585 0.03623591 -0.053162906 -0.042122174 -0.0065745264 0.0035535293 0.0025442746 0.01122967 0.0349314 0.009794235 -0.014286228 0.030021898 -0.041738763 0.038605586 0.01956879 0.0094751315 -0.048494756 0.027969917 -0.024480965 -0.01494199 -0.028380862 0.04139074 0.0040153055 0.031215306 -0.032956634 0.005968851
d_61 0.025113963 -0.015521901 -0.009991133 -0.0019450281 -0.02843037 -0.01764769 -0.003939862 -0.021061165 -0.041180182 -0.042870175 0.00022336235 0.03671557 -0.0034711338 0.01801227 -0.018092716 0.031863704 0.013103994 0.004555066 0.015512355 -0.00971019 -0.005509407 0.025183758 -0.03808967 0.03649096 0.021933591 -0.027940731 -0.023946147 0.034908872 0.03267876 0.015612036 0.02402722 0.018051289
d_118 -0.011979249 -0.018889109 0.02102093 -0.04740883 -0.059251998 -0.01948209 -0.010080526 0.021028664 -0.009052958 -0.021872094 -0.025705947 0.004287939 0.008485172 0.044663478 0.052375905 0.0008841092 -0.05738522 -0.005774653 -0.023981526 0.015444177 -0.030084189 0.03398808 -0.021640865 -0.005757798 0.014323609 -0.011316005 -0.02697771 -0.0012601176 -0.011863825 -0.0096570905 -0.017710371 0.055169694
d_62 0.0028978577 0.036407623 -0.0041480027 -0.03906565 -0.036037244 0.027100122 -0.035897125 0.0075625167 -0.022927577 -3.656419e-05 -0.01624978 0.00851932 0.053521067 0.0076105427 0.03998344 0.045783926 -0.02008085 0.01491649 -0.03791519 0.033399012 0.028303802 0.037423797 -0.017247707 0.042187724 -0.0014747446 -0.063550286 0.0056244447 0.036859054 -0.00323669 0.043544818 -0.04267404 0.055210426
d_99 0.02509561 0.052704014 0.036502484 -0.0024207542 -0.0069729835 0.04884521 -0.0197036 -0.0046533872 0.009685636 -0.025185345 -0.02592711 0.00708447 -0.015757877 0.033262063 0.019039486 -0.0050473977 -0.033730857 0.031109631 -0.03483913 0.035899036 0.037249506 0.043020617 -0.038985156 0.025669552 -0.024862485 -0.007545363 -0.055058517 0.022620235 -0.022911012 0.038126603 -0.02229806 0.028969947
m_23 -0.032875597 0.016681885 0.030925194 -0.025706572 -0.04482378 0.05241447 -0.058804486 0.04391213 -0.0613305 -0.06089481 -0.03944396 0.056884326 -0.03214648 0.051448386 0.0014283797 0.06077952 -0.004642781 0.0035771257 -0.06442215 0.062232934 0.01694958 0.020724889 -0.046589464 0.05478596 -0.04309938 -0.014233542 -0.04923679 0.018274711 -0.011212999 0.01754573 -0.002543285 -0.0046325256
d_63 0.019319993 0.012034507 0.034475937 -0.04354569 -0.019106187 0.02082832 -0.041869257 0.037376188 0.0062623057 -0.008995087 0.011177539 -0.008932134 -0.0036901128 0.020685624 0.0001485711 -0.011872313 -0.0008990043 0.022665188 -0.008192011 -0.0021602544 -0.0054556066 0.050460696 -0.035544965 0.016964521 0.010158503 -0.016678859 -0.03268921 0.0393133 0.018207822 0.012636563 0.011644334 0.04746635
d_173 0.030839346 0.006290496 0.0017138319 -0.03248965 -0.021831874 0.008286043 -0.031277664 0.0039149774 -0.0071893414 -0.054780338 -0.03675732 0.05092847 0.023969742 0.04309277 -0.0043688687 0.006947822 -0.014996951 0.019293692 -0.026080497 -0.0062645148 0.009745136 0.040995497 0.0016445392 0.03698723 -0.033142477 -0.03696974 -0.03428093 0.043295857 -0.011971584 0.016016435 -0.0030986695 0.022732718
m_29 -0.032130536 0.041276418 0.008256279 -0.059586547 -0.067324996 0.05036127 -0.015326118 0.019930089 -0.05515186 -0.0032594888 -0.019066215 0.022873577 -0.0031524221 0.07039038 0.067026265 0.04447226 -0.025208283 0.022689093 -0.008675072 0.04581772 0.0030803154 0.06875757 -0.05427171 0.06473765 -0.006231509 -0.013315909 0.015447588 0.08071746 -0.0721723 0.0021065124 -0.07349647 0.03134385
m_80 -0.006639264 0.08349449 0.088145904 -0.08458719 -0.062345125 0.079913035 -0.08174927 0.0657684 -0.08979997 -0.027278021 -0.06369271 0.05454573 0.022621386 0.051980853 0.06801395 0.08176513 -0.07969771 0.027819032 -0.05664142 0.08158363 0.018738817 0.07454542 -0.09705026 0.07642786 0.014579591 -0.07316084 -0.020653643 0.06796598 -0.060239397 0.019045426 -0.019234883 0.1014575
m_26 0.006620066 0.043774728 0.03482111 0.0023562862 -0.013916741 0.049041543 -0.023201063 -0.008590675 -0.016740391 -0.03646934 -0.008663982 0.00025400193 -0.023452673 0.05469855 0.04664378 0.012169202 -0.031683426 -0.0045685438 -0.04109586 0.024650147 0.014952974 0.034025818 -0.0056082765 0.03026446 -0.0038423184 -0.0017981422 -0.03596927 0.05768078 0.018124044 0.048300706 -0.026913365 -0.0045244303
m_64 0.020665886 -0.008756096 -0.005968744 -0.035939526 -0.038987376 -0.010152241 0.0045312024 -0.0021481612 -0.009370519 0.016833385 -0.046590403 -0.011435324 -0.0335662 0.010244747 0.009392341 0.028970914 -0.009736257 0.031909637 -0.049926255 0.03169883 0.042155482 -0.007359946 -0.020328663 0.019358257 0.017943092 -0.03283241 -0.02857715 0.047076777 0.019909296 -0.0040904563 0.006277435 -0.010339515
d_67 0.018728692 -0.006155219 -0.023568701 -0.009538723 -0.0077046 0.012640243 -0.014695956 -0.024424125 -0.015327102 0.023868984 0.0046158507 0.007316748 0.0037359507 0.022771223 -0.019655583 0.03133228 0.010167817 -0.015958082 -0.003622122 0.0162655 0.014351491 0.006666363 -0.006254203 -0.01859488 0.017480688 -0.018802203 0.03300365 -0.012386188 -0.028586997 0.043098543 -0.003820472 -0.0049503483
m_35 -0.05357956 0.062467225 0.06975388 -0.10274519 -0.027384115 0.040815804 -0.09482694 0.06394618 -0.049735323 -0.057332423 -0.10613197 0.05063558 0.02532607 0.09556394 0.08528891 0.036484875 -0.062092304 0.054807954 -0.057966102 0.029647319 0.056830227 0.07949845 -0.052958436 0.09519079 -0.042423025 -0.065006375 -0.01747129 0.100594796 -0.052000757 0.02348867 -0.036642782 0.08643146
d_172 0.0032897722 0.04218358 0.098571 -0.073061764 -0.041712277 0.060591128 -0.08184317 0.065742664 -0.05085141 -0.06846655 -0.08144052 0.07697481 -0.007093754 0.034856353 0.06630312 0.0695236 -0.040604502 0.07445402 -0.100175336 0.06718391 0.030602433 0.049929094 -0.049217254 0.06587786 -0.0082751475 -0.04894627 -0.072224595 0.06976728 -0.03165935 0.0509775 -0.0077227633 0.065147184
m_54 -0.005646742 0.029797688 0.049586527 -0.05258649 -0.0071511064 0.023545029 -0.0065122275 0.024016818 -0.047046863 -0.0032246923 -0.024819957 0.014609968 0.02648446 0.045269806 0.019706003 0.020395113 -0.0032389816 0.0231065 -0.03031409 0.06033878 0.02708579 0.01501161 -0.047274567 0.015841488 -0.006425336 0.0021246532 -0.013504824 0.06074302 -0.063192174 0.013419586 -0.06408523 0.022826266
d_138 -0.011008764 0.009004178 0.013995289 -0.03388724 -0.04123789 0.008743971 -0.023704145 -0.006568327 -0.025386022 -0.01880737 0.01837492 0.015010361 -0.014053296 0.046345305 0.019558415 -0.005993419 -0.008966036 0.010400712 -0.018280525 -0.0018999605 -0.012486612 0.0014842628 -0.029088113 -0.00027719326 -0.006296302 -0.018285291 -0.030278932 -0.0131784 0.011114413 -0.004476432 -0.030548653 0.0065155495
d_94 -0.027020901 0.050759636 0.041094203 -0.00884547 -0.017689094 0.04620653 -0.0327572 -8.7951776e-05 -0.017978381 -0.033100855 0.0035512615 0.038506925 0.04472816 0.029793583 0.010706041 0.026433574 -0.028917372 0.030377567 0.0046922984 0.033718217 0.012176326 0.050544746 -0.003517602 0.040923532 -0.014897832 -0.03151498 0.021566102 -0.016351324 -0.022629047 0.028655738 0.002729856 0.036855474
d_84 -0.0128167 0.02002706 -0.0051718857 -0.016714664 -0.051508147 0.05726012 -0.0126829725 0.054432124 -0.017524887 -0.005004676 0.009491445 0.0051131155 0.016964171 0.040262427 0.049730785 0.022921795 -0.012877163 0.047885366 -0.03846392 0.02844707 -0.00019777613 0.012722227 -0.03580919 0.02118782 -0.039928343 -0.016968934 -0.013635656 0.022291292 0.013606651 0.034657873 -0.00030249078 0.041163977
d_123 -0.011039764 0.01362671 0.015713593 -0.045992598 0.012004245 0.028356746 -0.034453705 0.037391584 -0.019429317 0.0028098212 0.009117543 0.0313359 0.018407077 -0.0015929025 0.0058587715 0.029539526 0.020530872 -0.005052798 -0.043313112 -0.009569349 0.045825016 0.022142261 0.014196491 0.004527979 -0.027525548 -0.006165656 -0.0063869585 0.02149595 -0.020099737 0.012098869 -0.011730346 -0.008264888
d_167 -0.031637657 -0.00611139 -0.015709205 -0.028092146 -0.03368089 -0.005969408 -0.018397445 -0.0074352743 0.017328052 -0.030160427 -0.03306002 -0.011345843 0.007689886 0.041569542 0.05190382 0.007546326 -0.033860903 0.019890446 -0.0387227 -0.0068027927 -0.013468448 0.042658422 -0.03799016 0.04949614 -0.028925195 -0.011532962 0.02358753 0.03547724 -0.027853893 0.008936834 -0.020629134 0.0068194754
d_147 0.0030758716 0.008316873 0.0052303304 -0.019331735 -0.010160584 0.002875505 -0.00044253282 -0.013320625 -0.0004716646 -0.022156714 -0.0307454 0.045822635 -0.0032929424 0.009571439 0.016006634 0.020178013 0.014070725 0.021840591 0.0013115769 0.016232777 0.021984052 0.030746887 -0.009845868 0.040647436 -0.00057432335 0.006924251 0.023396987 0.0036332835 -0.02071888 0.03495047 0.00044956524 0.043824572
d_141 -0.0015098625 0.05102352 0.03659564 -0.012694915 -0.048919555 0.020148147 -0.06670503 0.021019854 -0.005344962 -0.020467803 -0.007432 0.046198726 -0.004529206 0.031135365 0.03267718 -0.00617167 0.018786553 0.048454624 -0.041350175 0.021173468 -0.006051096 0.015585543 -0.031913694 0.04240342 0.008834815 -0.017185811 0.04320184 0.0346312 0.00083995657 0.026428172 -0.020048257 0.02109515
d_129 -0.005745737 0.026619371 0.017871585 -0.024351073 -0.039020848 0.04151514 -0.0108749075 0.035193503 -0.013713912 -0.002301314 -0.0431557 0.0590107 -0.020327441 0.046953518 0.067443885 0.0007732911 -0.054123513 0.05785742 -0.0337202 0.048876073 0.061241187 0.05880301 -0.02845782 0.03381273 -0.027736124 -0.029679287 -0.012291029 0.05835609 -0.009578571 0.03901755 -0.023231294 0.010293363
d_82 -0.049627785 0.034236357 0.053114377 -0.062286247 -0.023196205 0.008493082 -0.061143294 0.008416627 -0.002800792 -0.037092574 0.0048836386 0.06626996 0.01907719 0.022712622 -0.0064301714 0.010017937 0.0120929405 0.04180866 -0.03388257 0.024475083 0.044168957 0.003228155 -0.003154294 0.019035662 -0.013364803 -0.03984757 -0.009119126 0.034157082 -0.012547905 0.031869203 -0.013598595 -0.004433845
d_113 0.021803372 0.017375924 0.038567714 -0.017063847 -0.03565292 0.049799267 -0.020646188 0.03819481 -0.039346173 -0.061988194 -0.047793437 0.056813743 -0.038712166 0.016757628 0.02035363 0.010174183 -0.0018585199 0.025216894 -0.032928705 0.05346738 0.012867905 0.06835696 -0.034709398 0.037471972 -0.04000844 -0.021754147 -0.03502515 0.031802587 -0.013813632 0.03796877 -0.040809568 0.008535457
d_108 -0.02616382 0.0071064844 0.018507006 -0.058668636 -0.060893256 0.044131137 -0.040377636 0.054497443 -0.027930807 -0.009710588 -0.06770891 0.036936745 -0.033271763 0.0570666 0.022855273 0.032756746 -0.060312636 0.0351926 -0.023664102 0.05132035 0.054880325 0.017522879 -0.059137393 0.0123069165 -0.024165975 -0.056960225 -0.033631153 0.053174153 -0.0023641642 0.019066283 0.025823072 0.07080146
d_88 -0.015026792 0.024330521 -0.0039907726 -0.020140909 -0.03466861 0.0054578055 -0.014974898 -0.019257896 -0.009264875 0.027846318 -0.039451383 0.023587726 -0.0020069662 -0.015988754 -0.018927902 0.02282999 0.013021739 0.011383144 -0.02270338 0.0177552 0.018847413 0.015009743 0.023477409 -0.020174555 0.0011735079 -0.03733962 0.0217041 0.033936948 0.0029613608 0.0002028402 0.020361032 0.0101228
d_90 -0.00886959 0.008537114 0.027438715 -0.052730955 -0.041377425 0.054412942 -0.03287952 0.02512845 -0.0062768143 0.0007751221 -0.01302954 -0.015421791 0.00027155736 -0.009092994 -0.033175565 0.003463618 -0.028065333 0.002804916 -0.0061819516 -0.003256193 0.0018731318 -0.018415581 -0.029445302 0.020927941 -0.01810287 -0.046295818 -0.019308737 0.014840694 -0.018781533 0.011317074 -0.018635146 -0.018408524
m_72 -0.022324234 0.00096687954 0.015732571 -0.030773789 -0.021396834 0.004942666 -0.033277024 0.03925342 -0.03067685 -0.0072815986 0.006854026 0.032333925 0.021395281 0.005848968 -0.014617299 0.0392127 -0.018779805 0.027335074 0.008388558 0.028091185 0.018191254 0.043124355 -0.0084910765 0.0061183083 -0.046675213 -0.031148065 -0.046275113 0.043474805 -0.01182344 0.029384505 0.015210214 0.024862781
d_128 -0.03476389 -0.0046803895 0.030301852 -0.0014581052 -0.042142358 0.018532682 -0.012648514 0.02047792 -0.007929972 -0.02663543 0.008219506 0.04090458 0.013483148 0.006751941 -0.0027879588 0.0067362688 -0.040707104 0.02353232 0.017496005 -0.013213762 0.024960108 0.0025768494 -0.00027436763 0.02323683 -0.0044999495 -0.014710635 -0.028360005 -0.022646368 -0.0005251416 -0.0125252325 0.024308197 0.008400776
d_107 0.010123528 0.025677832 0.042298052 -0.034803163 -0.024953835 0.015213197 -0.016235776 -0.00031903107 0.012304297 -0.0035158405 -0.03123205 -0.0018704738 0.011722153 0.021058394 0.0071867756 0.0068205623 -7.008482e-05 0.015554526 -0.0062525296 0.01704352 0.038673215 0.018633813 -0.021288339 0.05792126 -0.001055934 -0.03125037 -0.013099839 0.019214207 0.0022428422 -0.01287551 0.01787753 0.03343017
m_44 -0.006319354 0.024050033 -0.0016020131 -0.025453158 0.0011216127 0.032478895 -0.044192024 0.014010418 -0.016929798 -0.055315387 -0.0018507843 -0.002633125 0.0153453 0.045791846 0.041398212 0.0029925439 -0.03220217 0.019966159 0.00086147664 0.015269881 0.0045090965 0.005745622 -0.009120999 -0.013203402 -0.0063862745 -0.008319047 -0.033206508 0.0054834993 -0.012605749 0.00024400512 -0.0030277288 0.022136202
m_73 -0.018965434 0.051283196 0.048379336 -0.018829292 -0.019093879 0.004101879 -0.048061904 0.04084203 -0.038878206 -0.012402989 -0.00069763465 0.029216876 -0.013330689 0.0062463675 -0.002727022 -0.00087730447 -0.0085573355 0.015938489 0.0055531934 0.02734389 0.033027463 0.01517784 -0.04887566 0.017965976 -0.042783543 -4.0759332e-05 0.0014182217 0.052157115 -0.031374987 -0.0019565192 0.007911915 0.02274219
m_24 -0.0040203915 0.025319703 -0.0052122683 0.010439579 0.014897216 -0.0118936375 -0.031251393 0.030075882 -0.028947497 -0.033428464 0.0006004195 -0.015091915 -0.012271686 0.007212426 0.0028307633 -0.0033535715 -0.007503503 0.0032761944 -0.015411309 0.028973486 0.02112179 0.026395887 0.014285627 -0.0064252526 -0.0194038 -0.025417568 -0.011757322 0.007970577 -0.031738777 0.024578607 -0.021315766 -0.010526463
m_66 0.030883437 0.0019935793 0.021190774 -0.039160587 -0.008037808 0.046483047 -0.016460408 -0.0070056664 0.0004764311 -0.033953227 0.013749493 0.014293233 0.026457256 0.0320519 0.023149233 0.045254465 0.034268565 0.043194648 -0.008168985 -0.005132564 0.027994618 -0.006135667 0.00087329606 0.028598722 -0.028246265 -0.017030578 0.007732822 0.045060266 -0.019749094 -0.023299886 0.008065848 0.03607956
d_101 0.003947385 0.044012636 0.0030532214 -0.02072126 -0.044535883 0.020827526 -0.002559714 0.04402826 -0.04520337 -0.049093302 -0.044839513 0.0005932958 0.03671219 0.04217528 0.05352654 0.054868557 -0.037731573 -0.008376947 -0.046443 0.049134202 0.0436366 0.057843145 -0.043835085 0.04401708 -0.035172775 -0.042044792 0.018869022 0.030928787 -0.056064013 0.047993645 0.027638998 0.003332146
m_89 0.02651038 0.030418912 0.034647625 -0.023537703 -0.02938753 0.015014867 -0.025078014 0.009802731 -0.0132621685 -0.012635235 -0.0017715809 0.001750594 -0.019645024 0.028278682 -0.011387282 -0.00599709 -0.0005732621 0.036601227 -0.0126354825 -0.000995555 0.022260366 -0.01264633 -0.018562661 0.027827999 -0.016751379 -0.034986112 -0.028932452 0.0028565796 -0.044899784 0.02659364 -0.000325358 0.011342929
d_161 -0.018691156 -0.0020740586 0.020249302 -0.008002564 -0.025060127 0.012846189 0.011838433 0.006548821 0.022642953 -0.019178178 0.025700804 0.040731613 -0.0003067567 0.015203009 0.012317798 0.014406519 -0.016392605 -0.028019821 0.011648331 0.009859332 -0.023957875 0.02686859 -0.019047651 0.0077569876 -0.027787495 -0.00025681732 -0.035472006 0.0044601904 -0.002534267 0.0007870509 0.0072470326 0.013571572
d_103 -0.04280317 0.03949862 0.005488499 -0.036545187 -0.038192138 -0.003195472 -0.027328886 0.016645173 -0.020686135 -0.032698326 -0.023979016 0.042738803 0.014768202 -0.00087815337 0.043767095 0.035330456 -0.009954292 0.034439042 -0.025748419 0.004828386 0.025671469 0.03028955 -0.021219295 -0.007276116 0.024965858 -0.028923921 -0.0057833204 0.042708773 -0.029895883 -0.00229734 0.0051452923 0.016952518
d_104 -0.005730495 0.046260267 0.030719642 0.000759996 -0.05417586 -0.0005656183 -0.04122915 0.053108156 -0.038913175 -0.056323007 -0.012269677 -0.0143531 -0.023701264 -0.0042250967 0.012155797 0.03559827 -0.019688569 -0.00041011255 -0.04562027 0.019752348 -0.017717289 0.028878495 -0.02300161 0.031057408 -0.019095052 -0.02476305 -0.018278088 0.04814147 -0.034577236 0.013504734 0.0058937403 -0.009062316
d_105 0.03975177 0.025645755 0.0054082694 -0.007959091 -0.052001927 0.035968278 -0.04857967 0.034954492 -0.005731851 -0.011636204 -0.020647503 0.008365142 -0.0051061115 0.006988787 0.045248944 0.0008008648 0.017265242 0.02309383 -0.01634793 0.004541769 0.009453444 0.008865432 -0.02307729 -0.00750687 -0.031115621 -0.03434481 -0.01781249 -0.0013342709 -0.016820919 0.03484308 -0.017853538 0.02040282
d_117 -0.028054735 0.0037232782 0.0013156286 -0.014689812 0.022331236 -0.006213861 0.016490102 -0.013612005 0.0105358735 0.014955154 -0.0074653723 -0.02559959 -0.027171187 -0.036239326 -0.024344735 0.027241869 7.9539604e-05 -0.03053814 0.020230534 0.0034180218 0.015282437 -0.005139008 0.0014515794 -0.0248928 -0.02544024 -0.0338174 0.023906328 -0.015000658 0.013226774 -0.02952237 0.0073620733 -0.00028197002
d_151 -0.013884712 0.042129826 -0.0022993213 -0.0046571307 -0.042267837 0.031377386 -0.04743583 0.012353009 0.0020028087 -0.041013267 -0.008087235 0.05268929 0.0127648795 0.03426972 0.027686147 0.02380901 -0.013496036 0.029621128 -0.038771298 0.03662466 0.03179386 0.029755965 0.007513163 0.0060620047 -0.029455466 0.007335157 -0.017133145 0.005597677 -0.030707588 -0.023515845 -0.01906553 0.024036432
d_112 -0.0054015205 0.0007726783 -0.002051035 -0.03177482 -0.005043756 0.04479344 -0.014651079 0.01957204 -0.029642193 -0.0042118505 -0.03290287 0.032905824 -0.017443229 0.045653485 0.040773943 0.038246624 -0.013339866 -0.02113743 -0.031335328 0.01628045 0.03501032 0.014382451 -0.031545237 0.019471765 -0.0021343743 -0.002676804 0.033408925 -0.01654666 0.0014248984 0.01200963 -0.04872437 -0.008609539
m_10 0.016616527 0.0129924165 0.0087559465 0.025054779 0.015872603 0.004611141 -0.028557334 0.025890224 -0.02645734 0.003517807 -0.0015731929 0.024461422 -0.035367332 0.023661682 -0.0164987 -0.0064975093 0.012890188 0.02080417 -0.0021190299 0.017197918 -0.019121999 0.009539399 -0.020332396 0.0069739744 -0.008052463 -0.011454551 -0.0020172028 -0.019334082 0.016404469 0.01104443 0.023192907 0.02111055
d_155 -0.0047896183 0.016829731 0.014677413 -0.04003033 -0.010008983 0.008849671 -0.052550413 -0.009195937 0.010539105 -0.019635813 0.008477382 0.021077799 0.0007356056 0.004974182 0.030747931 -0.027079243 -0.038034778 0.0152389705 -0.05065772 -0.0058345273 0.01540016 0.011485698 -0.035737976 0.03552352 0.0032533077 -0.032242946 0.0026805964 -0.004759972 -0.011417378 0.017583726 0.019227816 0.044272672
d_126 0.02066335 0.0023617544 0.030369036 -0.041771162 -0.033645548 -0.006718551 -0.005392465 0.027726762 -0.00059255725 -0.027530767 0.026527379 0.026151402 0.010522544 0.021739883 0.010826314 0.012952725 -0.024216916 0.02119333 -0.022612745 0.009449016 0.016139705 0.018506343 -0.026133064 0.0030320766 -0.011873251 -0.0005336008 -0.00027591223 -0.012665467 -0.009446825 0.021024399 0.018492835 -0.013043809
d_121 0.00050859386 -0.007568988 -0.019971624 -0.027984682 0.003622959 0.021477837 -0.026284512 -0.020321622 0.012854539 -0.038035646 -0.013723146 -0.003066158 -0.0076588388 -0.023516439 0.022287704 0.013769021 0.011281423 0.028997535 0.009637645 0.008619279 -0.012483872 -0.023614584 -0.011676708 -0.0049018357 0.023796663 0.0055869333 -0.027435608 0.0041080145 0.011999871 0.02861074 -0.0041669263 -0.005174232
d_122 -0.03325773 0.04062833 -0.009433182 -0.0005531972 0.009692965 0.021382254 0.0017369152 0.0268121 -0.027329445 -0.035417084 0.019402279 0.039229974 -0.0034576962 0.04050892 0.04491266 0.025392994 -0.04162776 0.04597363 -0.043906793 -0.0003305599 -0.004147487 0.03584681 -0.05094759 0.03952338 0.011936389 -0.018709643 -0.039065633 0.014594173 -0.04611864 0.039355557 -0.00041469373 0.024552088
m_49 0.013689627 0.03026585 0.048669532 -0.04655063 -0.048389506 0.042690057 -0.045154493 0.039240893 -0.0041037467 -0.05287495 -0.021515064 0.016223121 -0.016788164 0.030669976 0.005693539 0.034252502 0.0039805495 0.0035188892 -0.013070406 0.028748792 0.04214867 0.0005807276 -0.050127715 -0.0020875642 -0.010054412 -0.053703323 -0.02915046 0.027579278 -0.037247434 -0.020685097 -0.025503095 0.039509576
d_124 -0.0052075842 0.0519481 0.029367078 -0.032076553 -0.03125415 0.022261992 -0.03388521 0.015979204 -0.045172352 -0.03776945 -0.03218042 0.021232981 0.012421606 -0.0051320824 0.015856355 0.010370681 -0.039825108 0.0012275847 -0.0301425 0.041204453 -0.010747172 0.051309682 -0.052792683 0.03410607 -0.0067614513 0.006297706 -0.02797836 0.03113815 -0.014236856 -0.00039951177 0.049429525 0.02762235
d_127 -0.042106595 0.021021526 0.056714863 -0.054114737 -0.032398544 0.017572295 -0.04759376 -0.002801937 -0.023411084 -0.013437934 -0.005932898 0.026800968 -0.016766416 0.009570388 0.023937898 0.03146269 -0.030751789 0.044610582 -0.0049498095 0.038025334 0.015822424 0.03130821 -0.038618684 0.054110322 -0.057035577 -0.01234095 -0.015176689 0.02714131 -0.01517598 0.009833625 -0.000747432 0.024746874
d_125 -0.014168339 0.023599114 0.00083532324 0.020370916 -0.012382843 0.031746212 -0.0017809304 0.01792133 -0.04343725 -0.010877832 0.00033581676 -0.0045906203 0.011942441 0.023525173 0.026945591 0.007440004 0.01711951 0.029766554 -0.037149444 0.031473104 -0.00033254502 0.007931862 -0.04194566 0.035466507 0.00496505 0.0032869722 -0.027617237 0.018803475 -0.014347324 0.049056735 -0.032748714 0.02930348
m_79 0.017177997 0.014512494 0.018040834 -0.0370095 -0.05217746 0.04515374 -0.03996569 0.04929696 -0.0125536695 -0.05258627 -0.0022528167 0.04689874 0.031026743 0.010247471 0.028348828 0.04502973 0.008731405 0.014794417 -0.033134334 0.05882452 0.03403105 0.05052051 -0.043802034 0.011959519 -0.04089786 -0.015329175 -0.003265949 0.04403538 0.004010018 0.011511389 0.033044513 0.033950716
m_17 -0.04987855 0.012031506 -0.002920228 -0.050045528 -0.029315714 0.013043102 -0.0027956124 0.01650857 -0.03794024 0.0030685002 0.021657668 0.018125677 0.051333465 0.031302344 0.005693965 0.008411536 -0.018987063 0.03500024 -0.017448042 0.026518561 0.0034642234 0.021841478 -0.03781494 0.016004218 -0.033702157 -0.005003266 -0.019868772 0.026907142 -0.022800405 0.027557235 -0.048423916 -0.022577597
d_146 0.008366431 0.026364058 0.054545987 -0.016576175 -0.055716794 0.018743627 -0.04336278 0.001984899 -0.019333322 -0.014805639 -0.06413947 0.032974657 0.035075713 0.012323817 0.056303296 0.056599855 -0.038248792 0.016547719 -0.062058285 0.032271236 0.036545042 0.01865833 -0.04246185 0.044055067 0.004070889 -0.035296783 -0.0072996593 0.04913363 -0.026779635 0.030694898 -0.0035432058 0.0151887415
d_131 -0.012095592 0.038041897 0.007525577 -0.005009879 -0.0032074885 -0.0049524773 -0.0030663442 0.004287464 -0.0008400874 -0.031644937 -0.025203789 0.033715464 0.006952782 0.01141577 -0.003662054 0.016768597 -0.012907144 -0.006880875 -0.015362307 -0.008523451 0.02906372 0.027090833 0.0009204666 0.022539139 -0.037856802 -0.010826217 0.016065868 -0.011383666 -0.031763483 0.00019267434 -0.021527078 0.039230697
m_58 0.02841747 0.040489767 -0.011428624 -0.04756541 -0.052055378 0.051285353 -0.027183633 0.004255013 -0.03302849 -0.04575011 -0.05392118 0.019067336 -0.022412017 0.007777697 0.027183868 0.028348448 0.0014852015 0.010218289 -0.02713753 -0.001961837 0.010244403 0.039612405 -0.053256974 0.01229131 -0.027019853 0.0019358969 0.0056902147 0.011358522 -0.005063634 0.045730773 0.0209581 0.013828962
d_142 0.0013040653 -0.0042464426 0.04764062 0.011628668 -0.03536223 0.030150607 -0.0042793746 0.01260843 -0.008052812 -0.02160957 -0.00010001473 0.033875633 -0.024251472 0.002729774 0.034857634 -0.006335097 -0.035840802 2.4237204e-05 -0.0025718994 0.003718473 0.04762802 0.013697224 -0.026510298 0.013326328 -0.030434582 -0.032055553 -0.033265598 0.01092805 0.004386173 -0.004694521 -0.0017680442 0.013127278
m_62 -0.010073183 0.040855534 -0.003610414 -0.018053353 -0.021293072 0.031983472 -0.038258858 0.03398236 -0.034344446 -0.021483142 -0.022834903 0.025417093 -0.030430855 0.0026613763 0.02292569 -0.01558963 0.0045805755 0.039450414 0.002808433 0.035431076 0.009945442 0.0031683524 -0.010495151 0.012464194 0.0116522405 -0.0074320594 -0.030331967 0.055524737 -0.035874005 -0.001909534 0.039193347 0.0530601
d_139 -0.005806201 -0.0046940697 0.024089174 -0.027274901 -0.04838618 0.014607701 0.0020718994 0.009798527 -0.0028234133 -0.0022578523 -0.045170277 0.001105654 0.010281403 0.0035178945 0.019073369 -0.008220641 -0.010483579 -0.0013397159 -0.03143336 0.027397286 0.010609506 0.028820068 -0.013506327 0.0078055062 0.023700181 -0.05199934 -0.03364951 0.015886 -0.014408026 0.025541048 -0.040722217 0.025533298
m_19 0.0072993655 0.012732454 0.03451644 -0.06331186 -0.063978255 0.030555392 -0.027079178 0.018011361 -0.008411599 -0.0049303845 -0.00692176 0.012432829 0.0132522285 0.0037503568 0.054939333 -0.0014126296 -0.038460348 0.04348586 -0.023143087 0.05780133 0.04651435 0.0073418664 -0.011372177 0.0027889595 -0.006856908 -0.023546409 -0.037211597 0.043574795 0.015426556 0.010691037 -0.0315208 0.020913042
m_85 -0.03820086 -0.016877536 -0.004736443 -0.004998362 -0.02665832 0.01773194 0.015502783 -0.020306593 0.0065040304 -0.010915938 -0.040953927 -0.017811388 -0.019307476 -0.005135901 0.029608233 -0.0077839848 0.0262161 -0.012923328 -0.020980664 0.026373763 0.0045241374 0.032055587 -0.002951466 0.01410417 -0.007890439 0.006275323 -0.024239123 -0.0043206695 0.012979625 0.012822394 0.010729175 0.029801264
m_27 -0.029909987 0.052752472 0.047391098 -0.019371796 -0.0047448035 0.021656407 -0.02005906 0.027953628 0.0037374771 -0.016661484 -0.031259738 0.039997146 -0.0139765665 0.013947783 0.03174306 0.021985989 -0.0073782536 0.00994001 -0.026925087 -0.008466712 -0.007085532 0.05181841 -0.026488028 -0.00077036815 -0.038695585 0.014789874 -0.02576612 -0.0138822235 -0.019997094 -0.019558972 0.018442787 0.019559193
d_154 -0.052024398 0.036157463 0.03639863 -0.03000761 -0.03496067 -0.00024080789 -0.063048124 0.034064993 -0.024707062 -0.011494036 -0.015391683 0.04979299 -0.031300273 0.020927312 0.02800896 0.032830324 -0.0025381222 -0.008847054 -0.03819622 0.041587364 0.012434773 0.029075544 -0.0024372353 0.026937135 -0.008586375 -0.03564303 -0.018144771 0.03944484 -0.018625917 -0.0097934175 -0.037156664 0.050626148
d_156 -0.036444366 0.026429288 -0.006773084 -0.016369078 -0.025871823 -0.0048761796 0.00033315923 0.05005935 -0.050721567 0.005055273 -0.016415806 0.050483827 0.02420604 0.015923053 0.028613854 0.05884968 -0.031542566 0.045963254 -0.04599752 -0.011769187 -0.0026673991 0.05338432 -0.021223228 0.043706737 -0.0053418335 -0.04136976 0.01954749 0.022540795 -0.04114773 -0.0021769973 0.0102236075 0.04710725
m_81 -0.0045846547 0.06033884 0.041625526 -0.04218549 -0.008513301 0.04663302 -0.05807424 0.059328306 -0.050254926 -0.029733634 -0.048858713 0.060621403 -0.019259574 0.007523413 0.04762753 0.06396549 0.0031835278 0.05442237 -0.009514098 0.059225913 0.058228493 0.05991323 -0.033622157 0.05163102 -0.033978075 -0.009746429 -0.053315587 0.0043087145 -0.044250034 0.046034485 -0.019149948 0.015076656
d_157 -0.00044562854 0.026854292 0.021021686 -0.0008623968 0.016700618 0.0034133676 0.027916737 -0.008294674 0.013565803 0.023580113 0.010386811 0.012389502 -0.02081814 0.035470422 0.030981563 0.005700171 -0.022157807 0.016711108 0.013063526 0.012582928 -0.015604297 0.03121093 -0.027898312 0.04131467 0.0033430778 0.0051437817 -0.004437668 0.026393227 -0.008466496 0.028023677 0.009383683 0.030243523
d_160 -0.010353921 0.016865347 0.0281381 -0.013275192 0.0007710499 -0.013577405 -0.023270762 0.027653953 0.021187473 -0.0015730388 0.01538491 -0.0006661755 -0.018392274 0.014322944 0.008628948 -0.007076936 0.018394746 -0.0005614208 0.008524171 0.018558033 0.026013104 0.0016464503 -0.03416596 0.017990312 -0.03088415 0.016125795 0.008390244 0.010741208 0.01785245 0.012412556 0.02617006 -0.016900066
m_36 -0.03918468 0.018711282 0.042039048 0.005204536 -0.008139121 0.028496385 -0.04431113 0.038962286 0.005297644 -0.011149478 -0.033155963 0.011372063 -0.01986769 0.03007542 3.588572e-05 0.04730148 -0.0057428554 0.008719019 -0.013039307 0.04504656 -0.0020310525 -0.007492689 -0.052736904 0.0076250196 -0.03540885 -0.037522137 -0.010693059 0.027879233 0.01019088 0.013251251 -0.008186576 0.009249084
d_168 0.029557778 0.012768724 -0.0018419311 -0.008598831 -0.03304582 0.04541351 -0.030544475 0.02140374 -0.011309639 0.016462188 -0.0015755193 0.039072566 -0.010898003 0.022603886 0.054884337 0.0018959478 -0.021923434 0.039573416 -0.03873553 -0.0022015553 0.02503614 0.0160366 0.002499762 0.01830244 -0.006700757 -0.02340083 -0.019632917 0.026760384 -0.0198156 0.04044862 -0.0052420427 0.025479427
d_170 0.029205281 0.039620455 0.051524125 -0.042482994 -0.028816812 0.024292067 -0.016090596 0.011731879 -0.025054337 -0.03453173 -0.02272351 0.0007908619 0.023034835 0.011527063 0.019338362 0.016363513 -0.0268759 0.051788047 -0.024874868 0.042210564 0.052963354 0.03814148 -0.04515996 0.059737932 0.004063802 -0.034985 -0.0505965 0.015505504 -0.031670418 -0.005146227 -0.0017825179 0.008240841
d_171 -0.007429401 0.022267032 0.030933402 -0.053713053 -0.027668465 -0.007934049 -0.0052485387 -0.007910764 -0.038406964 0.0024999576 -0.038337145 0.020780511 -0.023646194 0.03715595 0.05360368 0.02974884 -0.018197846 0.00427714 -0.017836386 0.042618595 0.012781234 -0.004266147 -0.03420026 -0.007313028 0.016168933 -0.016103692 -0.016988095 0.006087931 0.0013154829 0.02803959 0.02775951 0.04918841
d_175 0.0065525533 0.040983815 -0.014789084 0.0062691 -0.006572973 0.0115836 0.018714603 -0.026283458 0.0073495028 0.0010592989 -0.0002762908 0.008208314 -0.0060218377 -0.017788654 0.020046534 0.0068767783 -0.009942384 -0.015289843 -0.018567732 0.009478662 0.008517319 0.03294285 -0.027597617 0.0026842211 -0.004622215 -0.02677238 -0.0060178027 -0.008693989 -0.014310011 0.028696088 -0.028294072 -0.018295541
