1525 32
d_1 -0.045246758 0.11507955 0.015953671 -0.042691518 0.068259925 0.06087762 -0.065393284 0.09606491 -0.045810685 0.0470423 0.08774868 -0.04269353 0.070639804 0.12035295 0.09188054 0.04691126 0.04727153 0.090073295 -0.06300715 -0.09031312 0.086305365 0.014504609 0.066982985 0.073148996 0.12168003 -0.045113645 0.15441692 0.064978965 0.040340688 0.014346345 -0.098317295 -0.017197862
m_170 -0.28377056 0.14007975 0.12269559 0.12617818 -0.03957282 0.11804303 0.05312904 0.116887085 0.12589939 -0.16095288 0.030544048 -0.21613035 -0.15153079 -0.029588051 -0.14590089 0.10367262 -0.20167242 0.2657807 0.19087517 -0.10875941 0.045008693 0.05693315 0.19724376 0.24401806 0.14836287 -0.21174677 0.2613254 -0.13484241 -0.3589883 0.24966432 -0.1423587 -0.17612366
d_1118 -0.057021 0.074746475 0.059910297 -0.104253285 -0.012119824 0.063815966 -0.070928566 0.09398765 -0.112791635 0.07834258 0.06180078 -0.05595733 0.047293372 0.09277143 0.0515261 0.052210093 0.071590416 0.12699945 -0.119635075 -0.08195565 0.051413998 -0.043608192 0.07552146 0.04707803 0.09235828 -0.08699315 0.1969302 0.10085287 0.0388434 -0.0023470018 -0.09639184 0.045918263
d_808 -0.08428615 0.08884101 0.06786691 -0.028025318 0.08840251 -0.02305716 0.025572892 0.06291358 -0.066891156 -0.023911104 0.0007376224 0.023304004 0.0026787752 0.1656416 0.0802884 0.11036185 0.025907231 0.14217731 0.008701867 -0.08182353 0.110432416 -0.06741395 0.10876232 0.06544852 0.105441645 -0.08391077 0.22026233 -0.042620976 0.08206087 0.21868172 -0.057293445 0.09885249
d_761 -0.038568467 -0.013855529 0.016848907 -0.037933733 -0.0062462334 0.029111171 0.041136272 0.03144548 -0.05606499 0.0056559825 0.08000114 -0.05281091 -0.044057652 0.012330218 -0.049262702 0.070137516 -0.024008345 0.09559386 -0.08559951 -0.076264195 0.0032171113 0.05853366 0.055902846 0.0016080504 0.013707385 -0.045574173 -0.030201769 0.04358637 -0.02246004 0.0010370705 -0.09634797 0.057463083
d_2 0.06793109 -0.07482082 0.21897209 -0.14716679 0.23450728 0.092783526 -0.010161614 0.15078971 -0.18418993 -0.11754989 0.08212674 0.0016997755 0.055327587 -0.08065374 0.06157819 0.15283912 -0.118993916 -0.014806308 -0.058917403 -0.08964706 0.1731711 0.10499894 0.19877774 -0.0066933464 -0.05322841 -0.099329986 0.20879531 -0.005280679 0.013547035 -0.15952247 0.059814174 0.11901785
m_136 0.1552097 -0.038881443 -0.06628457 -0.21009408 0.26944116 -0.010623557 0.084627315 0.0045037298 0.12501486 -0.15420708 0.27722538 0.11985035 -0.030797638 -0.3349729 0.13446419 0.107333526 0.25087747 0.20564479 -0.1050291 -0.02111329 0.3827638 -0.47070703 -0.19021249 0.12908538 -0.19203523 -0.12150374 0.055369385 -0.3169823 0.08221024 0.179346 -0.13869415 0.19125919
d_165 -0.0316631 0.030813638 0.06611681 -0.027904892 0.03248654 0.077352606 -0.14006327 0.025098072 -0.024822596 0.015298866 0.07296607 -0.02010151 0.0410083 -0.026585583 0.09609821 0.0736027 0.052928165 0.058991686 -0.1002699 -0.031217817 0.07013129 0.03517218 0.027844131 -0.037862364 0.018486902 -0.06857971 -0.026551437 0.087950274 0.08376366 0.01817675 -0.07310941 0.025564788
d_192 0.047824897 0.08141 0.077701665 -0.15240248 0.22135861 0.07925576 -0.109076835 0.13661744 -0.09913291 0.06638769 0.07266973 -0.16501583 0.13878779 -0.059657745 -0.050658647 0.087383755 0.025824469 0.18241005 -0.08831622 -0.04023865 0.12694213 -0.19090243 0.01725087 0.0054880558 0.1207651 0.01726013 -0.026273387 0.23207931 0.0650673 0.009989664 0.024024013 0.034294724
m_121 -0.41791803 -0.09771295 0.3644306 0.21511786 -0.013589036 0.29814032 -0.39314252 -0.16426678 -0.40807867 0.28781152 0.15125409 -0.21407378 -0.22600903 -0.20068076 0.026740745 0.25945657 -0.05787433 -0.19085036 0.33757848 0.1483874 0.32534325 0.15654065 -0.028661348 -0.16057713 -0.2295727 -0.03267752 0.08236485 0.38757235 0.32287592 -0.23287866 0.17998783 -0.25364178
d_884 -0.03841516 0.016496189 0.0789113 0.0020980882 0.052150574 0.041158967 -0.13034186 0.06411557 -0.11195257 0.043372534 -0.02648734 -0.041496683 0.04662335 0.011424872 -0.023735633 0.11049099 0.09625212 0.03613029 -0.06196139 -0.030116644 0.04583004 0.018923422 0.005330962 0.07876813 -0.0063161673 -0.079240546 0.122345805 0.023043599 0.081399485 -0.030612458 -0.023161646 -0.004511755
d_3 0.01831094 0.071094304 0.021227166 0.016357096 0.25868243 0.06392266 -0.18468606 -0.011769319 -0.07659771 -0.015157413 0.110404916 -0.005867981 -0.03911756 -0.15065101 -0.06190926 0.10202734 0.17358166 0.047254145 -0.21054289 -0.13254093 0.047559272 -0.04889031 -0.019801868 0.20238449 -0.036281914 0.07336811 0.24365152 -0.4421679 -0.015917473 -0.12651066 -0.11236127 0.15057392
d_293 -0.0793668 0.056799628 0.10004988 -0.036752563 0.05350195 -0.020983906 -0.020646349 0.10928858 -0.001061291 -0.005475993 0.06184401 -0.06441568 0.082710534 -0.121458724 -0.08694065 0.074616194 0.060349006 -0.015443842 -0.13217036 -0.1329734 0.13907933 0.035219945 0.113090515 -0.09091679 0.15869263 -0.047554675 0.19025819 -0.24325894 -0.024800494 0.11469017 0.0010065194 0.08309756
m_142 -0.30344456 0.076527804 0.122991525 0.0783223 0.29626387 -0.12012517 -0.35219055 0.10429078 0.29525068 0.1886654 0.45045084 -0.036376577 0.062377777 -0.26132193 -0.033411477 0.38516837 0.18922041 0.301334 -0.168645 -0.19665514 0.42119893 0.40967283 0.10904055 -0.21168654 -0.1754723 -0.24491775 0.51891893 -1.0259111 0.024500566 0.69284046 -0.1935093 0.07374578
d_1147 -0.02905231 0.023353621 0.029174922 -0.012913686 0.019516883 -0.010238288 -0.15851876 0.00053191115 0.0033280272 0.034246746 0.08516906 -0.08667494 0.023870874 0.035781562 -0.018538143 0.111712545 0.085737236 -0.02400374 -0.16828714 -0.078877896 0.06666463 0.14646742 -0.03724045 0.026735468 0.11701131 0.025943764 0.21152085 0.04697952 0.021053879 -0.18046078 0.027790813 0.0051087
d_4 -0.09664576 0.07879289 0.0536272 -0.10347034 0.015488254 0.091228284 -0.07649431 0.12376082 -0.052326012 0.09574115 0.042484432 -0.029573081 0.09214665 -0.083776206 0.035490487 0.09221717 0.0021662395 0.082139194 -0.120237164 -0.073590934 0.06899801 -0.10962309 -0.023358287 -0.06172567 0.1339107 -0.032977425 0.20144668 0.00088634924 0.07349412 0.12157825 -0.048220266 -0.030480085
d_280 -0.14439042 0.219525 0.09255165 0.12558204 0.013950433 0.09683881 0.107377954 0.14095883 -0.10572864 0.013462281 0.027355623 -0.023921624 -0.11987377 -0.08019182 0.13774687 0.18477808 0.18041076 0.13383205 0.16672823 -0.030782279 0.037354954 -0.23618141 0.07809405 0.047531597 -0.04076677 -0.14177015 0.20707978 -0.1899155 -0.10448655 0.08416524 -0.12671258 -0.11962597
d_901 -0.20056479 -0.0115236975 -0.017032523 -0.2637656 0.15051597 0.22676201 -0.21193907 0.17556365 -0.27414015 -0.036187325 -0.1032847 -0.0586223 0.1757697 -0.15887648 0.20667468 0.19450095 -0.13245654 0.1739415 -0.150465 0.018765152 0.14975196 -0.27174872 -0.033949558 -0.2307439 0.18966395 -0.000649421 0.233291 0.2784879 -0.0417133 0.146262 0.11067996 0.08886646
d_815 -0.02348684 0.010713706 -0.06702291 -0.0054611377 0.10473282 0.0921313 -0.048984885 0.12222585 -0.09100059 -0.04961335 0.07266243 0.04947553 0.07447459 -0.022781137 0.015743284 0.0422098 0.087951384 0.05736837 -0.14357798 -0.093816504 0.096790954 0.12171343 0.045975663 0.23462255 -0.033075422 0.08692383 0.0799518 -0.07199238 0.086191654 0.03504401 -0.10423339 0.16715729
d_5 -0.0069053248 0.10022818 0.091215126 0.00351711 0.15590113 -0.01735661 -0.10561052 0.029729728 0.14540063 0.024702162 -0.037072446 -0.10470107 0.110970855 0.026592948 0.41261208 0.044234425 0.05984305 0.03698829 0.14147523 0.07327056 0.15574989 -0.23854966 0.093838364 0.08562105 0.18959075 -0.04545171 -0.2028262 0.27109814 0.118392214 0.28986064 -0.038998917 -0.05759701
m_150 0.022716563 0.18905012 0.14632928 -0.0053363815 0.547653 0.12856612 -0.112008594 0.072601445 0.010590589 -0.02333359 0.06121347 -0.19847675 0.25008297 -0.2163659 0.5168556 0.1198151 -0.0335265 0.08848655 0.5008569 -0.020621885 0.20060515 -0.31749856 0.025977142 -0.05803686 0.25948623 0.4106923 0.18958335 0.17887951 0.31115746 0.06683926 -0.12939759 -0.30036056
d_1207 -0.050559413 0.12511781 0.04433933 0.0026340226 0.061927993 -0.009207361 -0.007154967 0.025896553 -0.0022557757 -0.022967227 0.0025902137 -0.02290378 0.11056955 -0.029576628 0.12974791 0.10633556 0.055914298 0.10213721 0.05168707 0.030628435 0.075988166 -0.13790841 0.041320097 0.09295352 0.101172134 -0.0450882 0.0214497 -0.0010889913 0.1641047 0.107048064 -0.040964656 -0.03264637
m_8 -0.043178245 0.09886814 0.1439192 0.11002674 0.06991522 -0.0530908 0.16944896 0.047233086 -0.003840975 0.07422937 -0.03260337 -0.0010043978 0.12473892 -0.0041978713 0.405967 0.14164248 0.02972937 0.12678778 0.11425575 0.16449827 0.058471896 -0.31468052 -0.06690192 0.27910218 0.28785476 0.008176102 0.036863845 0.3567354 0.18607232 0.40538234 0.06643145 -0.16192296
d_44 -0.06262291 0.07181017 0.081087865 -0.028858582 0.016845725 0.036384664 -0.026811918 0.05184554 -0.091955595 0.06467854 0.08047201 -0.07908621 0.07287927 0.07010221 0.08190522 0.08597764 0.048133437 0.0517952 -0.011037607 -0.016812531 0.07547633 -0.08345994 0.042157367 0.080689505 0.056849603 -0.056005187 0.008411196 -0.010958657 0.09595763 -0.007963829 -0.06599094 0.017346704
m_158 0.1077367 0.28198665 0.001263307 -0.05181458 -0.0035959356 -0.070978254 0.036746282 -0.028990505 -0.0055260602 0.20645417 0.0941039 -0.107936256 0.31203085 -0.024638288 0.34196004 0.2010435 -0.06325175 0.119194895 -0.015245967 0.34615186 -0.029428251 -0.48923293 -0.22083652 0.18039753 0.3344724 -0.081153 0.082502134 0.26179224 0.3408322 0.1737404 0.13051863 -0.2749743
d_45 -0.07596858 0.12544382 0.11076662 -0.00426292 0.051316902 -0.001035959 -0.02666972 0.000915383 -0.07171313 0.095452435 0.030826923 -0.055361073 0.11855719 -0.013269757 0.12392824 0.12315331 -0.035523452 0.044501547 -0.09055185 0.026780352 0.009037717 -0.0977399 0.0031810976 0.111391336 0.10444454 -0.010530532 0.05338305 0.0035763243 0.066939294 -0.004881598 -0.017360289 -0.014720356
d_6 -0.041328754 0.054643963 0.037232023 -0.0676042 -0.034576826 0.065213844 -0.020766487 0.07187571 -0.033134233 0.030371696 0.07769635 -0.048627175 0.048024353 0.050972022 0.06290229 0.048108626 0.04456761 0.06795494 -0.07910649 -0.07113618 0.070424266 0.039568674 0.026757699 0.010309132 0.04506723 -0.078980654 0.011976026 0.030580793 0.027164163 0.011851998 -0.043345083 0.023405341
d_152 -0.12843552 0.2779986 -0.030224299 -0.11243494 -0.3802584 0.11694618 -0.13266641 0.10119936 -0.040408403 0.05465503 0.08849442 -0.17111103 0.07631348 0.4555087 -0.080734976 0.048496336 -0.23489237 -0.007606112 -0.2617968 -0.23383906 0.03315074 -0.1319289 -0.14956877 -0.02780126 0.062621206 -0.06861584 -0.16048472 0.43975773 0.093642876 -0.3160633 -0.19659053 0.004001829
m_35 -0.3224087 0.23097754 0.4304159 0.18793708 -0.47435206 -0.0867386 -0.009133589 0.18410759 -0.33230668 0.23452157 0.41331166 -0.10504746 0.4313101 0.6628883 0.09487289 0.56044537 0.21043523 -0.04818008 -0.21179569 0.101653054 0.280363 0.27508387 0.2430051 -0.15304583 0.5741744 0.09165708 -0.53867453 0.79165924 0.034762967 0.45616463 0.042849645 -0.45400703
d_420 -0.14946899 -0.044437077 -0.047111943 -0.08483949 -0.066341884 0.054904394 -0.07036844 -0.0583878 0.04998553 0.037676293 0.087618835 -0.1539572 0.17049901 0.18927833 0.007117008 -0.0013090665 -0.0053221527 0.10864849 -0.20876758 -0.14965294 0.0939245 -0.0018920312 0.03523398 -0.010480477 0.18865119 0.07968825 -0.1977287 0.22557108 0.08443209 0.07275603 -0.08297718 0.081217304
d_1065 -0.1275478 0.05753218 0.083820835 -0.04593411 -0.12217478 0.06432058 0.009019252 0.08561745 -0.12877972 0.064465284 0.08262891 -0.043058515 0.09623591 0.024454482 -0.055575233 0.033543393 0.07260882 0.060402706 -0.04748376 0.022928823 0.07016755 -0.10986823 0.04777163 0.0030619917 -0.023346432 -0.018801868 0.10517659 0.013764107 0.02466264 0.12009505 -0.05997504 0.06576384
d_7 -0.12356572 0.093258195 0.05195987 -0.08360938 0.091088384 0.07105466 -0.09829109 0.10492836 -0.07383369 0.019531101 0.059848934 -0.08475412 0.061392322 -0.025696253 0.0029255552 0.0795032 0.04176455 0.09899967 -0.0865194 -0.010428593 0.034097653 -0.055382207 0.0647199 0.019867668 0.061905373 -0.08457084 0.063068114 0.118206374 -0.006498312 -0.014240336 -0.07502272 0.027120402
d_1305 -0.07881971 0.044230063 0.021312147 -0.077579595 0.0059705884 0.1070471 -0.07368319 0.06447352 -0.06659971 0.05787463 0.088073164 -0.062215924 0.060266666 0.045833834 0.09896122 0.09340213 0.04931402 0.05413542 -0.020439161 -0.0809262 0.07116534 -0.06730656 0.059135154 0.017590549 0.07922163 -0.045887325 0.06412914 0.112770975 0.07666918 0.03023028 -0.08761862 0.03852882
d_206 -0.08029697 0.033193093 0.0015682066 -0.18294753 0.24269375 0.1671052 -0.18250234 0.19636016 -0.10895578 -0.064163044 0.04934429 0.005909059 0.023380648 0.0002674549 0.06848163 0.13656014 0.013414935 0.1631161 -0.18415569 0.09489811 0.056339793 -0.19181798 0.08855993 0.049580928 0.13241965 -0.0001069475 0.2808121 0.11242636 -0.1230452 0.21114267 -0.14567992 0.12966844
d_1110 -0.08936395 0.08047055 0.02319015 -0.012990926 -0.08941603 0.035462677 -0.27001062 0.13580336 -0.14916258 0.13836989 0.14936894 -0.04984912 -0.0024433357 0.1815486 0.07793754 0.04289294 0.11890483 0.020543562 0.16676779 -0.13619182 0.061850443 0.04545766 0.090973966 0.051496375 0.107630864 0.0068184338 -0.19442591 0.1311506 0.06792795 -0.22170971 0.16459025 -0.06348977
d_8 -0.07279151 0.024887204 0.0434088 -0.08094485 -0.01189132 0.10684077 -0.029190602 0.07916344 -0.076835625 0.10632623 0.10040184 -0.04115173 0.0007090033 0.03359364 0.069626205 0.03354186 0.019625975 0.09182479 -0.028708529 -0.08169838 0.045146417 0.0283605 0.083558634 0.010151992 0.020176778 0.010650091 0.02746791 0.081212334 0.025570136 -0.07785927 -0.03377746 -0.018053634
d_89 -0.0069150883 0.05431073 0.052923884 -0.058894057 -0.117296204 0.07765406 -0.14795242 0.050138336 -0.04922474 0.08338986 0.102123275 -0.109826766 -0.013746191 0.14550309 0.111526825 0.026852565 0.077454865 0.03200497 0.0040678373 -0.01621542 0.049145713 0.066032216 0.054731663 0.06556718 0.050056912 0.058213353 0.066720955 0.19470927 0.0027777203 -0.13915384 0.04390821 -0.018326992
d_1289 -0.1656851 0.040795773 0.117478415 -0.07376442 0.01815157 0.0073190625 -0.27664122 0.09515013 -0.047541454 0.10954189 0.10030643 -0.0642889 -0.0063912547 -0.029334769 -0.03911612 0.13799596 0.082641 0.11805418 0.14946352 -0.10504907 0.18231758 0.119960554 0.019650722 0.076302335 0.061289076 -0.0049322327 -0.1509514 0.21200791 0.044523958 0.060519062 0.059405543 -0.046199176
d_200 -0.07734214 0.038632803 0.099711634 0.054024562 0.058870617 0.06017582 -0.13403986 0.061677832 0.010572322 0.073186055 0.08556947 -0.11970055 0.06339371 0.13058762 0.13307 -0.081317015 0.15600953 -0.008295553 -0.07586769 0.017607413 0.08122752 -0.05507425 -0.029981505 0.13660857 0.031266026 -0.015319847 -0.030654103 -0.10191843 0.036492277 -0.09383896 0.0167187 0.057002366
d_9 -0.07926853 0.020645032 0.040334366 -0.06042672 -0.053607248 0.038270447 -0.026408719 0.07582613 -0.040380917 0.054081447 0.04956846 -0.068769254 0.018065877 0.07521417 0.08499893 0.025500266 0.09474392 0.039639883 -0.051565506 -0.064867474 0.07264083 0.042396277 0.04729084 0.06853676 0.04254967 -0.081156105 0.08022286 0.05966434 0.009391634 -0.07845411 -0.051993772 0.04962309
d_855 -0.097843885 0.02196047 -0.034155004 -0.04276008 -0.08631585 0.026963616 -0.06326197 0.051312968 0.027367387 0.117023855 0.084283285 -0.1141472 0.050684057 0.09081831 0.084937006 0.048316866 0.069880106 0.038713556 -0.09440812 -0.09887558 0.0643831 0.20420805 -0.019623931 0.14926648 0.060721297 -0.011657528 0.06720709 0.14730234 0.027012432 -0.24844167 -0.030560417 0.11864203
d_494 -0.016164271 0.05502329 -0.042787883 0.013566619 -0.2913909 0.1713774 -0.06542716 0.013865785 0.13560133 0.042247336 0.08045875 -0.07917417 0.069222175 0.15421857 0.0026820647 0.049521036 0.04188624 -0.035731763 -0.057783168 -0.06579568 0.105127394 0.24562402 0.023437044 0.14074671 0.020857837 -0.08133973 0.22546008 0.122922644 -0.012211752 -0.28694564 -0.09601607 0.13105534
m_125 -0.07768141 -0.0027520126 -0.044914763 0.109958604 -0.31372362 0.058271684 -0.047342192 0.067604415 0.07848478 0.05329516 0.036330033 -0.07320035 -0.026414791 0.03256191 0.03736056 -0.015434733 0.020000165 0.011041768 0.014808101 -0.005840469 0.10844137 0.2264638 -0.063348 0.029004823 -0.036050357 -0.037286367 0.1974545 0.22220041 0.025866607 -0.18300276 -0.036543265 0.036187485
d_10 0.0033371076 0.16865112 0.13198504 0.025383746 0.16351235 -0.033483658 -0.06420004 0.096794955 -0.17377324 0.11882103 0.1420313 -0.21810278 0.11524242 0.28250614 -0.11019656 0.14517987 0.13320509 -0.104846664 -0.008368293 0.056682523 0.022144385 -0.021888988 -0.021849865 0.11129626 0.09768245 -0.07456122 -0.18931904 0.12360057 -0.019066349 -0.14437187 0.026133532 0.26085418
d_1070 -0.06961683 -0.005255246 0.030463262 -0.07433151 0.24478358 -0.14168441 -0.010556995 0.099922754 0.055799983 0.10439451 0.047724817 -0.08479989 0.058221184 0.26065862 0.114572264 0.012634952 0.16648106 0.0042202296 0.12537637 -0.020840285 0.03876739 0.036858853 0.033121668 0.15902972 0.018045008 -0.09507284 -0.0383916 -0.050482813 0.09148532 0.033897545 -0.012338063 0.110776775
m_141 0.14489111 -0.09633341 -0.18975697 -0.02796335 0.5022411 -0.017293366 -0.34951758 0.023759222 -0.25164834 0.02944244 0.21032238 -0.07848384 -0.01076052 0.10040831 0.2561195 0.22266063 0.17409337 0.13742381 0.26765168 0.15668043 0.30587378 -0.18489207 0.1053609 -0.18145204 -0.13632064 0.12802267 -0.1667558 -0.05799998 0.50773925 -0.0801466 -0.4292924 0.26447043
d_101 -0.080692545 0.042686224 0.07504453 -0.014420555 0.12523513 0.0037278417 -0.045342177 -0.023918154 -0.036587592 0.086957924 0.09461718 -0.07501127 -0.004075073 0.101994544 0.0119416835 0.02582809 0.12395329 0.10244113 -0.009578899 0.04836546 -0.013595369 0.019875355 0.07746392 0.1522355 0.098666795 -0.11153442 -0.041369952 -0.10389851 0.028815962 -0.061940312 -0.12029671 0.11667459
d_534 0.06264693 0.022073988 -0.072764054 -0.08799906 -0.32541537 -0.0051956335 -0.11899654 0.08731761 0.006225916 0.03252652 0.053457048 -0.016910026 0.09248666 0.05920147 0.022864144 -0.0075055594 0.08504894 0.06485814 0.106230855 -0.06180533 0.054654777 -0.19388787 -0.01919447 0.019537728 0.029903794 -0.013599154 0.27136144 0.024877263 -0.04719811 -0.08153938 -0.07849225 0.060665637
d_11 -0.03324206 0.138804 0.11959307 -0.089989744 0.10291593 -0.04937595 0.10483752 -0.00033220928 -0.10128253 0.15433134 0.14351735 0.05205594 0.108220376 -0.021776646 0.17863548 0.24051131 -0.07833176 0.21684325 -0.1707942 0.20315392 0.093192756 -0.31046975 -0.09719456 0.3371637 0.19550216 0.047217406 0.22092131 0.10709189 0.24168596 0.30685797 0.070856825 -0.098991506
d_898 0.07389621 0.12909806 0.08550369 0.043045916 0.16116859 -0.010972495 -0.037144057 -0.01967289 -0.048814707 0.12183916 0.114143796 0.03323421 0.11515325 -0.115728684 0.07332382 0.06488765 -0.0035117185 0.040820044 -0.07396501 0.018236633 0.03870622 -0.100177914 0.032163218 0.14909522 0.10945438 0.010893244 -0.029778827 0.114481315 0.12440104 0.0967014 0.01701035 -0.010758279
d_519 0.16576406 0.31241065 -0.034190927 0.10083785 0.40048596 0.14990611 -0.07300504 0.061589133 -0.12666304 0.21528381 0.17759588 0.1487805 0.23994793 -0.16813515 0.10154512 0.041820515 -0.074309394 0.05409 -0.07454563 0.1036017 -0.08971365 -0.3554588 -0.033766754 0.3302801 0.22171801 0.10789342 0.14218491 -0.10366756 0.09070076 0.33144838 -0.06704904 0.035324775
m_157 0.043522175 0.20081827 0.010260426 0.022194253 0.36237478 0.044734567 -0.14345168 0.05221297 -0.07416938 0.099406786 0.06961332 0.01777678 0.17514944 -0.13574658 0.04647229 0.028206246 -0.017317334 0.093600854 -0.0126018915 0.10823253 0.05736794 -0.15773751 0.024414992 0.27614862 -0.00065156945 0.0012158849 0.00080056663 0.11100325 0.11046515 0.32361585 -0.034268007 -0.18892193
d_518 0.012169672 0.06814707 0.08783058 -0.021748452 0.098181725 0.041758448 0.004344925 0.074970745 -0.08592949 0.11080957 0.085706115 -0.053714674 0.09985016 -0.100361876 0.069770016 0.12191886 -0.0062932903 0.03663355 -0.030776147 -0.05429299 -0.107159175 -0.14293624 0.097316645 0.13679257 0.156197 0.04477554 -0.0074538356 -0.16508323 0.07677663 0.24409886 -0.15040052 0.03394963
d_12 -0.032989576 0.055090606 0.121225834 0.015980678 0.15427469 -0.053873472 0.000309526 0.00040428154 -0.023870643 0.06922749 0.050661534 -0.02086623 0.097640514 -0.035554145 0.22943513 0.13293561 0.09139754 0.10989903 0.11155055 0.16273396 0.109101884 -0.19474347 -0.049934562 0.08302338 0.056114305 0.029074468 0.1323069 0.064005345 0.22704086 0.19712603 0.02052351 -0.0028233351
d_30 0.040757075 0.0019440227 -0.0022448776 0.024334831 0.35541415 -0.0036142203 -0.11693535 0.16695288 -0.018525906 -0.029899541 0.02909192 -0.09216941 0.07772419 0.080567144 0.15725105 0.041996278 0.008350691 0.01509993 0.054171983 -0.050985698 0.10171777 -0.060183864 -0.028408155 0.006139815 -0.0037257215 -0.023855371 0.018690782 -0.20111208 0.101351105 0.005377142 -0.08843901 -0.02206274
m_65 0.03115208 0.13395762 -0.047452223 0.09881109 0.65952843 -0.21767733 -0.2888176 -0.11188237 0.15843423 0.25030327 0.13619399 -0.2797849 0.28620845 0.048061114 0.47087282 -0.007814578 0.29588455 0.15644285 0.41260186 -0.16064867 0.20443812 -0.23982243 -0.07566251 0.09131618 0.26159105 -0.08444075 -0.29185933 -0.24807636 0.20922348 0.09150296 -0.13588193 0.19632989
d_1331 -0.01110476 0.061243676 0.0046263146 -0.017030414 0.061182708 0.013116279 -0.055223428 0.047126636 -0.062588334 0.03322916 0.007797147 -0.032254834 0.0290474 0.016592173 0.041352782 0.06661749 0.05493834 0.019868221 -0.03731063 -0.07012302 0.059956394 -0.025101008 0.062224865 0.019702442 0.032026198 -0.026969742 0.051268294 -0.027151758 0.016107654 -0.0008218223 -0.048569627 0.0076561132
d_13 -0.057551604 0.17990547 0.061087005 0.02806357 -0.11953599 -0.06767876 0.1559473 -0.07565656 -0.0896467 0.14332594 0.10160414 -0.06268992 0.19183688 0.015959943 0.2155836 0.14333585 -0.09886044 0.11876005 -0.06979536 0.17118856 0.07528265 -0.13543712 -0.039155595 0.103712514 0.09313585 0.017072484 0.116371065 0.049638923 0.17791736 -0.022549022 0.05720082 -0.16171204
d_168 0.011987784 0.17367025 0.07078464 -0.06677614 -0.07984255 0.05343689 0.07305846 -0.017440597 -0.066424586 0.18294412 0.022527158 -0.011401593 0.036973834 0.058425464 0.16051114 0.13146824 0.005536567 0.05419253 -0.08544262 0.1184743 0.008257471 -0.2358182 -0.038806617 0.026169837 0.110589996 -0.049999602 0.08261043 -0.05289331 0.14736862 0.022484442 0.09404081 -0.02506837
d_14 -0.055809874 0.033206657 0.04598826 -0.05022374 0.040264986 0.024824172 -0.0377504 0.004602241 -0.06448771 0.031704742 0.037298992 -0.069403306 0.016532004 0.05210496 -0.005931988 0.040151503 0.029273503 0.020987084 -0.044595897 -0.038712367 0.055471033 -0.0426041 0.019264713 -0.0054249493 0.031423353 -0.016178198 -0.04321638 -0.018667853 0.056079693 -0.04592263 -0.068633564 0.03415807
d_988 -0.043420676 0.013246628 -0.08119426 -0.07579442 0.36130032 0.11306697 -0.26137492 0.0762392 -0.18162702 0.01049325 0.074729286 -0.08770456 -0.04756284 0.19437324 0.16812997 0.17078717 0.079206795 -0.06438139 -0.02711677 0.11471088 0.13385737 -0.33519703 -0.10624133 -0.23772669 -0.03810523 0.09535147 -0.09345807 -0.28562012 0.15875597 -0.32089072 0.03745439 -0.049348272
d_746 -0.046221916 -0.02672232 -0.023362918 -0.053883113 0.081845604 -0.012328358 -0.056862492 0.049749937 -0.0961309 0.06415678 0.032509103 -0.0009624972 0.06912396 0.07571455 0.10009019 0.045562387 0.07214359 0.09480101 0.033906005 -0.067927435 0.016707152 -0.16394036 -0.015872674 0.16547379 0.08243836 -0.050053537 0.019533383 -0.085938 0.048624042 -0.087723434 -0.07001475 0.045386124
d_110 0.013987997 0.06667101 0.033597022 -0.07825236 0.055923402 0.045438383 -0.034434527 0.061792832 0.015663005 0.0092776725 0.058224797 -0.025573663 0.05594141 0.04315608 0.089016326 0.030497912 0.061910715 0.04882195 -0.013940565 -0.009459136 0.0053079156 -0.03136968 0.019204076 0.07556644 0.11732395 -0.036975626 -0.022004912 -0.04454798 0.04615318 0.032907855 -0.061768 0.07736004
d_15 -0.095442265 0.06324902 0.099732086 -0.12744465 0.19700381 -0.13836093 -0.052864976 0.13293004 0.007998853 0.011711091 0.12629865 -0.13389051 0.05931149 0.069312796 0.09190929 0.103251785 0.12211591 0.09094082 -0.008053857 0.059249207 -0.06329878 0.03567144 0.017909333 -0.077729076 0.122750126 -0.11827094 0.20315476 0.011728209 0.07280666 -0.08970592 -0.16401081 -0.10053208
d_586 0.09787877 0.07506777 0.106157556 -0.025760487 0.26204777 -0.08037941 -0.15569541 0.06393629 -0.12583373 0.10794826 0.08492516 -0.16585739 0.19387992 -0.22122066 0.13127357 0.15377969 0.014315184 0.100665964 -0.026525028 -0.043184012 -0.019743484 0.08524909 0.081506036 -0.09059505 -0.016479421 -0.027642226 0.061213687 0.11210744 0.028803153 -0.063970424 -0.16174932 -0.02588097
d_187 -0.1020013 0.040523175 0.11320637 -0.059328124 0.14346881 0.020745091 -0.008081529 0.14391896 -0.116714485 0.14568205 0.0074695977 -0.053780895 0.024020879 -0.09783586 0.10443456 0.09172738 0.08025852 0.21645285 -0.0019393661 0.055837285 -0.10281965 0.028866138 -0.16425021 -0.067797996 0.028984418 -0.06758952 0.28244302 -0.02597133 0.049586967 0.05241909 -0.22777297 -0.079828285
m_147 -0.16280869 0.010809082 0.26405522 -0.27842218 0.34728026 -0.06644608 0.06276751 0.18455385 -0.10590588 0.22199377 0.3305475 -0.14832853 0.2566088 -0.2471774 -0.075153105 0.39864898 0.009024787 0.24722047 -0.18324412 0.030383091 -0.06256133 -0.32579964 0.060811877 -0.48819008 -0.11071412 -0.09724621 -0.020688504 0.12362164 0.05712665 -0.4118058 -0.1624861 -0.2485783
d_313 -0.027922716 -0.01987682 0.007917721 -0.06924753 0.1321323 0.06715499 -0.056983855 0.028318565 0.049926657 0.062667355 -0.0217103 -0.05766163 -0.014854733 0.007597265 0.05724762 0.037532307 0.15551108 0.018408483 -0.03937345 -0.05736629 0.0854225 -0.12156497 0.0386244 0.07039198 0.036843367 -0.0459716 0.08289913 0.07606369 0.10343847 -0.03620082 -0.0155440355 0.08398647
d_16 -0.08367828 0.025544196 0.04933855 0.0734776 -0.016804155 0.026959112 -0.11499629 0.043370716 -0.06817796 -0.02297245 0.06839281 -0.0040572397 0.03775839 -0.018074859 0.14213693 0.0039647617 0.10183122 0.14922391 0.06157249 -0.107238665 0.08247404 0.022319285 0.04138362 0.08617033 0.04980189 0.005762319 0.045732398 0.031933423 0.033118736 0.03541684 -0.0800408 0.099913344
d_17 -0.09543557 0.012589103 -0.009115501 -0.047109313 -0.072434686 -0.027951399 -0.071952276 0.07060004 -0.043220222 0.07235044 0.06618983 -0.13261841 0.07492834 -0.0014078743 0.094236374 0.010406459 0.033146314 0.055566147 -0.020725615 -0.08595785 0.05292718 -0.04868595 0.011435747 0.11904257 0.05556719 0.031183623 0.09397808 0.066557646 0.03801361 0.02794538 -0.027892677 0.0060492684
d_816 -0.19309597 0.039832212 0.11616541 -0.24670565 0.028570239 -0.15388592 -0.031861547 -0.00027807336 -0.095854186 -0.14752406 0.07047155 -0.0034476826 0.065480426 -0.022917453 0.1810854 0.09802575 0.06318102 0.12394743 -0.011623086 0.03816218 0.16334814 -0.22616631 -0.012616761 0.04550709 0.1741399 0.1775482 0.07019538 0.022637991 0.12783201 0.16183338 -0.09242533 -0.15198214
d_1162 -0.14343914 0.13310239 0.0983569 -0.13518769 -0.011948471 0.032863434 0.05952618 -0.012072269 -0.021849772 0.066192396 0.03851775 0.039460257 0.002150034 -0.09859528 0.12479162 0.016786346 -0.008628964 0.029149221 0.054617535 -0.10836309 0.11372337 -0.015052162 0.029374521 0.085924394 -0.019744596 0.05920769 0.18819141 0.09463677 0.04807262 0.108519346 -0.082516395 0.01564029
d_243 -0.03499775 0.061905093 0.30742282 0.03548536 0.24194278 -0.06357981 -0.26382577 0.179045 -0.1909373 0.16359046 0.116596505 0.09596451 0.29878822 0.09213039 0.12667935 0.14291088 0.22815254 0.15049297 -0.034796774 -0.15481977 0.05143198 -0.034047157 -0.026855066 -0.12342627 -0.014640483 0.067649044 -0.013238352 -0.34658542 0.052335456 0.44529548 -0.030143872 0.22672449
d_50 -0.04416569 0.058057025 0.16814551 -0.15158355 -0.16268487 0.019735985 -0.14074983 0.07967763 -0.1617532 0.008687798 0.11105959 -0.078260034 -0.03726677 0.18504477 -0.06678663 0.14827506 0.19181535 0.0758353 -0.019605989 -0.01492319 0.14887308 -0.012863971 0.03817846 -0.06262621 0.09501327 -0.09264831 0.19903076 -0.028416466 0.18103002 0.12063606 -0.0073206956 0.13864005
d_255 -0.06250533 -0.016817525 0.08145075 -0.083286166 -0.07351621 0.06102033 -0.12235424 -0.014529852 0.007613721 0.077811085 0.12722453 -0.10170577 0.083389215 0.07852573 0.05819383 0.13761333 0.06503199 0.11627123 -0.055645827 -0.14762822 0.10312129 0.025552968 0.061547656 -0.040351886 0.0057928804 -0.08097266 0.26099938 -0.18543808 0.12820113 0.08927073 -0.040864676 0.12382309
d_18 -0.046948172 0.07004919 0.08100055 -0.032642975 0.070948705 0.07077151 -0.11506682 0.08973597 -0.02997673 0.09287955 0.07471034 -0.07070029 0.053530008 0.06145245 0.08150971 0.05400809 0.09584683 0.10023919 -0.009673085 -0.06289001 0.11398485 -0.17617576 0.04084705 0.003975846 0.050299913 -0.05199901 0.06832819 -0.002748982 0.062099308 0.026715774 -0.05254241 0.02810881
d_1372 -0.15924704 0.19303516 0.1875697 0.091650106 0.24773248 0.078935936 -0.053285602 0.09621447 -0.16018924 0.14716989 -0.07490395 0.014620049 0.08828293 -0.27954903 0.25051844 0.10166849 0.18933019 0.16668767 0.00736025 -0.16012257 0.11806526 0.16979294 -0.11602312 0.042184602 0.008465479 -0.09266702 0.16100265 0.024367915 0.23084112 0.07239626 -0.10001616 -0.20155379
d_376 0.009940147 0.020192761 -0.011695289 -0.013732972 0.1419641 9.010825e-05 -0.19470924 0.017545272 -0.060081586 0.030235961 0.090747386 -0.11611213 0.08426335 0.02399218 -0.03503854 -0.0070318663 0.14286353 -0.052392054 -0.10506725 -0.060203865 0.009529397 -0.11155312 -0.1049921 0.052661918 0.04193684 -0.05311922 0.0035908865 -0.1495156 0.004611449 -0.04332288 -0.097442545 0.075010076
d_465 -0.071706176 0.081618585 0.10057848 -0.05860504 -0.059374172 -0.05877793 0.116208896 0.036897138 0.06035546 0.0695247 0.22878806 -0.19455838 0.08255867 -0.20050345 -0.162797 -0.06437225 -0.027131185 0.09376371 0.17755105 0.06516038 0.107047066 -0.25279173 0.08261437 0.07010849 0.03664055 -0.16576156 0.14470574 0.06610709 0.092368394 0.07072236 0.102922454 -0.028319925
d_19 -0.1428954 -0.100286305 -0.00017691776 0.102550186 0.2698555 -0.083064295 -0.06708312 0.061989617 0.021587566 -0.022548601 0.03748924 -0.05288045 -0.12866038 0.061179735 0.27371952 0.107110456 0.111180685 0.08922765 0.12512133 0.071981944 0.14507239 -0.13430944 -0.03462381 0.07926904 0.05966128 0.042125963 0.12350067 -0.22368447 0.077762395 0.09135203 -0.048193175 0.14256997
d_69 -0.08467803 0.024805995 0.10428813 -0.091712415 -0.043336835 0.09220109 0.05651928 0.059998356 -0.051832743 0.0779229 0.08486683 -0.021051375 0.069321424 0.009256538 0.10888817 0.08741421 0.045524567 0.09945266 -0.009459818 -0.057087846 0.07481811 -0.11868216 0.049140092 -0.013621245 -0.0029417286 -0.047442265 0.15917024 0.007791935 0.052186772 0.034129508 -0.08728008 0.05415376
d_682 -0.059018187 -0.06317082 0.079864986 -0.035721432 0.12459424 0.0006822713 -0.033820022 0.04757037 -0.0873903 0.056143984 0.112794094 -0.028599741 -0.060044196 0.07245859 0.12973842 -0.032648206 0.048815407 0.040158093 0.052706446 -0.07805717 0.013059566 -0.2080662 0.06697786 0.121636644 0.10983972 -0.12642635 -0.093056336 -0.1642778 0.013322651 0.13651334 -0.04966194 0.016978081
d_681 -0.025010325 0.05578054 0.081608236 -0.0550713 0.06578674 0.07976079 -0.13253313 0.09399881 -0.053384516 0.04282014 -0.0057621966 -0.060474556 0.10904813 -0.09708695 0.05228353 0.055792853 0.10189016 0.105060525 -0.092987984 -0.0053330665 0.015243981 0.105462946 0.11829922 0.09612808 0.086264394 -0.010296598 -0.04181225 0.06070508 0.030012986 -0.101639286 -0.07725517 0.047591675
d_20 -0.14250758 0.024588013 0.0011027581 -0.10103874 -0.047777664 0.107477464 -0.09047615 0.05910905 -0.013294492 0.15928811 -0.008447707 -0.09285454 0.03809237 -0.03655038 -0.05577042 0.02684936 0.08120367 0.012515305 -0.20250157 -0.20482427 0.11916187 -0.23463306 -0.0510701 0.1605865 0.054348886 -0.006903766 0.047302645 -0.21648517 0.1095969 -0.19439428 0.06937159 -0.087157875
d_299 -0.06300605 -0.011391657 0.12517276 -0.05509493 0.19896102 -0.01702007 -0.25800237 0.12081997 -0.01581971 -0.056037 -0.012975663 -0.13630775 -0.009995402 -0.024834026 0.06632533 0.12785584 0.0978388 0.016303899 -0.10374334 -0.041575763 0.12331551 -0.08795786 -0.049561154 -0.07463026 -0.010454614 -0.07196574 -0.0032823565 -0.2159847 0.14022465 0.012159774 -0.059030436 0.010313469
d_339 -0.21913014 0.013391094 -0.026246376 -0.10961138 0.19740131 0.015198143 -0.25143164 0.124595046 -0.039871905 -0.056772597 0.17923981 -0.036082633 -0.24872501 0.09720275 -0.087239616 0.07283481 0.22545739 0.07092559 -0.32715848 0.0044926917 0.08260238 0.09648091 -0.09204395 0.070051745 -0.17416404 -0.13565372 -0.10685276 -0.40949607 0.137478 -0.0536126 -0.015917012 0.22780268
d_869 -0.07541692 -0.07555697 0.07874889 -0.12461439 -0.2056078 -0.076475926 0.038141023 0.074797004 -0.10222986 0.10727456 0.14343263 -0.09632708 0.115872435 0.09910734 0.15022077 0.09605896 0.079996295 0.10859698 -0.0898729 -0.04137619 0.091625676 -0.18510345 -0.015018981 0.07556129 0.051785447 -0.03390522 0.113285795 0.1257723 0.10730312 -0.012970574 0.04423309 0.14879467
d_21 -0.07833395 0.11029183 0.12545185 -0.12790756 0.23746608 0.05287355 -0.14259323 -0.008520326 -0.056562357 0.07729493 0.07093027 -0.1789507 0.15959574 -0.14713486 0.24074544 0.06349575 -0.1011908 0.067722976 0.07036412 -0.040723156 0.004015024 -0.009950843 0.027303066 0.12472491 -0.083710305 -0.0025613485 0.11102273 -0.04632655 0.12155426 -0.020535246 -0.03406503 0.109377295
d_774 -0.052429173 0.1491115 0.20045255 -0.15153007 0.17961183 -0.0984385 0.06953971 -0.026457757 -0.03403826 0.19018881 0.12603824 -0.16581494 0.17480716 0.06671734 -0.058749296 0.042139966 -0.04236803 0.21343823 0.13434544 0.151722 0.14264026 -0.25577784 -0.07326854 0.016050247 -0.10416359 -0.17465074 -0.28268233 -0.24542066 0.16770117 0.2733453 -0.09661685 0.13320191
d_207 -0.03058842 0.018872172 -0.012075391 -0.008916788 0.06217378 0.101628065 -0.10948617 0.02808107 -0.077446565 0.0009221509 0.06324376 -0.029185623 0.061587874 0.06951649 0.087077186 0.02903235 -0.03166512 0.045317665 -0.10828471 0.013019305 0.03556611 -0.082021065 0.064794526 0.110876374 0.017582575 0.026195526 0.015546103 0.023905573 0.033090137 -0.14412501 -0.19621593 0.16051786
d_22 -0.036292925 0.13618557 0.03594275 0.036411233 0.08331986 0.046453953 -0.044294074 0.015409083 -0.021201402 0.09680501 0.04314933 -0.07753463 0.035989746 0.0036304053 -0.024008188 0.1158107 0.073146954 0.08917638 0.05546084 -0.006030609 0.07848087 0.075135425 0.07741259 0.12803066 0.02802106 -0.057448465 0.10568129 -0.060745053 0.11730522 -0.09474834 -0.024988344 0.010706089
d_875 0.017336141 0.012885694 -0.030257162 -0.0248225 0.2246047 0.044329 -0.14354905 -0.011106212 -0.17624187 0.087825246 0.035900645 -0.06469566 0.15687042 -0.06458014 0.16913265 0.04343767 0.041981284 0.055072565 0.0006555151 0.07929782 0.03002428 -0.167479 -0.009893719 0.049972743 0.13119307 -0.006709325 0.119533174 0.01830654 0.11946996 -0.13309138 -0.08472565 -0.078168504
d_1300 -0.056107495 0.040937994 0.08280038 0.017435057 -0.07122863 -0.033476755 -0.044635527 0.062135033 -0.07137735 -0.011552768 0.07861243 -0.015292048 0.051480655 0.028428348 -0.037796546 0.060624678 0.06695254 0.06519154 -0.022923851 -0.035745583 0.01735768 -0.034818996 0.03510007 0.05341783 -0.011192408 -0.03978431 0.03311964 -0.015645074 0.013126306 0.020982658 -0.054938667 -0.025705846
d_23 -0.019147733 0.04098852 -0.025499163 -0.0270725 0.111774966 0.036926124 -0.10485206 0.053385504 -0.020005267 0.04403176 -0.00012662029 -0.05955746 0.028864052 0.1503059 0.08776552 0.01764558 0.010611776 0.0019973405 -0.042003334 -0.057451174 0.07134865 -0.14970326 0.0567872 0.11936794 0.010353075 -0.08259407 0.015374372 -0.060112428 0.078177065 0.028756063 -0.007115438 0.09713384
d_256 -0.0067172293 0.09559383 0.04321503 -0.068960205 0.12582745 0.04044331 -0.077057764 -0.06423228 -0.053522106 0.060423482 0.046534725 -0.05529336 0.046673834 0.1494413 0.110103905 0.05871615 0.09787181 -0.00534204 -0.0251059 -0.044320747 0.027134076 -0.1318927 0.06028625 0.0076552504 0.0022080452 -0.0021652859 0.021635717 -0.34546146 0.029002985 0.21006106 -0.051060464 0.027263839
m_68 0.05171122 0.032552425 -0.21475807 -0.06070721 -0.24255235 -0.06582195 0.3125184 0.20591038 0.32940063 0.21645384 -0.14554079 0.16563359 -0.046338465 0.26671305 -0.12142882 -0.059373733 -0.1159439 -0.0016968953 -0.04590703 -0.13115023 0.14724037 -0.35274807 -0.11588295 0.6565869 0.25654897 -0.35547015 0.06721292 0.26145464 -0.18969022 0.34548476 -0.48335803 0.14700213
d_1339 0.06608806 -0.019288711 0.00404285 -0.13067214 -0.018161226 0.11700599 -0.04861967 -0.009757682 -0.02286699 -0.009418752 0.052605398 -0.045385346 -0.027101442 0.05343061 -0.10806491 -0.005986495 0.014085161 -0.025729373 -0.030733153 0.026923064 0.01466332 0.10363004 0.10308912 -0.04963723 -0.04324513 -0.097368136 0.19154197 0.09764187 0.0065284753 -0.19547819 -0.0062674335 0.04807021
d_24 -0.031810734 0.09753168 0.09098224 0.15280405 0.18691096 0.10599353 -0.22602996 0.061126858 0.090212144 0.12552969 0.035111897 -0.08363493 0.051996768 -0.17402488 0.03530495 0.12832914 0.10902433 0.14040971 0.03951088 -0.089780696 0.12727222 -0.14377068 0.04463485 0.16451204 -0.059174784 -0.0764398 0.12676224 0.00062566996 0.14588985 -0.18237019 0.0055081667 0.075273246
d_1113 -0.045473576 0.01894549 -0.03291732 -0.061376788 -0.06589411 0.051515274 -0.14261228 0.09392932 -0.0663052 0.033651847 0.05580485 -0.1092336 -0.044288617 0.17239444 0.11380057 -0.006308086 0.07060101 0.070304096 -0.04755462 -0.07479464 0.031131694 0.06739199 -0.018037628 0.04847433 0.048370495 -0.069634736 -0.010327247 -0.014422929 0.01707476 -0.12781711 0.015180532 -0.015128363
d_524 -0.044974864 0.05654228 -0.010043033 -0.02807789 0.19208123 -0.02085568 -0.1405181 0.029710408 0.0028155814 0.0994481 0.08538148 -0.071410894 0.13138957 0.020126548 0.020308059 0.08318575 0.13252954 0.010694096 -0.065961316 0.01549897 0.04582469 0.1526937 0.055938892 0.10753323 0.098028466 -0.067891896 -0.0068217013 0.068211004 0.010486331 -0.14953047 -0.03750982 0.09196274
d_142 -0.16486603 0.16900714 0.16498578 0.004309764 -0.05602436 0.09579123 -0.09433199 0.035584442 -0.05139294 0.121230565 0.15596944 -0.14385432 0.12072775 0.011961221 -0.29280892 0.052559216 0.2354003 0.09145991 -0.1194262 -0.118951276 0.041618824 -0.40635952 -0.07052027 0.4176425 -0.099307604 -0.15151359 -0.3702846 -0.26368627 0.033950094 -0.25508264 -0.15487128 -0.20739856
d_25 -0.042928018 0.035113912 0.0049192146 -0.023889376 0.03887296 0.017935876 -0.12618853 0.03157194 -0.04731341 0.030786239 0.03692827 -0.077753246 0.075798705 0.016438417 0.04735948 0.0026162695 0.02064886 0.026980693 0.06534297 -0.029824775 -0.009923278 0.05172389 0.035644166 0.06765427 0.0327471 -0.027779328 0.13280375 -0.006205744 0.019453127 -0.015920406 -0.118697405 -0.019730493
d_43 -0.073571146 0.095717914 0.0029868674 -0.027783198 0.17556149 0.05646252 -0.13735506 0.044636924 0.017971523 -0.0012931157 0.011810446 0.00812491 0.07151882 0.00018207962 0.1709037 0.037611607 0.045169983 0.084945954 0.06459445 -0.070627734 0.09948167 -0.020322587 0.08260973 0.09320567 0.017930996 -0.031698003 0.12760444 -0.060004786 0.0638706 0.14348781 -0.11107018 0.047579993
d_938 0.043480523 0.02230339 0.07204743 -0.015484729 0.22314571 0.039756484 -0.0790434 0.048459843 -0.084223 0.078929454 0.08397449 -0.0141294915 0.06967969 -0.009591309 0.117737964 0.017889578 -0.0006229904 0.014634268 -0.04536275 -0.037500486 0.013533307 -0.029080445 0.029083274 0.18724798 0.067684986 -0.07744167 -0.0028071445 0.06481704 0.0009645816 -0.07771556 -0.09304825 0.0797563
d_430 0.055447817 0.05920073 0.012365219 -0.14470296 0.05404763 0.10348602 -0.043448396 0.11160021 0.072338454 0.10579556 0.056809943 -0.08637041 0.045686062 -0.014834212 -0.0496271 0.020433538 -0.066054195 0.041355908 -0.06859216 -0.08382912 0.0546961 -0.07289429 0.20601903 0.05768739 0.0035737355 0.035533402 0.053663447 0.14532527 -0.06912973 0.05478422 -0.13102594 0.13184296
d_26 -0.029368974 0.11189536 0.09474929 0.059468567 -0.03576308 0.058277305 -0.18586275 -0.16603039 -0.17460395 0.08061985 -0.03401314 -0.04451748 0.077662244 0.12002309 -0.065467834 0.009603412 -0.04785868 -0.1515516 -0.017054116 -0.020014545 0.13193658 0.055707764 0.040799614 -0.049423937 -0.019178383 -0.19242565 0.07433733 -0.02218564 0.110893235 -0.16833317 -0.0035990179 -0.013432214
d_121 -0.042977795 0.0045759846 0.034247093 -0.0055981455 0.103826396 0.06743841 -0.08552549 0.076765 -0.053145 0.08552775 0.0042540357 -0.07033049 -0.062993094 0.06130451 0.05732464 -0.041367162 0.040724337 0.04856264 0.0113119865 -0.026425032 -0.020656476 -0.013202792 -0.049550842 -0.0008195463 -0.025073411 -0.07315249 0.033412598 -0.078712344 0.070565395 -0.114278644 0.07059426 0.019574976
d_27 -0.031169295 0.0525689 0.06673337 -0.037350956 0.32437673 0.01356834 -0.13572311 0.03958807 -0.05114929 -0.033314854 0.030489193 -0.10740578 0.04160356 -0.032820664 0.15242586 0.027480014 0.036454763 0.0741622 -0.03743385 -0.11658248 0.064034805 0.0021643844 0.09853564 0.0024563754 0.039658222 -0.10380599 0.041580312 -0.16408506 0.06369497 -0.07623908 -0.12022622 0.10824732
d_324 -0.019787617 0.079522304 -0.011386481 -0.07305093 0.23380163 0.018021472 0.037828702 0.03472047 -0.068797 0.097104415 -0.05754991 0.06930515 -0.070104234 0.18527247 0.11004387 0.07200768 0.15680775 0.051501483 0.0573817 0.018183505 0.11031575 0.040396594 0.044440843 -0.028758062 0.09353745 0.090305634 0.054193947 0.04434508 0.15062748 0.029043984 -0.11514067 -0.054528043
d_135 -0.10330231 -0.028097617 0.031229433 -0.038106337 0.069939 -0.04698327 -0.11756921 -0.0037633115 -0.00053315517 -0.07552392 0.06494475 -0.0018346882 0.014370858 0.047890976 0.13861617 0.052950248 0.067963 0.071916275 0.13286977 -0.02583612 0.094414234 -0.03528861 0.07730507 0.093802065 0.06381043 0.046323925 0.106093876 0.13933612 0.13048826 0.07783872 -0.10975339 -0.037380636
d_28 0.042743348 -0.09325632 0.08110546 -0.061045848 0.14029111 0.029224366 -0.22245409 -0.037652962 -0.04373888 0.11955789 0.05829335 0.09881922 -0.06849884 0.24752972 0.43959275 0.1549657 0.2044811 0.028781902 0.28607062 0.043279797 0.11966828 -0.15244399 -0.06720119 0.34307536 0.25317574 0.040673383 -0.062544376 -0.14887294 0.29618356 -0.10699013 0.16141209 -0.017655909
d_1206 -0.021934632 0.11229504 0.04175916 -0.07687094 0.11916512 0.023027021 -0.06765099 0.13548337 -0.073004365 -0.05516706 0.018871319 -0.029806588 0.12551992 -0.11072253 0.12602605 0.08210443 -0.0554025 0.039984632 0.0067746085 0.0038431983 -0.0038077836 0.035788227 0.09929476 -0.008600761 0.062686406 0.0017470184 0.13347487 0.097108 0.08388063 -0.008949297 -0.08016712 -0.029479325
d_29 -0.027272385 -0.035032213 0.005997128 -0.078342244 0.14028397 0.04988295 -0.04661961 0.014376696 -0.07743798 0.024803497 -0.008605527 -0.05855033 0.02581947 0.18652229 0.10296204 0.082560934 0.018563999 0.0049529383 0.06388827 -0.08604758 0.0065974407 -0.13206935 0.05409925 0.06934307 0.06655595 -0.054568354 -0.08145829 -0.16736825 0.11079374 0.12470379 0.036699418 0.08178178
d_31 -0.004097149 0.044011105 0.045584235 -0.023135081 0.08708018 0.04191644 -0.019775458 -0.028108852 0.040902775 0.017927893 0.06504471 -0.026573 -0.0063672913 0.010618198 0.027391389 -0.026096007 0.13632664 0.043228284 -0.057665538 -0.025752032 0.081179865 0.048060752 -0.033533685 -0.0182265 0.03453989 -0.08696613 0.20693286 -0.21298209 0.20381853 -0.07549606 0.046564236 0.052820124
d_1067 0.017607322 0.067119025 -0.021785317 -0.039150797 0.19635643 0.056180578 -0.12016992 0.021722296 0.008654297 -0.04514988 -0.0036687688 -0.05778048 0.076710775 0.21145017 0.15752885 0.1542447 0.073345035 0.02220513 0.020914935 0.095065504 0.019927956 -0.2585057 -0.03708525 0.07796643 0.17821646 -0.07107632 0.03635787 -0.047085576 0.061811503 -0.0039123655 -0.09792811 0.14714564
d_544 -0.087417364 0.028564852 0.022320144 -0.14462693 0.09860873 0.123921536 -0.2264459 -0.02776539 -0.16596478 0.07877705 0.0088112485 -0.10930353 0.024091775 0.11029304 0.05501187 0.04623192 0.12003717 0.056825746 0.017160749 -0.03019823 0.06729912 0.03751013 0.01300374 -0.07052299 -0.0041216966 -0.07463874 -0.0182848 0.036313307 0.11641511 -0.10609006 0.011161414 -0.008178288
d_959 -0.0043660756 0.10037125 0.087176785 0.033232935 0.39265805 0.0038023586 -0.107459754 -0.0058607664 -0.050211936 0.12168602 0.11026447 -0.21930866 0.046504505 -0.11446632 0.069714695 -0.10759751 0.16428152 0.09502907 0.1881529 -0.09528328 0.073231384 -0.028071797 0.050575253 0.24756241 -0.014472657 0.078004286 -0.11514685 0.104542315 0.0079120435 -0.0045669097 -0.26933601 -0.014853485
d_732 0.0047678533 0.03809975 0.09420975 0.08533733 0.013886011 0.051939882 0.034054257 0.12669493 -0.13738021 0.07399664 -0.014891961 -0.18804087 0.00971583 -0.034873992 0.05608024 0.017706923 -0.016303657 0.027421499 0.09624958 -0.07422032 -0.07302157 -0.12339434 0.12494214 0.09929584 0.08536633 0.06268983 -0.22952545 0.092767805 0.06306945 0.00721452 -0.13767655 -0.020666195
m_127 0.03699674 0.08408008 0.13016956 0.09428282 0.06525843 0.03504264 -0.053249203 0.07742853 0.0064631607 0.021343023 0.037874557 -0.100949615 -0.07689741 -0.117066756 0.2428072 -0.0027364884 -0.019267619 -0.06748307 0.13560118 0.022689326 -0.12082817 -0.08298694 0.14364536 0.070681 0.014344239 -0.012446845 -0.07589094 0.20048638 0.03168033 -0.09021339 -0.14182116 -0.036938388
d_1062 -0.03341584 0.13984814 -0.014417125 0.059168264 0.016146723 0.14463608 -0.065787524 0.07874217 0.036901947 0.07172817 0.06870712 0.016420031 0.0059265574 0.197687 0.10834149 -0.090337396 0.1171222 -0.045127485 0.08537497 -0.051234514 0.060116902 -0.020574376 0.044004697 0.00475543 -0.0561939 -0.023855425 0.07676802 0.022598395 0.14532293 -0.07748681 0.07316703 0.096509285
m_3 -0.08249647 0.05063713 0.04466263 0.06990542 0.012301978 0.12578918 -0.05333363 0.010194601 -0.06696396 0.13979235 0.10832093 -0.122304566 -0.08598372 0.17810331 0.08104512 0.06594535 0.109019406 -0.0059944936 0.014678549 -0.07365379 0.03229473 -0.08167574 -0.023211502 0.10719267 0.09127239 -0.11491366 -0.006747236 0.22681676 0.0497639 -0.110721536 0.03761649 0.0048121805
d_703 0.03454528 -0.00799251 -0.0068592094 -0.0663272 -0.11136573 0.069094926 -0.0067603253 0.14276929 -0.050697252 -0.012127767 0.0871879 0.01096597 0.016744085 0.08621768 0.14212526 -0.0106861275 0.029239714 0.035001975 -0.04968862 0.028922448 -0.0071817986 -0.18525067 0.07052834 -0.011114527 -0.039140888 -0.11348334 -0.005119327 0.0007477151 0.081300154 0.1713889 -0.008125444 -0.0056705447
d_277 -0.09566059 0.22906694 0.0062965257 -0.1292633 -0.057994682 0.10851567 -0.14800863 -0.04322511 0.13086645 -0.13038747 -0.02093124 -0.11265885 0.032405395 0.17105852 0.0666838 0.14282927 -0.053776853 0.0030855513 0.011972192 -0.0270638 0.1157618 -0.27151746 0.13849874 0.23277296 0.12981415 -0.09660349 0.17645307 0.016645156 0.20879675 -0.23033953 0.011259671 0.054886077
d_32 -0.051774736 0.062643826 0.067247525 -0.085503414 -0.05368021 0.009186709 -0.046125673 0.109559715 -0.07979332 0.061687373 0.043301035 -0.10486953 0.09738598 0.052708644 0.023955747 0.05318577 0.05713048 0.034696817 -0.050807357 -0.06034749 0.01957736 0.04216243 0.07434459 0.055307306 0.016245447 -0.039352547 0.09535689 0.0318692 0.07835921 -0.049253084 -0.054682057 -0.0012804046
d_318 0.012488489 0.08357919 0.12366351 -0.05130448 -0.06536649 0.05129213 0.09717773 0.11110886 -0.104621 -0.060412 0.03447805 -0.022312436 0.1475997 0.0976008 -0.07899089 0.1337212 0.031717274 0.019994752 -0.08320135 -0.12570931 0.015011552 0.11315971 0.07414913 0.21664572 0.00075549074 -0.093906 -0.1614783 0.30484772 0.10137479 -0.009584159 -0.12431738 -0.20375177
d_623 -0.11684172 0.10276216 0.18714255 -0.16359495 -0.18784922 -0.058655426 0.011825619 0.060509183 -0.05957317 0.095750704 0.081862114 -0.07813808 0.1389532 0.13288048 0.06743783 0.014224536 0.15514918 0.0498839 -0.14940777 -0.08085003 -0.07612332 0.084071524 0.11392682 0.14361094 -0.034460016 -0.0326082 -0.043552294 0.20616308 0.15573074 -0.25907865 -0.09324254 -0.04472677
m_160 0.059234194 0.06854644 0.26442704 -0.19843912 -0.17188933 0.028357696 0.016743852 0.0497818 -0.08430947 0.08617302 0.0708871 -0.09522335 0.1762492 0.25555697 -0.100786865 0.21232742 0.21326835 -0.0153215695 0.08728353 -0.044814494 -0.03179513 0.2650574 0.1390541 0.22176428 -0.087187506 0.10963879 -0.04660228 0.30284786 0.20937684 -0.24898241 -0.16211677 -0.13721873
d_33 0.07696279 0.19199257 0.13573787 -0.15342991 -0.24934229 0.22144829 0.0175233 0.20001744 -0.013349266 0.11906476 0.100916944 0.06485535 0.08874692 0.004062906 -0.17048584 0.00062383804 0.13689499 0.00760307 0.09998074 0.07947892 0.13582775 -0.08616003 0.06970387 0.08321757 0.1799232 -0.19134985 -0.027502146 -0.12118246 0.22795472 0.026644617 0.053827945 -0.23303589
d_957 -0.080920696 0.034457963 0.096557595 -0.058080796 -0.1553375 0.00088058645 -0.078937456 0.09396833 -0.09386123 0.037083995 0.08099045 0.01728798 -0.011585917 0.04454297 0.06014593 0.06384718 0.015264023 0.03660368 -0.008984689 0.025866268 0.038321666 0.1734653 0.0934148 0.15348433 0.040178537 -0.06071214 0.16319534 0.13618125 0.103268355 0.03657065 0.013382283 -0.048958864
d_812 -0.04865808 0.065892674 0.10026986 -0.06727605 -0.022139568 0.0895718 -0.076089054 0.1086953 -0.011436963 0.040961407 0.11664786 -0.075882494 0.11325619 0.11414784 0.018986415 0.106773734 0.03867685 0.029161904 -0.058036737 -0.07087247 0.073270306 -0.10584829 0.08833283 0.031004712 0.06483645 -0.114698425 0.0052423747 0.000592181 0.12343139 0.02165552 -0.022893585 -0.044449
d_34 -0.08311908 0.047052823 0.04898976 -0.05016749 0.14264867 0.105341256 0.0050377613 0.030889422 -0.075745076 0.04369402 0.036758207 -0.050157126 0.11556338 0.029141117 0.06859261 0.05758955 0.010539152 0.08861702 0.00090251956 -0.0692166 0.03963889 0.028360978 0.034394078 0.13182057 0.002805706 -0.0814765 -0.054968312 -0.15728533 0.03795978 -0.071427606 -0.055826284 0.029184064
m_76 -0.22606236 0.07932112 0.11453288 -0.33714893 0.9026617 0.06084638 0.46064204 -0.057782456 -0.21689135 0.15778129 -0.06677021 -0.05058061 0.12217419 0.46026972 0.38843027 0.02468647 -0.17236671 0.2946064 0.0069802073 -0.3294043 0.12904538 -0.8173888 -0.040558927 -0.36445022 -0.06791461 -0.2521614 -0.74447125 -0.62602913 0.021640223 -0.31819353 -0.3371436 0.16869888
d_902 -0.011727569 -0.0013282904 0.05760963 -0.06228438 -0.10728098 0.02256382 0.08142549 -0.039810244 -0.024812013 -0.01055048 0.039535772 -0.025541471 0.06639816 0.053808123 0.039341338 0.015495393 0.0691593 0.07733637 0.01047905 -0.029521063 0.005090056 0.0648382 0.011261292 0.044299584 0.060630336 -0.0011605234 -0.1426901 -0.166192 0.02370193 0.090241 -0.018912528 0.019317234
m_146 -0.052702524 -0.008757923 0.06690149 -0.0673587 0.031654287 -0.05099773 0.008392788 -0.07310683 -0.082297474 0.01884104 0.07740856 -0.06895546 0.12534103 0.03289677 0.043649826 0.015823318 0.1232741 0.11534037 0.005506437 -0.020071145 0.014680864 0.102363504 0.02288795 0.063803636 0.107443444 0.051662285 -0.06728811 -0.23409356 0.14933626 0.079020925 -0.029791232 -0.038075294
d_809 -0.06766689 0.044756066 0.018141953 0.0029511128 -0.015875254 0.01006196 0.0015115397 0.038693186 -0.060874764 0.020312963 0.058168445 -0.04057906 0.04329877 0.009729634 0.031133862 0.026703555 0.007881799 0.06359427 -0.014762375 -0.078657866 0.057428412 0.13803965 0.065824874 0.055478405 0.023488257 -0.052706774 0.00989429 -0.010714591 0.01759633 -0.085318126 -0.012843263 -0.040138613
d_35 -0.06442437 0.03444566 0.032893557 -0.08268093 0.06890675 0.060463358 -0.016441181 0.020762704 -0.09166801 0.0640865 0.019276233 -0.047300026 0.043176305 0.04517131 0.07131841 0.040086832 0.035134923 0.09734441 0.0238135 -0.064359486 0.028187439 -0.029816354 0.025786811 0.03803096 0.02559548 -0.10179978 -0.069100894 -0.04431843 0.03878334 -0.06889274 -0.08708822 -0.00730259
d_735 -0.066405065 0.049378198 0.06003961 -0.105110794 0.13097484 0.052395213 0.12667572 -0.038754135 -0.05018762 0.067088164 0.00057425164 -0.047773123 0.028155679 0.14797729 0.08744554 0.04779333 -0.039292075 0.04171876 0.01830958 -0.14091839 0.041721508 -0.2885364 0.06746076 -0.016225576 0.04149318 0.012950938 -0.16444555 -0.14241199 -0.052631818 -0.033051398 -0.07209776 -0.049509544
d_91 -0.31715453 0.066718325 0.03388352 -0.21712324 0.31029025 0.079965256 0.20186347 0.008612773 -0.1580077 0.13826162 -0.09284353 -0.056358535 0.13542868 0.23797016 0.4129116 0.08044378 -0.06303802 0.2273392 0.018578626 -0.31246552 -0.045958605 -0.26976618 0.046388086 -0.016362289 -0.14558889 -0.2309604 -0.23600456 -0.1772405 -0.05134536 -0.16485529 -0.3053112 -0.09441985
d_598 -0.21370524 0.0050268937 0.0920367 -0.29735512 -0.036017008 -0.08975404 0.14452216 0.08736923 -0.10189992 0.20154257 -0.07419631 0.022487449 0.07319901 0.3095172 0.305628 -0.0459778 -0.060159035 0.10729708 -0.04673936 -0.23819028 -0.030991185 -0.27833197 -0.08343689 -0.10316938 -0.052458964 -0.20571747 -0.25834006 -0.29344454 -0.10833602 0.0030423421 -0.29517114 0.0343095
d_36 -0.024474218 0.049890492 0.013038754 -0.006027134 0.18016028 0.11624727 -0.18137756 0.06449382 -0.00039463164 0.026165836 0.016662147 -0.11967866 0.072591856 -0.14578396 0.2107349 0.116177835 0.016648205 0.05424979 0.16434973 0.0819024 0.14433368 -0.12225273 0.11862434 0.17017023 0.12602678 0.010471607 0.20035414 0.14211822 0.13851051 0.04227255 -0.08427414 -0.055813164
d_1160 -0.03699348 0.1151602 0.124653235 -0.12143361 0.14255585 -0.004308274 -0.048695326 0.03994722 0.0027103778 0.011163687 -0.015982058 -0.0410084 0.14548315 -0.1047319 0.20930412 0.08281444 0.15182288 0.10271192 0.1596297 0.04535896 0.07034888 -0.0459207 0.0036472525 0.20589247 0.21268931 -0.036464803 0.15238433 0.13464428 0.19679418 0.10974434 -0.040405694 -0.12392037
d_916 -0.03096342 0.047712047 0.071129784 -0.05292809 0.05466409 0.05312769 -0.069429725 0.03978035 -0.044577274 0.05582952 0.04833053 -0.042543434 0.059426475 0.08578725 0.03384142 0.07379417 0.059484225 0.01749546 -0.0392737 -0.055079687 0.0049973037 -0.01624141 0.01836082 0.047590125 0.028299702 -0.07275839 0.025228614 0.0009727068 0.059465718 0.0059978077 -0.07889804 0.06524024
d_37 0.024242098 -0.0060192393 0.04301372 0.075861156 0.25768405 -0.057736173 -0.1658115 0.051121026 -0.121352844 0.09299074 0.01948848 -0.000110175286 -0.026570182 0.04333938 0.107037246 0.02389719 0.19810778 -0.12683333 0.20199008 0.12084839 0.09850331 -0.3527884 -0.027025279 0.2734292 0.16939607 0.005689284 0.38428763 -0.04712077 0.26371646 -0.13798556 -0.16432981 0.16640025
d_120 -0.07690582 0.061294843 0.090167716 -0.13980895 0.17780274 0.21780945 -0.21342933 0.10224 -0.024849316 -0.014051462 -0.040911306 -0.028254662 0.18306506 -0.059828665 0.18609424 0.07994903 0.14088164 0.066321865 0.26963547 0.040410917 0.16503453 -0.24661462 0.19131427 0.20379435 0.14577976 0.085509196 0.07400159 -0.049788326 0.1734275 0.18704267 -0.16002995 0.044704072
d_1005 -0.027806718 0.0023335405 -0.009632187 0.019720938 -0.034174662 0.006934932 -0.06161328 0.051797196 -0.053191423 -0.0077459244 0.037918746 -0.04742432 0.05300079 -0.07778072 0.091142505 0.05029217 0.0338758 0.057164665 -0.030926121 -0.020475913 0.04225766 -0.1336916 0.05285792 0.09087712 0.07967695 -0.05326874 0.015009944 0.05124451 0.09762564 0.045193635 -0.05922384 0.06726968
d_801 0.04573884 0.05062513 0.11215579 -0.08259273 -0.0026348596 0.074998446 -0.023212146 0.039709367 0.03366396 0.016587917 0.06505845 0.0029965881 0.057671115 0.030897483 -0.0035880618 0.036134966 0.02720248 -0.0072846455 0.0014668987 -0.008712878 0.08061889 0.03765697 0.057118833 -0.03729994 0.088024795 -0.07863847 0.13560253 -0.1980373 0.05431111 0.1003531 0.0046883905 0.04278205
d_38 -0.06377563 0.0844916 0.066134796 -0.083776794 -0.08417751 -0.003199955 -0.045944463 0.023514185 -0.064631395 0.031893037 0.059070244 -0.0031408751 0.07451933 0.053230908 0.004046091 0.06635973 0.073562324 0.041170467 -0.03482937 -0.03246927 0.01768144 -0.01090114 0.025739718 0.052351844 0.081379384 -0.04383196 0.07131899 0.0262701 0.084672876 0.019810079 0.020379663 0.01317546
d_579 -0.17837967 0.18478629 0.24639498 0.050140176 -0.31165135 0.04030199 0.12201458 0.01690204 -0.091518074 0.1619693 -0.04468222 -0.07879837 0.078310095 0.34913617 0.15236971 0.027883748 0.18312989 0.05492965 -0.24759948 -0.1080489 -0.023573836 -0.19922855 0.21919632 -0.07999255 0.06561273 -0.058573265 -0.18145353 0.2810124 0.16635484 0.104372956 0.13681072 -0.0393997
d_674 -0.06353175 0.03454649 0.05076069 -0.048658106 -0.36102757 0.06969522 -0.046885826 0.055822503 -0.0015900414 0.076883644 0.08593552 -0.021491822 0.07219804 0.078973934 -0.06770452 0.02550238 0.04810656 0.008827045 -0.11419192 0.00350866 0.054164153 -0.069929585 0.008833292 0.08078912 0.0813959 0.012039263 0.06920864 -0.062479537 0.099760205 0.10341001 -0.034236304 -0.11578296
m_42 -0.043421276 0.09476208 0.091018654 -0.014386088 -0.38198754 0.0638988 -0.0057933847 0.04607066 -0.051657613 0.1563939 -0.013292457 -0.049189042 0.03521168 0.17705983 0.0065703723 0.035392314 0.07329707 0.0767816 0.04528029 0.027197275 0.05349301 0.19004992 0.10428101 0.052811887 -0.0010368333 -0.056192264 0.18436679 -0.04869158 0.109931454 0.066789515 0.033253524 -0.25993896
d_827 0.0152356485 0.029349169 0.036702093 -0.048400298 -0.29506058 0.105528474 0.027090143 0.020817626 -0.1100263 0.05702269 0.07620207 -0.047302794 -0.011808194 0.15559134 0.028906755 -0.03927044 0.12998234 0.067469805 0.039766766 -0.03925909 0.010878122 0.12003364 0.13986601 -0.025486898 0.05473525 -0.005288873 0.07274267 0.009110605 0.12737677 -0.089663275 -0.02905168 -0.12571087
d_39 -0.10728813 0.07329143 0.029920561 -0.10801333 -0.15938625 0.021578586 -0.10070632 0.06418282 -0.0658071 0.039946474 0.04021819 -0.08605193 0.1378862 0.055448193 0.08454749 0.097593345 0.11591554 0.12456384 -0.06280416 -0.08824571 0.08420479 -0.05078533 0.007204197 -0.015852042 0.15003574 -0.016463537 -0.09824685 0.08544689 0.0661496 0.086194195 -0.08829752 0.016187357
d_478 -0.21227653 -0.001549616 -0.06438577 -0.24264543 -0.3107813 -0.035098743 -0.1867118 0.124822386 -0.14242746 0.004910475 0.08593229 -0.030658934 0.19079666 0.28802612 -0.05523812 0.21383007 -0.1557451 0.20514642 -0.25596893 -0.17038323 0.24846855 0.06273345 -0.08259706 -0.058442492 0.2349797 0.0591544 -0.06716541 0.080326036 0.21600416 0.0896679 -0.23360008 -0.085883364
d_156 -0.12967606 0.043884832 -0.0056244293 -0.018074907 -0.03416978 0.082188025 -0.13346615 -0.0019902708 -0.15115662 0.10756366 0.07232398 -0.076303035 0.11267172 0.08588916 0.021788824 0.13332126 -0.09681839 0.14652774 -0.050293703 -0.022342497 0.14063135 0.33737743 0.048361816 -0.01305167 0.06191441 0.024859406 -0.062123884 0.3098608 0.15435351 0.044731922 -0.15948658 0.04983985
d_40 -0.061394166 0.06970034 0.033813123 -0.07829694 -0.08319348 0.0125098415 -0.07181168 0.044322908 -0.030525597 0.09039022 0.104523644 -0.01697678 0.102918655 0.06728774 0.056073636 0.0643869 0.035107 0.018896885 -0.09295645 -0.06956472 0.035398245 -0.06464305 0.032191038 0.055420093 0.088054314 -0.045856733 0.051638678 -0.05205033 0.026412308 0.021465816 -0.068286754 0.044593178
d_434 -0.14210021 0.15607576 0.025562711 0.0125004975 -0.23694132 -0.019869894 0.054309722 0.03891249 0.027598102 -0.02446485 0.14705405 0.030834222 -0.05189327 0.12140583 -0.050297614 0.14229804 0.047421828 0.032604948 -0.19570494 0.063872404 0.054891482 -0.20875631 0.12104668 0.057411022 0.17172259 -0.09468496 -0.08668549 0.038804173 0.09034388 0.14004889 0.115343034 -0.11545012
d_868 -0.07692825 0.07897344 0.08378654 -0.050919846 -0.27543566 0.11258531 -0.025013905 0.09001343 -0.049638238 0.049476087 0.057038788 -0.12419971 0.057659768 0.16784638 -0.009925976 0.08330106 -0.010260663 0.07492963 -0.16350982 0.083836906 0.056900315 -0.100665264 0.1552826 0.05660859 0.05414359 -0.07431694 0.039552055 -0.051792018 0.019977609 0.05021201 -0.031004084 -0.0115768
d_1112 0.008117049 0.039289497 0.040335037 -0.09814895 -0.17857409 0.028582286 -0.053086806 0.08408876 -0.0056122667 0.105419576 0.08485113 -0.058132514 0.078404225 0.12034536 -0.041631196 0.07396773 0.0680316 0.04443588 -0.0450481 0.03223017 0.011564467 -0.053900998 0.056822505 -0.04314986 0.06613185 0.021167371 0.022032887 -0.0006230455 0.08826383 0.09086005 0.001053487 -0.021704903
d_41 -0.076924294 0.014767344 -0.05373292 -0.06556744 -0.13834707 0.115104854 -0.018066613 0.03711568 -0.10153171 0.025184654 0.06944749 0.03472719 0.06922617 -0.027486017 0.07434511 -0.023465713 -7.664319e-05 0.057660975 -0.12233386 -0.031404704 0.02344176 0.0101495255 0.12535731 0.0076327706 0.057187766 0.07296228 0.15682037 0.14757673 0.1531314 -0.11184601 -0.089333005 -0.013693662
d_1084 -0.038089655 0.002699686 0.06018656 0.012126232 -0.24607413 0.049081706 -0.04635396 -0.0024959645 -0.11771111 0.08210395 0.07448415 -0.0486226 0.03890888 0.04641402 0.013935696 0.0029813005 0.09521629 0.02188146 -0.01569485 -0.08442245 0.0344628 -0.0016919472 0.07952489 -0.12456196 0.056246024 0.064477175 0.0017911675 0.09844408 0.060394082 -0.035255816 -0.061231524 0.0073486073
m_39 -0.061360978 0.055568907 0.05808394 -0.09376459 -0.16005015 0.06326482 -0.08729775 -0.023569409 -0.04282566 0.039217472 0.10115834 0.015073128 0.06854255 -0.08095473 0.027549053 0.067903064 0.020160515 0.11251222 -0.071560405 -0.07267571 0.07902726 -0.07570279 0.10710878 -0.1267927 -0.06828958 0.00798322 -0.06685564 0.22832179 0.080563396 -0.010667903 -0.052046183 0.056135204
d_1317 -0.025583861 -0.011653908 0.17689396 -0.0869312 -0.22147317 0.09614687 -0.029345665 -0.024272962 -0.085397765 0.13770802 0.07354079 -0.06811908 0.17893216 0.09704445 0.03810512 0.02365991 0.12376992 -0.07153301 -0.096705526 0.029671062 0.07516662 -0.16069569 0.05239511 0.035312418 0.0873937 0.1396982 -0.084619105 0.10150895 0.07951562 0.006231306 -0.07933754 -0.045359597
d_697 -0.05288899 0.1302898 0.07296042 -0.10059405 -0.18975976 0.07411268 0.07228724 -0.043636706 -0.050563328 0.050171807 -3.1467527e-05 0.016637687 0.083254516 -0.13747399 0.15394124 0.004446214 -0.106216215 0.067567624 0.053563036 -0.18410327 0.12597747 -0.1431335 0.023733895 0.025798906 -0.01877829 0.011168347 0.11428381 0.19226949 0.053897683 0.34837732 -0.14648004 0.033528566
d_42 -0.032485828 -0.026723454 0.042541094 -0.046192117 0.14221546 0.09754049 -0.055989098 -0.001869842 -0.026147937 0.04792661 0.08103932 -0.011049867 0.05513162 -0.024294944 -0.025724985 0.019226149 0.09265504 -0.009735789 -0.03581415 -0.08502211 0.03277589 -0.039252017 0.06409857 0.042547695 0.012692114 -0.058107328 0.12641777 0.017783148 0.076061524 -0.026261296 -0.045712776 -0.00028011203
d_137 0.009797156 0.031651385 0.17335093 -0.15029687 0.14511509 0.066145584 -0.085477576 -0.047824036 -0.15387155 0.096149296 0.07793561 0.029682951 0.15432277 -0.06610386 0.11411928 0.042463202 0.18324701 0.100033365 0.011509184 -0.087491535 0.07672632 -0.016722884 -0.027686283 0.10929631 0.1771695 0.14397192 -0.02784664 -0.027046617 0.116326086 0.0883922 -0.14817856 0.09640735
d_990 -0.029812403 0.0064476766 0.07808236 -0.08097202 0.1597418 0.034357164 -0.038418677 0.094967715 -0.10879885 -0.006426382 0.103537604 -0.012811244 0.060015716 -0.043268833 0.07923417 0.06470561 -0.063739285 0.069267556 -0.046092786 -0.012139557 0.06725669 -0.15250912 -0.015101254 -0.09852686 0.033970002 -0.07356644 0.23505351 0.0028475337 0.116165265 -0.11629105 -0.10005784 0.050473705
d_47 -0.00415319 0.15860721 0.022629585 -0.008895595 0.0775633 0.08689037 -0.058655437 -0.019517237 -0.034926675 0.09636157 0.12343129 -0.032670982 0.15156233 0.018850844 0.13502674 0.12361326 0.031843077 0.05896686 -0.050913025 0.08973337 0.02170178 -0.21952237 0.015813915 0.18342689 0.16971643 -0.044910505 0.1404275 0.13579951 0.2056932 0.18884744 -0.003479219 -0.0912832
d_247 0.023243833 0.11157221 0.062764175 -0.06315876 -0.036855113 0.09208426 -0.013048058 0.04747752 -0.08721693 0.12654269 0.05348698 -0.10140102 0.024338368 -0.008805855 0.15911444 0.12253676 0.056989457 0.06175451 -0.04366962 0.048350334 0.07505043 -0.10861908 0.010579429 0.110466 0.101190045 -0.06804438 0.104392156 0.082844615 0.1648105 0.090812266 -0.016309803 -0.03790227
d_701 0.04404646 0.07355756 0.06847089 -0.12906791 0.16468139 0.007383194 -0.032870665 0.072683655 -0.04631455 0.10219513 0.13600227 0.0052185105 0.09780383 -0.032201365 0.102203086 0.018006634 -0.02902684 0.11612423 -0.09918088 0.046024337 -0.048433542 -0.21331301 0.008177709 0.08712029 0.0994357 0.053102877 0.08368993 -0.08050962 0.06508405 0.056972615 -0.025695603 0.0359207
d_46 0.0002973061 0.025151249 0.030051058 0.006547817 0.017550942 -0.101769514 -0.047731146 0.06376602 0.0095497705 0.060792938 0.015749166 0.018988293 0.093226984 0.0809134 0.11337841 0.07272146 -0.03267901 0.043200627 -0.017227441 0.009911269 0.0095474515 -0.30963656 -0.0042817425 0.16831455 0.057147976 -0.005814365 0.067104965 0.06447255 -0.046114646 0.18095158 -0.008115623 0.03040171
d_219 -0.011762809 0.04131411 0.041824788 -0.01030692 0.05869996 0.018339334 -0.053894147 -0.018559257 -0.020016618 0.04750236 0.085977115 -0.044302918 0.049228918 0.021085378 0.16414751 0.05514972 0.032715093 0.11932245 -0.011880893 -0.078769326 0.052284822 -0.14706968 0.046425648 0.18256733 0.15154012 -0.04641835 0.04503116 0.13585657 0.09281128 0.114395276 -0.0032729805 0.045631725
d_805 -0.021885093 0.12059302 0.06306911 -0.02529329 -0.02571078 0.013622442 -0.032525744 -0.05402343 -0.06330865 0.067622766 0.06489646 0.023606293 0.15087181 0.064548776 0.1876959 0.09457437 -0.006225067 0.05963464 -0.062244017 0.032685902 -0.036890533 -0.14689066 -0.03669672 0.111456 0.19834071 0.036185205 0.08575466 0.081532344 0.104628116 0.119407885 -0.0107575245 -0.080447264
d_696 0.022381194 0.11849057 0.08269797 -0.121145345 0.17035188 0.105756894 0.028364796 0.00046001095 -0.008520786 -0.018529184 -0.0044767046 0.018232308 0.18820558 -0.10818886 0.083378695 0.14309338 0.046163235 0.17737944 0.112661704 0.08985699 0.049945302 -0.12874968 -0.006553809 0.12759031 0.18569724 0.052822087 0.09818311 -0.004648576 0.21455741 0.09220914 -0.04854951 0.017679852
d_48 -0.034177616 0.0879541 0.034265317 -0.031828076 0.023837358 0.0056325765 0.010943927 0.0095113935 -0.07750162 0.066918015 -0.004703603 0.015422048 0.052011568 0.016860487 0.06787246 0.075847045 0.032714777 0.049255393 0.028869277 -0.013143657 0.039339643 -0.011151216 0.050933976 0.09137 0.042575136 -0.018561566 0.06103884 0.04012703 0.04141099 -0.017218648 -0.05869233 0.07723724
d_282 -0.11037642 0.030393455 0.08794331 -0.122829065 0.15406299 0.12493527 0.092883974 0.008787244 -0.026811872 0.087212 0.10774757 0.0004580021 0.092138164 -0.21433762 0.1651542 0.112629175 -0.071113646 0.01678168 0.0058990307 0.13925545 0.06286058 -0.5711595 -0.10103058 0.13513252 0.13719946 -0.03183384 0.19430281 0.13322274 0.14121993 0.13299385 0.119946234 0.047392227
d_49 -0.19036803 0.14128049 0.070899665 -0.0627342 0.0064800773 -0.087273456 -0.25964478 0.1409754 0.13263969 0.07739182 0.12988131 -0.18822968 0.045695364 0.24683675 -0.043520458 0.14230275 -0.113665566 0.11348522 -0.1481537 -0.19491908 0.06568002 0.2074732 0.2630724 -0.049039386 0.04560733 -0.24968243 0.3024208 -0.22917104 -0.15241976 -0.17440157 0.09651079 0.11561801
d_358 -0.12547906 -0.024128847 0.073278025 -0.090172194 -0.20198336 0.013839995 -0.22642557 0.13677406 -0.001150128 0.040788095 0.07307781 -0.090397075 0.10651001 0.068485364 0.04658231 0.15914552 -0.017141793 0.11628412 -0.15452044 -0.06627026 0.14897998 0.09210998 0.07153971 0.02363858 0.074275546 -0.11209809 0.14256701 -0.21060403 -0.03119574 0.08910878 -0.025215536 0.07523778
d_143 -0.1551258 0.054862805 0.055709437 -0.0012457753 0.0022192867 0.0292749 -0.24887197 0.09366899 -0.028736683 0.16203155 0.15638071 -0.041880216 0.0312462 -0.084673315 -0.3066682 0.14782609 0.03128866 -0.07255596 -0.22491738 -0.21860129 0.07172191 0.21173473 0.0073402915 0.2496098 -0.049789358 -0.036714897 0.14417338 -0.068878114 -0.09462392 -0.25908613 -0.088168025 0.07852063
d_1281 -0.013972783 0.02903546 0.074944906 -0.022940684 -0.035393663 0.07607766 -0.04021088 0.07260955 -0.034741748 0.0071353917 0.017990602 -0.1104874 0.08067279 0.112378985 0.09727253 -0.010845383 -0.025935283 0.06689568 -0.106841385 0.038473785 0.0065086223 -0.09313316 -0.007625006 0.0311619 0.025501514 -0.13866724 0.005453135 0.18819475 0.038769532 -0.083132476 0.0185136 0.038538903
d_295 -0.12421111 0.10967192 0.12908916 -0.05276226 0.24521202 0.14922671 0.038397186 -0.007896041 -0.13262612 -0.062429838 0.15269126 0.09414539 -0.059579037 0.09347784 0.09217786 0.08608668 0.2289693 0.09207167 -0.09768507 -0.08741553 0.0048589045 -0.038797274 -0.026308607 -0.087940425 0.07172138 -0.06558591 0.22785631 -0.26054642 0.15207309 0.32143015 0.08044111 0.17570232
d_51 0.055514112 0.08253378 0.05906882 -0.09616038 0.18677542 0.1474434 0.0018096799 0.046420924 0.057521675 0.10838004 0.15531634 -0.13778071 0.06357308 -0.11022917 0.105972454 0.112070605 0.080262534 0.07688997 -0.1567274 -0.0035630884 0.12887537 0.0329864 0.07725427 0.10348496 0.09743687 -0.13078655 0.20773178 -0.15998004 0.12349292 0.044875532 -0.034512162 0.04433756
d_755 -0.1530033 0.11589549 -0.015603028 -0.061268397 -0.28807387 0.0045660646 -0.1116337 -0.0021771304 -0.09865946 0.000821583 0.1919635 0.06253308 0.074093945 -0.11724596 0.13414246 0.17563349 0.07104701 0.11983155 -0.22412036 -0.16259487 0.17516682 0.22231339 -0.086693704 -0.16559952 -0.0791577 0.015364706 0.23006833 0.14941128 0.11651888 0.32566732 -0.13871491 0.25288972
d_52 -0.015931278 0.02857661 0.054784253 -0.119896844 0.03270025 0.056283817 -0.10812661 0.042585365 -0.06347151 0.047889844 0.061841715 -0.012098156 0.093609504 0.09239716 0.09039642 0.09853032 0.05222607 0.06058793 -0.042650037 -0.10357118 0.035540104 0.040828817 0.081536934 0.071666785 0.016348714 -0.053858865 0.024613056 -0.068836026 0.019309675 0.054285906 -0.09394131 0.09544181
d_661 0.0013613839 0.021506075 0.13306294 -0.022175945 0.103991695 -0.096025445 -0.16519982 0.07620862 0.01884801 -0.018727817 0.08859015 -0.06111093 0.057457116 0.01964054 0.09094255 0.049226522 -0.05242209 0.09230838 -0.08159273 -0.114078104 0.06813735 0.14075288 0.025286844 0.0033149724 0.05731241 -0.0977663 0.038594615 -0.15899737 -0.062344242 0.13730931 -0.035477966 0.25313446
d_95 -0.060712364 0.03254696 0.079978906 -0.070255704 0.028472995 -0.008925464 -0.11392956 0.09393847 -0.039107684 -0.0065999716 0.041976642 -0.024642402 0.015467711 0.040834423 0.07382685 0.055138323 0.006444963 -0.003173039 -0.019048944 -0.11520478 0.07429968 -0.096448734 0.013427974 0.09030584 0.082473 -0.022825304 0.073977254 0.0117930975 0.04129561 0.098425485 -0.06896972 0.05561979
d_268 -0.03494586 0.090109356 0.0138625875 -0.00935718 0.09108408 0.068607524 -0.020692274 0.02138561 0.0017871065 0.013919961 0.026696566 -0.055750877 -0.0023194589 0.02558864 0.06033817 0.008386696 0.09492397 0.07919058 -0.047761194 -0.085687384 0.065174565 0.11724647 0.000995364 -0.0128323855 0.03818895 -0.05280339 0.13275856 -0.053137556 0.07030885 0.0647608 -0.057907764 0.08825369
d_53 -0.03567745 0.07908809 0.0427791 -0.06609306 0.046516977 0.060882505 0.0011739302 0.07328715 -0.045168243 0.095142424 0.09121068 -0.032939665 0.059125964 0.012306852 0.051436838 0.07788885 0.088351965 0.049911384 -0.08959955 0.014250267 0.0357885 -0.018338205 0.010949522 0.04705392 0.00023728423 -0.07666704 0.086795755 -0.069947764 -0.00458809 -0.0022198982 -0.053967867 0.0023249881
d_1128 -0.055892274 0.06452358 0.07434316 -0.11805994 0.17511338 0.046923105 0.09706866 0.07631632 -0.0952303 0.09299197 0.0977384 -0.03182863 -0.047488652 -0.120383434 0.008096165 0.15004286 0.13080665 0.03028216 -0.0739417 -0.11137229 0.09797979 -0.12673356 -0.006734225 -0.047246784 -0.08289078 -0.094456576 0.18523741 -0.03207552 -0.06350744 -0.13060701 -0.13268101 -0.20020175
d_230 -0.0859045 0.08776669 0.09933148 -0.072114 -0.001442676 0.06486125 -0.031999122 0.048965514 -0.10966415 0.14082599 0.010034218 -0.02445694 0.07337436 -0.062351838 0.016446881 0.112193346 0.0055437763 0.18823272 -0.18077993 -0.09756068 0.05219168 0.011081813 -9.148801e-05 -0.004503633 0.013266557 -0.12296646 0.16689977 0.010104542 0.007103603 -0.18897396 -0.081113204 0.12713744
d_923 -0.10068777 -0.01567771 0.07676209 0.030873511 0.19602095 0.07650821 -0.044764113 0.01872997 -0.040707726 0.08359012 0.0532778 -0.104311325 0.040973052 0.08021045 0.023967637 0.05351995 0.076175995 0.015905788 0.10363621 0.05282766 0.0635897 0.061344285 0.060938008 -0.07086151 0.048932776 -0.113915205 -0.08849988 -0.13875265 0.09762953 -0.16314507 0.000566944 0.117432885
d_54 -0.036401663 0.205574 0.22122419 0.029155647 -0.06867756 -0.020277124 -0.13577598 0.04372573 -0.13420679 -0.010798318 0.20176701 -0.16895199 0.104102306 0.085619986 0.066609934 0.18887548 0.12478996 -0.0044208276 -0.051124893 -0.17762136 0.048004664 0.1732943 0.25392953 -0.028086105 -0.069791056 -0.20845307 0.17699687 -0.13066626 0.06969393 -0.058971662 -0.10558249 0.16837876
d_649 -0.05332829 0.19731675 0.2830222 -0.065418184 -0.22048171 0.03767349 -0.05732315 0.08809401 -0.15467077 0.1713558 0.12279726 -0.13836281 0.008276075 -0.09642143 0.0949668 0.13953947 0.18356344 -0.058780883 0.033148088 -0.061225966 -0.07784249 0.43516278 0.059750095 -0.11060472 0.04903781 -0.22813047 0.55116856 -0.24673349 0.15413064 -0.05768445 -0.15531053 0.26667202
d_261 -0.04999495 0.11151567 0.07247761 -0.06624144 0.35925353 0.23809806 0.006842862 0.084857196 -0.07999618 0.060239825 0.22498412 -0.106872894 0.14580068 0.12351003 0.21487477 0.037275262 0.11111557 -0.11376708 0.14367379 -0.3553517 0.051862963 0.25755784 0.06797022 0.035076845 -0.09604825 -0.20190221 0.42837566 -0.3566953 0.1305516 0.23907034 0.071926124 0.23291323
d_334 -0.13381009 0.09867436 0.015581034 -0.08889421 -0.103606135 0.1413506 -0.10957976 -0.0052280407 -0.024355372 0.037636522 0.16929469 0.013761092 0.08110099 -0.030335613 0.15523823 0.14266843 0.07011558 0.11543626 -0.12439591 -0.14456801 0.15609764 -0.07427726 -0.03033543 0.03975082 0.015636671 0.00043254718 0.059109785 0.04663682 0.16370162 0.14604798 -0.1559938 0.10393098
d_55 -0.023872709 0.004456957 0.020084854 -0.13635442 0.017404756 0.12862623 -0.049634807 0.14841294 -0.1101822 0.118400976 0.12719944 -0.044733584 0.005060481 0.19994703 -0.0188488 0.10289604 0.030970236 0.15873016 -0.1379885 0.032744315 0.170291 0.05285316 0.13838875 0.02718043 0.123393275 -0.0873366 0.14757968 -0.2281395 0.15374124 0.0625372 0.01914595 0.08302889
d_344 0.31884596 0.060949456 -0.057095446 -0.07980193 0.46308652 0.11485508 0.20085157 0.24964261 -0.075884484 0.040666275 0.16323374 -0.22175074 -0.05058162 0.09292885 0.17601469 0.12197997 0.25351572 0.2518806 -0.2604265 0.02428129 -0.0048930165 0.42096627 0.056807883 -0.046778705 -0.041098718 -0.16501015 0.4352652 -0.048094466 0.08959985 -0.34035861 0.1801867 0.22698872
d_287 0.036156602 0.09095739 -0.012960193 -0.2704709 -0.33139926 0.13311705 0.002036524 0.25371602 -0.08810217 0.18681209 0.2948627 0.047953174 0.16195907 0.2541427 -0.07147601 0.26904315 0.12743913 0.24026377 -0.24613331 -0.099053435 0.18016304 0.42597884 0.043526378 0.29521742 -0.1097921 -0.050873064 0.25587782 -0.3123698 0.24547559 -0.04238289 0.1139197 0.0865095
d_56 0.08576294 -0.008796522 0.07101063 -0.07771527 -0.06544436 0.09509152 -0.042184215 0.060501426 0.015509301 0.19299941 0.18992375 0.027219687 -0.025022943 0.098155886 0.10268633 0.023880148 0.25530088 0.06454782 -0.25767362 -0.21203299 0.23572992 0.00053983694 0.21916877 0.09000577 -0.056726426 -0.121568285 0.142032 -0.26584238 0.120688565 0.1865352 0.09095015 -0.04810748
d_93 -0.005652138 0.025872344 0.11563948 -0.031536605 -0.021402739 0.12754303 -0.017976765 0.08670571 -0.07125282 0.06195639 0.109162614 -0.05269588 0.07973739 0.05980244 0.16717418 0.07417971 0.12286971 0.009849035 0.004531619 -0.10666547 0.04844089 0.1131707 0.075667806 0.06226061 0.12886861 -0.04211034 0.25795674 -0.15975112 0.0507655 -0.029221537 -0.009398703 0.21001726
d_712 0.0878729 0.009054027 0.061610445 -0.061366 -0.079741135 0.11261884 0.06744449 -0.05261203 -0.014337412 -0.062557966 0.1636992 -0.14405555 -0.034562163 0.07609268 -0.008595147 0.04985518 0.13999109 0.05839304 -0.1571646 -0.23968087 0.060675126 0.15212108 0.20598024 0.019412294 0.105611935 -0.1719409 0.07221101 -0.026638307 -0.0080245435 0.088422336 -0.053730503 0.071401566
d_57 -0.07947563 0.07273907 0.0843695 0.0019911963 -0.050171345 0.10412768 -0.12724516 0.04366509 -0.06849008 0.064682536 0.06279025 -0.030647654 0.05365984 0.033125516 0.06376787 0.074875444 0.03139289 0.050239395 -0.028406985 -0.051956467 0.07520163 -0.12667303 0.036838166 -0.007351585 0.06472285 -0.035109714 2.4310546e-05 -0.006036194 0.012833692 -0.027184805 -0.004280447 0.051033843
d_516 -0.11014272 0.013902151 0.11951114 0.09325558 0.23551701 0.06335352 -0.040002957 0.052912805 -0.14199728 0.08234244 -0.0226878 -0.09181635 0.043631207 -0.119834155 -0.052220024 -0.020284597 0.014338117 0.090443686 0.03631891 -0.18638507 0.11485819 -0.329679 0.056451384 0.026063066 0.12667817 -0.07162636 0.24192822 -0.19305198 0.009457132 -0.040700525 -0.09827789 0.118883155
d_58 -0.014754407 0.024364673 0.03858716 -0.060013086 -0.15654734 0.21851048 -0.100332126 0.006331671 -0.19808452 -0.02197728 0.076857604 -0.16099899 0.08344512 0.017965496 -0.022074884 0.014700696 0.1655059 -0.06815345 -0.15217626 -0.0285031 0.13303982 -0.2539579 0.012881484 0.092887506 0.053506084 0.06336728 0.022021841 0.13661921 0.07819458 -0.19017728 -0.13268235 0.05853616
d_739 -0.068453886 0.025309946 0.007974442 0.14444199 -0.158101 0.17374992 0.11061654 -0.042893663 -0.12565288 0.04646001 0.0038161557 -0.25221428 0.14223973 -0.017968135 -0.14000505 0.046470247 0.08940476 -0.019642428 -0.0604342 -0.14138596 0.095854774 -0.348295 -0.020146478 0.18424116 -0.0074690627 -0.087805055 -0.13547276 0.37124574 -0.087202184 -0.2630458 0.05141042 -0.060091116
d_377 -0.13306808 0.12673987 0.056386538 0.09432489 -0.14159296 0.10233259 -0.2355535 0.0714978 -0.11642772 0.010514388 0.066557705 -0.14144193 0.072545856 -0.18568361 -0.119786054 0.0236993 0.16047174 -0.11717395 -0.06439789 -0.017277788 0.09170847 -0.18095861 -0.013128695 0.08532596 0.04934459 0.032786213 -0.119675025 0.25486764 0.004080469 -0.43360683 -0.062314596 -0.013770898
d_59 -0.08647145 0.1086322 0.08043822 -0.05065441 0.042638548 0.022241045 -0.07990853 0.030145058 -0.0197086 0.07922978 0.07901223 -0.017940696 0.012921151 0.065676585 0.029505963 0.056428283 0.07723148 0.08660007 -0.010574393 -0.022888754 0.0043684617 -0.05556414 0.047674984 -0.021709463 0.08284445 -0.058283146 0.038952105 0.1221181 0.048915822 -0.069922246 -0.06455278 0.06318234
d_1000 -0.114102975 0.046332788 0.053682186 -0.11741847 0.26611298 0.009485167 -0.05314419 -0.07208913 0.0019365288 0.096757345 0.047813118 -0.10068868 0.03551526 0.0022735912 0.12083177 0.13811411 0.09492628 0.068393126 -0.054661345 -0.02778403 0.068365276 -0.051148903 -0.0026937164 -0.10898633 0.1294923 -0.07576875 -0.18020958 0.277445 0.019314531 -0.13344437 -0.07656541 -0.016184837
d_186 -0.09483975 0.06739684 0.05730205 -0.13805899 0.1988652 0.094388075 0.07988299 0.003137526 -0.02247226 0.10075226 0.07554703 -0.06663984 0.06690906 0.07396016 0.09129482 0.096748844 0.06867084 0.04884984 -0.13656358 0.012785994 0.017375313 -0.09298948 0.08282973 -0.1340827 -0.0077535077 -0.049384482 0.067046635 0.08168573 -0.004865544 -0.15816133 -0.047226418 0.11350769
d_184 -0.06367978 0.045632474 0.1276381 -0.16484407 0.36419213 -0.013067883 -0.028026804 -0.025102183 -0.1558218 0.1409112 0.039510798 -0.15242718 0.092876405 -0.16872987 -0.2222061 0.1809764 0.023339413 0.060711205 -0.28594097 -0.16667701 -0.021393064 -0.17239356 0.042763967 -0.17870635 0.0656668 -0.2030569 0.1400776 0.38536614 0.068668 -0.33753046 -0.017870892 -0.042052723
d_60 -0.110142395 0.055350095 0.014620924 0.06462034 0.1866 0.10983607 -0.089661255 0.061456025 -0.08504325 0.11510089 0.059919976 -0.036273442 -0.053068154 0.23585302 0.14086102 -0.0040208413 0.10729015 0.012906006 0.03410245 -0.029091503 0.02636177 -0.15663965 -0.036747407 0.055959776 0.059094016 0.030144643 0.14515296 0.16814095 0.15086614 -0.10492262 -0.03453668 -0.018034654
d_474 -0.08699556 0.051468246 0.05413416 -0.1008198 -0.042222295 0.16954823 -0.10589397 0.054851294 -0.039361957 0.14002357 0.11319116 -0.09575169 0.028065573 0.05369587 0.021948993 0.08431086 0.12734595 0.012858104 -0.009148691 0.016962193 0.102452986 -0.1565024 -0.027177181 0.06517002 0.026187668 -0.0149657205 0.10057381 0.14728718 0.15399656 -0.24073213 -0.003719306 -0.0008828421
d_127 -0.17093614 0.040949784 0.04091684 -0.035683334 -0.04209809 0.09925906 -0.10179364 -0.026178619 -0.056341015 0.0454259 0.023042524 -0.01915668 0.020284439 0.059355892 0.07469714 -0.004298633 0.11499948 0.05804117 0.0010181662 0.055951662 0.17176586 -0.16951554 -0.0003527375 0.06545814 0.054630615 -0.07360887 0.13636948 0.14261127 0.1915896 -0.17982286 -0.050228577 -0.047917362
d_61 -0.05741133 0.10235113 0.039369848 -0.059024613 -0.25529045 0.20823526 -0.1176197 0.02647098 0.023276266 0.19275926 0.046799872 -0.10313198 0.07769325 0.15494853 0.052134745 0.07333692 -0.08598909 -0.09909423 0.026029456 -0.09742665 0.120584965 -0.21980564 0.059873834 -0.04014961 0.0053494656 -0.07835799 0.09628519 -0.15730514 0.10892171 -0.32367215 -0.016831484 0.054387372
d_722 -0.017893273 0.06323241 0.013775882 -0.048553176 -0.0068391683 0.0111913895 -0.01884156 0.049211416 0.0028538927 0.10744667 0.07237733 -0.0024876408 0.08338236 0.053774927 0.09058278 0.10355625 -0.030377507 0.02290974 -0.031041874 -0.03697211 -0.016965007 0.0100189615 0.044636816 0.017741228 -0.027044505 -0.021112338 0.010922092 0.04166899 0.1297806 0.011019303 -0.036810324 -0.061691385
m_95 0.20802116 0.009129838 -0.055013843 -0.029539444 -0.38641974 0.038571566 0.003529719 -0.060398124 0.028965842 0.07825116 0.08242554 0.10732378 0.024844546 0.14076169 0.030207183 0.0549974 0.21363868 -0.08842952 0.036277674 -0.115168124 -0.010431876 0.0758602 0.095054105 0.22261499 -0.22650172 -0.11112774 0.13542275 -0.087459855 0.0662359 -0.04405386 -0.11719448 0.13747364
d_1124 0.022614617 0.064369045 0.045947894 -0.029675093 0.001289377 0.0479472 0.060618233 0.04549426 -0.041549407 0.01799839 0.027874265 -0.01376133 -0.007234946 0.05026748 0.011823968 0.016467243 0.045663558 -0.0031331321 -0.045264408 -0.007562753 0.025240142 0.058032975 0.13889727 0.090451196 0.012479563 -0.045855783 -0.02842703 0.1044045 0.00050378405 -0.04752294 0.02797081 0.060263842
d_62 0.011742484 0.09934538 0.05710475 0.0068864003 -0.03489696 0.08366152 -0.11926357 0.058574356 -0.018867554 0.061886586 0.034578282 -0.09962774 0.07672054 0.04692413 0.07578605 0.07686058 -0.08180124 0.028371803 0.03862709 -0.07048461 0.06617055 0.019729843 0.07348448 0.08059161 0.04873499 -0.081940934 -0.17166083 0.095997795 0.15204424 -0.13704647 0.08176963 0.07163134
d_1368 -0.099206425 0.042027224 0.035204068 -0.018814158 0.19553684 0.03905764 -0.0035536038 0.03264048 -0.033511877 0.076923504 -0.036342926 -0.10530045 0.073419906 0.045489743 0.021737827 0.06444687 -0.010641208 0.012064593 -0.0004262766 -0.04571705 0.08760539 0.094216324 0.039893646 0.033750735 0.036975417 -0.046979617 0.092809185 -0.08914134 0.03226951 0.012964186 -0.023151523 0.00745248
d_262 0.22844318 -0.06626812 -0.053631462 -0.25934032 0.27327508 0.13908538 -0.14110762 0.08198224 -0.012316677 -0.030291673 -0.031399563 -0.19769041 0.041949295 0.24442933 0.22976327 -0.043012507 0.12919156 0.18449202 0.11051521 -0.035220932 -0.026214384 -0.09214725 0.03388667 0.16387804 0.069265604 0.15166852 -0.20626722 -0.15446831 0.08806166 0.2972038 -0.027493864 0.22719696
d_63 -0.038183074 0.08368308 0.083066724 -0.08132795 0.07764726 0.03840065 -0.02707937 0.038155094 -0.01958555 0.051849496 0.014819174 -0.09591763 -0.0010316453 0.09103546 -0.019013438 0.024144957 0.07907295 0.016364083 -0.12160639 -0.08881137 0.06745499 0.02558857 0.03254495 0.09753714 0.0759392 -0.003981707 0.056795143 0.08927828 0.008318585 -0.09556611 -0.07089498 -0.006678765
d_144 -0.15536278 0.09884969 -0.06812182 -0.14429136 -0.15777464 -0.13911226 0.109591044 0.018008184 -0.045009777 0.01918323 0.032153275 -0.15641889 -0.0031655894 0.038723167 -0.12312973 0.021684406 0.14968601 -0.081379175 -0.18860327 -0.2164815 0.062323898 -0.0904499 0.0014927904 0.19070907 0.011203 -0.035297766 0.08672455 0.14569534 -0.1778807 -0.17728962 -0.16521414 -0.09621209
d_342 0.10001069 0.047969863 -0.06316721 -0.08950837 0.10030338 -0.09778414 -0.17341292 0.011594576 -0.05916055 0.0730599 0.031219494 -0.01896198 0.14635184 0.13244464 -0.13587345 0.17316604 0.090656295 0.07826216 -0.16724613 0.07020379 0.08011247 -0.04698266 0.069015145 -0.09769158 0.058318157 -0.046623394 0.013515866 0.17827925 -0.05746234 0.11218717 -0.0460005 0.100241005
d_64 -0.05343839 0.0037399065 -0.008283765 -0.024741264 0.00714548 0.060799208 -0.066519804 -0.03705005 -0.049468096 0.03773883 -0.03156729 -0.08997487 0.049872752 0.0725001 0.09259628 0.09625345 -0.0026929546 0.028174078 -0.015900342 -0.088457 0.10166705 0.1273577 0.040584315 -0.025196912 0.015107033 -0.08753795 -0.014911067 -0.055648707 0.10435812 -0.062389467 -0.0029367162 -0.0022108448
d_857 -0.02918176 0.023316275 -0.013986576 -0.06896675 -0.15490563 0.05391962 -0.10367882 0.050511397 -0.07975749 0.06870085 0.10094889 -0.08856138 -0.03304128 0.13898289 0.030778987 0.062477574 0.06833449 0.109469876 -0.03086062 0.026776124 0.02216196 0.08951251 0.0026495121 0.03552413 0.07199941 0.0005104188 0.15197465 0.14867984 0.034182765 0.07600299 -0.096339785 0.074901894
m_12 -0.10753968 0.0010522353 0.06972821 -0.018305376 0.06685149 0.12590404 -0.062223233 -0.103688315 -0.013448628 0.07339082 0.009399589 -0.060020197 -0.0006062258 -0.039389677 0.062207196 0.10998808 0.10949789 0.13093251 0.15715486 -0.029156834 0.08963472 0.2782926 -0.0082762195 0.007810888 0.061938103 -0.081132606 -0.18122087 0.07395677 0.07692204 0.09112096 -0.10761542 0.05366265
d_65 -0.074256964 0.08088187 0.08355398 -0.06598026 -0.12374783 0.015947957 -0.115358196 0.0323178 -0.080778666 0.076369606 0.11379921 -0.10718883 0.008011607 0.08137505 0.036207773 0.07406576 0.062761724 -0.014583895 -0.042627256 -0.014943359 0.1196015 -0.07200625 0.05272162 0.050202236 0.017542934 -0.060191244 -0.033362906 0.07812503 0.07528408 -0.119923756 -0.044645056 0.032704335
d_1042 -0.06205146 0.04387819 0.09550494 -0.030085193 0.1182291 0.072516255 -0.17129613 0.029186973 -0.12954287 0.12791762 0.02000941 -0.11264184 0.046634953 0.112195656 0.10472476 0.067701556 0.094247155 -0.007049793 -0.048558652 -0.039702203 0.089225054 -0.0972463 -0.0023063365 0.045167856 0.10470717 -0.039131004 0.05313429 0.00851939 0.13689435 -0.18755813 -0.0039574904 -0.034257174
d_1365 -0.05841239 0.087934494 0.0016338511 -0.0658196 0.024871102 0.0657839 -0.08023114 0.033957675 -0.061810896 0.041372962 0.08148434 -0.066355035 0.048510164 0.034126975 0.10652734 0.030993342 0.10405065 0.027051402 -0.043371897 -0.049993187 -0.0017800196 0.047746163 -0.0042424547 0.038218755 0.048970386 -0.08962211 0.010685236 0.07137225 0.033130445 -0.080518454 -0.074390836 0.064278826
d_66 -0.13849992 0.13974445 0.08289989 0.06543812 -0.055191606 0.113853715 -0.40262565 0.048792735 -0.13104963 0.15229402 0.06255685 -0.1297185 0.007893626 0.29794276 0.0894115 0.19779712 -0.05427812 -0.089713186 0.042795036 0.14657532 0.04683039 -0.2145889 -0.08422965 -0.04913525 0.053280354 -0.012680238 0.23056318 -0.23966911 0.10765017 -0.4585446 0.1591854 0.08010789
d_525 -0.24776824 0.15157942 0.11125358 -0.1175235 0.13567403 0.157047 -0.19248511 -0.035709914 -0.09803147 0.11306732 0.08136407 -0.14516152 -0.20573282 0.20396413 -0.046898603 0.22033921 -0.13878961 0.013076121 0.01595908 -0.107909165 0.16785046 0.41715926 0.1753134 -0.13555358 0.19963919 -0.037327267 -0.104408436 -0.09182963 0.06696853 -0.23267627 0.104393095 0.11774723
d_278 -0.20520507 0.07869834 -0.0709531 0.0064706868 0.18846631 0.056946363 -0.2889183 -0.06849594 -0.19205305 0.0938935 0.13100983 -0.19513659 -0.11067428 0.19665894 -0.058838557 0.16399625 -0.08574462 0.061705865 0.12935475 -0.14386065 0.022593634 -0.14351135 0.14276157 0.091842405 0.15038191 -0.048828207 0.21116224 -0.011590512 0.14486498 -0.28675354 0.050943132 -0.0073352293
d_1076 -0.16448332 0.14991102 0.045295957 -0.033917934 -0.23368818 0.11963038 -0.18143626 -0.03237612 -0.17697859 0.056752335 0.119418964 -0.04008022 0.13308762 0.15549056 -0.075913034 0.07212078 0.053351514 0.054211985 -0.019975832 0.08809857 0.16554636 0.1083921 0.1078721 -0.09047287 0.010897132 -0.14466883 0.023469707 -0.26547194 -0.056045365 0.18891917 -0.11319698 0.117300294
d_67 -0.11901684 -0.032101832 -0.006803112 -0.066199616 -0.067882545 0.18486814 -0.19024493 -0.027040605 -0.18872459 0.103790045 0.02104158 -0.06204714 0.004447406 0.20403652 0.247529 0.15700151 -0.016399965 0.18156232 0.12254924 -0.0648319 0.103358574 0.09620525 -0.04901104 0.07088003 0.19179007 -0.184183 0.12264104 -0.18699959 0.09387948 -0.18443854 0.044252988 0.08427742
d_505 -0.109989926 0.06710497 0.10760156 -0.08356615 0.0940767 0.10261961 -0.09725948 0.04970697 -0.04317932 0.08469304 0.08492664 -0.14384814 -0.0704485 0.03179078 0.0016574092 0.07240209 0.111292884 0.07231293 -0.030683983 -0.11007819 0.026548846 -0.3045722 0.13922757 0.039022014 0.06956502 0.01120721 0.15684325 -0.16379455 0.052803323 -0.05062704 -0.06052451 -0.005904236
d_68 0.0006340761 0.0094487965 -0.024879845 0.03141503 -0.00017051771 0.123276435 0.023616597 0.07936652 0.039470542 0.011178404 -0.047275726 -0.013247773 0.08400541 -0.032483306 0.019334704 -0.0718898 0.023695108 -0.028935326 -0.03068031 -0.02584251 0.02010885 -0.21770135 -0.036535114 0.17458494 0.16030842 -0.0047966065 0.0012137461 0.08396526 0.06178174 -0.041204154 -0.02436636 -0.08059405
d_710 0.020694394 0.004826611 -0.038906224 -0.122620344 -0.051688783 0.09935597 -0.02114334 0.11689904 0.02811575 0.10042905 0.002419388 -0.100766614 -0.0051586353 0.14111117 0.02046381 -0.014806712 0.15623046 0.07760242 -0.020104926 -0.06590004 0.033756297 -0.1960492 0.058397077 0.18672153 0.037260786 -0.060478732 0.13113089 0.014080459 0.016569495 0.020865178 -0.0912817 0.028743476
d_1345 0.0024597142 0.016457323 0.005432456 -0.098914705 -0.05180212 0.061779067 0.017787201 0.10611955 -0.00083516864 0.06772981 0.01733566 -0.05069178 0.077483185 0.09928097 0.03601871 0.04759658 0.05312034 0.067506105 -0.006461788 -0.0493119 0.032818045 -0.05699494 0.073226936 0.11527949 0.063775785 -0.015958896 0.023920503 0.0103653055 0.10557244 -0.0025325639 -0.121872775 0.017470134
d_1187 -0.076537356 0.04190061 0.04410079 -0.004149109 -0.0027347647 -0.0127152 0.033488065 0.04192664 -0.055648036 0.08341244 0.12247512 0.008292152 -0.08629067 0.059020963 0.11328748 0.015264064 0.096238054 0.011253409 -0.11010779 -0.14068393 0.058631405 -0.1502419 0.027100615 0.1675276 0.054304972 -0.072308294 -0.004285509 -0.0930885 -0.007497569 -0.118075825 -0.09583303 0.025248546
d_70 -0.052575864 0.12639952 0.1341832 -0.043890864 -0.19633774 -0.018215677 -0.05976456 0.1454505 0.068816885 0.07194462 0.2201859 -0.022930443 0.07571781 0.036582597 0.10084025 0.15988019 0.040200442 -0.012851361 -0.18517521 -0.20788546 0.068576634 0.15915202 0.07481082 0.026516637 0.10486724 -0.098592274 0.31129983 -0.18640554 0.06482587 0.10853485 -0.08586213 0.13674723
d_602 -0.03978476 0.12311935 0.16127414 -0.110195205 -0.087168 0.01636832 -0.0072052376 0.15556769 -0.0401103 0.043923546 0.12967674 -0.08505325 0.10948686 -0.018597309 -0.06879005 0.14675951 0.06508945 0.019856628 0.021437924 -0.18650028 0.07249749 0.28035372 0.18044458 -0.063319966 0.019630034 -0.240109 0.44463202 -0.44271445 0.064816914 0.27018133 0.010308568 0.38197932
d_251 0.0036628172 -0.010278 -0.010294553 -0.08182305 0.11472693 0.043214396 -0.039575886 0.047797263 -0.015826892 0.15509719 0.04012071 -0.12320313 0.06390701 0.052357703 0.06295456 -0.033042975 -0.033901133 0.11190487 0.03125867 -0.15252155 0.08696923 0.12559938 0.1143147 -0.038200863 0.079930134 -0.10398119 -0.017192626 0.13478933 0.14158437 -0.08428287 -0.06759989 0.13868357
d_71 -0.09531276 0.012114574 0.005219101 -0.04810307 -0.1462176 0.1736507 0.032405507 0.006345032 -0.054893713 0.0843545 0.096272655 -0.039468113 0.03599651 0.15552072 0.28252774 0.090306826 0.0061828494 0.16536364 0.0071794596 -0.21441735 0.0760859 -0.070636556 0.002463948 0.11391851 0.13949375 -0.11004081 0.18011837 -0.17680451 0.085029244 -0.07552401 0.08463732 0.10542899
d_1133 -0.034877304 0.114813946 0.07399976 -0.0736744 0.023582738 -0.0048583746 0.05384999 -0.033635594 -0.06547319 -0.012204012 0.11949864 -0.13480343 -0.023664284 0.07333428 0.16975525 0.053150948 0.12378478 0.051781114 0.073199004 -0.19817248 0.027210297 0.1168298 0.07043423 0.035955418 0.102576405 -0.19847141 0.28686863 -0.09707134 0.07754943 -0.16107643 0.03222167 0.04786732
d_237 0.05524543 0.062018864 0.1324212 -0.107606106 0.36833695 0.037518144 -0.007872063 0.017068412 -0.11388369 0.033479862 0.12761003 -0.11176358 0.04604585 0.009222238 0.061350137 0.062647834 0.124230385 0.11884346 -0.048567005 0.032203086 0.1289346 0.10729702 0.10236062 0.066674575 0.12321597 -0.06011705 -0.03154993 -0.27042037 0.116565116 -0.079859465 -0.067740895 0.13870807
d_72 -0.13961014 0.13506827 0.08610806 -0.086381294 -0.10539186 0.09779802 -0.008157012 0.080866896 -0.02199424 0.07356732 0.10768942 -0.16750662 0.11404117 0.21085425 0.14385203 0.1728515 0.16899651 0.094545364 -0.00670484 -0.06405132 0.13689949 -0.17693123 0.13918711 -0.07554508 0.11648843 -0.03982301 -0.24784684 0.27892143 0.024400165 0.2534373 -0.021803992 0.007082251
d_314 -0.2786158 0.3536103 0.17574286 0.06829273 -0.37114504 0.0028087795 -0.07114871 0.22391784 0.08035685 0.16539326 0.07786821 -0.29626414 0.23203601 0.14137523 0.4447263 0.16129771 0.2115823 0.25201476 -0.1006081 -0.10629656 0.21359079 -0.45169613 0.22662224 0.05143331 -0.03490243 0.005129561 -0.45331278 0.55342233 -0.07518201 0.5302482 -0.17359425 -0.12577249
d_480 -0.056213614 0.15132776 0.10925153 0.017345581 -0.16114815 0.020373635 -0.011643674 0.020437073 -0.07198851 0.060909104 0.11577782 -0.05443945 0.09423327 0.11936069 0.040740483 0.06277958 0.09560907 0.18780574 -0.18656588 -0.10724622 0.0763323 0.010033944 0.052697893 -0.15014596 0.16638443 -0.1083043 -0.32399592 0.32592437 0.037508223 0.37277696 -0.10351579 -0.005409508
d_1335 -0.005712529 0.043828662 0.13919392 -0.0113399215 -0.12255579 0.004096628 0.018196201 0.0077666887 -0.11920136 0.051690422 0.025790038 -0.043593813 0.09106188 0.11559674 0.014002193 0.16956733 0.14649676 0.059801903 -0.047519762 -0.013135111 0.0417526 0.06477292 0.06769006 0.033119984 -0.015270081 0.04048461 -0.08979661 0.12583245 0.018204313 0.02564055 -0.03487446 0.0036352016
d_73 -0.26312298 -0.0010250341 0.2877291 -0.17683153 -0.43780592 -0.04663855 0.011528877 0.09573404 -0.08944411 0.11212973 0.12990086 -0.009216144 0.23932369 0.13892063 -0.124457784 0.14263333 0.11756845 0.24879704 -0.06725547 -0.16758205 0.03510193 0.18733624 0.06386511 0.08841243 0.123915106 0.070062965 -0.17134087 0.21116689 0.23583828 0.2224618 -0.22191054 -0.18810214
d_75 -0.17088729 0.13076538 0.16117454 -0.021829808 -0.21547088 -0.050850753 -0.03968139 -0.02859496 -0.15895155 0.01611866 0.018405857 0.04233094 0.13064681 0.22152044 -0.017105218 0.17271535 0.12619326 0.061451115 -0.19703361 -0.001924268 0.12551124 -0.20780645 0.12096939 0.015786622 0.17147441 0.07894178 -0.10850398 -0.11096949 0.0004359153 0.1180812 -0.048031572 -0.049654134
d_717 -0.066383354 0.10318286 0.14234504 -0.051973034 -0.10812912 -0.020754876 -0.053018644 -0.0232802 -0.08892503 0.101291835 0.07771652 0.03274476 0.094260074 0.0725043 0.015595656 0.09944758 0.067085356 0.08748754 -0.17593522 -0.081816785 0.05083586 0.036539048 0.1076919 0.04975581 0.1025511 0.011107203 -0.13783991 0.17249604 0.08399123 0.14227681 -0.08312228 -0.13254781
d_153 -0.13411479 0.049471796 0.01666804 -0.039257355 -0.17819685 0.083656 -0.040185615 0.07189453 -0.08454091 0.02408791 0.031177945 -0.058077555 0.10253312 -0.010561542 0.037436172 0.07491195 -0.017857887 0.06535604 -0.14928025 -0.01064309 0.092131756 -0.106821135 0.040514212 0.045842193 0.0260007 -0.051299185 0.15532047 0.11109641 0.07284695 -0.027213953 -0.030011801 0.07455841
d_74 -0.1454967 0.15422837 0.15437415 0.022089988 -0.22431989 0.06690711 -0.1481023 0.1799541 -0.04115654 0.11095974 0.10733566 0.07390408 0.016449494 0.10614748 -0.08116409 0.07423383 -0.027808575 0.08887262 -0.044847205 0.10945172 0.11505525 0.060058493 0.06289754 -0.078607984 0.12453761 -0.16938066 0.045766145 0.10539967 0.13681586 0.1993959 -0.093475126 -0.027656885
d_673 -0.14436457 0.18181878 0.16154908 -0.060676105 -0.3760068 0.040167168 -0.124216214 -0.082578875 -0.09811782 -0.010126382 0.08411374 0.04408031 0.068741746 0.3130312 -0.06196259 0.2133227 0.20469424 0.024113273 -0.31742173 0.10577281 0.17628607 -0.02666711 0.248314 -0.1760843 0.21377459 0.1931558 0.05364903 0.37999225 -0.0041453466 0.04678903 -0.00011446839 -0.07405122
d_927 -0.16872464 0.22534081 0.21417642 -0.09028837 0.04559641 -0.067172036 0.15327807 -0.14539368 -0.27382347 0.21903689 0.19986427 0.06769245 0.10649358 0.14078867 -0.020238968 0.29094163 0.20094766 0.23818472 -0.35143808 -0.14125045 0.16917484 0.10938608 0.21446463 -0.08779417 0.46379405 0.04975047 -0.48080713 0.39918783 0.20501316 0.39453277 -0.1874012 -0.18102881
d_1109 -0.13497087 0.058834087 0.08941065 -0.08189561 -0.055644643 0.026007479 -0.083022855 0.06639985 -0.15913148 0.107184604 0.07058941 -1.6065314e-05 0.1635946 0.14598009 0.040147748 0.0684114 0.025589127 0.027714677 -0.05569992 -0.06475286 0.09770832 0.07550103 0.13083296 -0.15936519 0.11379421 -0.07378415 -0.044831283 0.107614696 0.050382677 0.15126826 -0.084763035 0.023485154
d_811 0.03262264 0.16645998 0.11509158 0.04742709 0.03896612 0.099616885 0.05880373 -0.024059135 -0.11259821 0.082428664 0.07696464 -0.09847075 0.12521912 0.053240277 -0.13221279 0.10319452 0.03144618 0.07508493 -0.06937505 -0.014823567 0.07476277 0.0596134 0.05334991 0.041653667 0.12859236 -0.029726185 -0.3265984 0.0888101 -0.010548862 0.2887506 -0.0442597 0.006712348
d_76 -0.112456836 0.08173201 0.13384031 0.04180222 -0.1147021 0.04201902 0.08200006 0.10379568 -0.026200786 0.042843156 0.102164 -0.016821329 0.030106135 0.13791263 0.0580827 0.13264644 0.101967454 0.0334106 -0.15311334 0.023716623 -0.012359167 -0.19226258 0.08182939 -0.018383918 0.12067692 -0.101238966 -0.16131304 0.11259297 0.106395796 0.13748127 -0.03895139 -0.02429327
d_614 -0.060840957 0.036895417 0.12047565 0.017085895 -0.0011053372 0.006147969 -0.03677807 0.0063699465 -0.08398062 -0.0022317877 0.029007277 -0.009431754 0.02345016 0.032444272 0.035439078 0.05779293 0.09331068 0.10410524 0.015304908 -0.13481267 -0.0022528898 -0.089015216 0.05847684 -0.06888472 0.10198926 -0.006948699 0.013407177 0.039575707 0.07113356 -0.059006333 -0.09779338 0.049819633
d_593 -0.092128985 0.06673806 0.16548225 0.14233984 -0.18696606 0.08463462 0.004771911 0.1050032 0.04484753 0.078869835 0.080416135 -0.074421465 0.1295245 0.123887986 0.068066314 0.012834901 0.02069706 0.017821522 -0.15362315 0.017770123 0.0028581885 -0.11615404 0.1642619 -0.024142792 0.11951451 -0.091828994 -0.1860383 0.12807338 0.06621756 0.044405535 -0.054251697 -0.13388546
